{"fc1.weight": [[0.7159104347229004, 0.5388687252998352, 0.01774470880627632, 0.14378973841667175, -0.5746621489524841, -0.18370401859283447, -0.07268929481506348, -0.5298210978507996, 0.14997132122516632], [-0.5213913917541504, 0.8912712931632996, 0.44602707028388977, 0.04619148001074791, -0.03555317595601082, -0.09980825334787369, 0.2155509889125824, -0.4623670279979706, 0.18216823041439056], [-0.6132641434669495, 0.07813053578138351, 0.6096760034561157, 0.09481178224086761, -0.20196351408958435, 0.03336995467543602, 0.14913086593151093, -0.6783633828163147, 0.15882396697998047], [0.8093258738517761, 0.7295038104057312, -0.2289113849401474, 0.054440319538116455, 0.009623841382563114, -0.10126488655805588, 0.052626583725214005, -0.13087819516658783, 0.011093220673501492], [0.19495144486427307, 0.5343418717384338, 0.34952154755592346, -0.05266624316573143, 0.06166980043053627, 0.3924183249473572, -0.5091354846954346, -0.7233074307441711, 0.33142274618148804], [-0.5786234736442566, 0.2642287313938141, -0.03817182406783104, 0.4530119299888611, 0.5753254890441895, -0.1291760951280594, 0.15070569515228271, -0.28415152430534363, 0.279300332069397], [0.1397804319858551, -0.29009053111076355, 0.1405375450849533, -0.31517016887664795, -0.6570215821266174, 0.3398664891719818, 0.30126291513442993, -0.13531149923801422, -0.020125648006796837], [-0.002245832933112979, -0.1578492522239685, -0.10702308267354965, -0.510673999786377, -0.31665360927581787, -0.6556001305580139, -0.18512317538261414, -0.1270080804824829, -0.20992814004421234], [0.14011870324611664, 0.3132890462875366, 0.7017462849617004, 0.06394706666469574, -0.2968980073928833, 0.13709044456481934, 0.4894774258136749, -0.33239632844924927, -0.225923553109169], [-0.11378785967826843, 1.2374308109283447, -0.2622237205505371, -0.1932767629623413, -0.13244572281837463, -0.223904088139534, 0.030478373169898987, 0.6387119889259338, 0.01710447296500206], [-0.19877775013446808, 0.5902814269065857, 0.6484495997428894, -0.5171585083007812, -0.42422741651535034, -0.11569014936685562, -0.09000541269779205, 0.4165017306804657, 0.0023945665452629328], [-0.2595203220844269, -0.8243604302406311, 0.056263092905282974, 0.20062674582004547, 0.003699395339936018, -0.12287209182977676, -0.02689771167933941, 0.4513109624385834, 0.2709366977214813], [0.2533262073993683, -0.30279794335365295, -0.0019098133780062199, 0.4541226327419281, -0.13168281316757202, -0.07231710851192474, -0.25597262382507324, 0.09313975274562836, 0.3266671597957611], [-0.6982197165489197, -0.01569814234972, 0.5792291164398193, -0.20093709230422974, 0.6254115104675293, 0.36724820733070374, 0.10147375613451004, -0.4052337408065796, -0.22341230511665344], [0.10062839835882187, 0.3535254895687103, 0.014726968482136726, 0.9522944688796997, 0.09564516693353653, 0.38297149538993835, -0.14734713733196259, -0.04241420328617096, 0.20353089272975922], [0.5550564527511597, -0.7089827060699463, -0.17238926887512207, -0.2072259783744812, -0.06421945989131927, 0.1274685561656952, -0.27688729763031006, 0.3164196312427521, 0.6246551871299744]], "fc1.bias": [0.0053484318777918816, 0.14304734766483307, 0.428446888923645, 0.43960484862327576, -0.1815459132194519, 0.30109456181526184, -0.11727485060691833, 0.39152243733406067, 0.37003031373023987, 0.057348430156707764, 0.09589435160160065, 0.40893954038619995, 0.011304600164294243, 0.18081046640872955, 0.17428351938724518, 0.12006600201129913], "fc2.weight": [[0.10707733035087585, 0.2603532075881958, -0.13765153288841248, 0.02944296784698963, 0.32690921425819397, -0.33824506402015686, 0.13495753705501556, -0.06322067230939865, -0.24596147239208221, 0.27651122212409973, 0.03316771239042282, -0.5903258323669434, -0.5114772915840149, -0.321919322013855, 0.0035131373442709446, -0.42030516266822815], [0.5937234163284302, 0.9362110495567322, 0.5013753771781921, 0.8278881311416626, 0.5767213106155396, 0.12835931777954102, 0.7017208337783813, 0.113619863986969, 0.5996548533439636, 0.4050147235393524, -0.4197153151035309, -0.37824854254722595, 0.07227569073438644, 0.1137557104229927, 0.2968103587627411, 0.2549867630004883], [-0.034788839519023895, 0.67536461353302, -0.009617602452635765, 0.26425743103027344, 0.3490433692932129, -0.16501730680465698, -0.08847378939390182, 0.5942981243133545, 0.04237591475248337, 0.578920304775238, 0.868303656578064, -0.12575066089630127, -0.2212933748960495, -0.07725897431373596, 0.5506507158279419, 0.09335879981517792], [0.10839229822158813, 0.749840259552002, 0.003116635140031576, 0.17001526057720184, 0.9359639286994934, -0.14910413324832916, 0.23405539989471436, 0.0016582285752519965, 0.15489988029003143, 0.7578616738319397, 0.7551715970039368, -0.11186786741018295, -0.35835492610931396, -0.007667086087167263, 0.015279820188879967, 0.06286861002445221], [-0.22522351145744324, 0.3909279704093933, -0.27323633432388306, 0.07605218142271042, 0.4094788432121277, -0.07507622987031937, 0.2729271948337555, 0.4805523157119751, 0.13240978121757507, 0.7073967456817627, 1.0473788976669312, -0.09791149944067001, -0.07987971603870392, 0.03225361928343773, 0.24183525145053864, -0.04616096615791321], [-0.4583078622817993, -0.37054210901260376, -0.08221505582332611, -0.8017846345901489, -0.4608577787876129, -0.21010148525238037, -0.44561895728111267, 0.29676133394241333, -0.6923887729644775, -0.8894501328468323, 0.41028881072998047, 0.18422207236289978, 0.3921352028846741, -0.5355182886123657, 0.2951866090297699, 0.11811916530132294], [0.7667611837387085, 0.9048784971237183, 0.2677838206291199, 0.8337898850440979, 0.8895736336708069, 0.08420031517744064, 0.47832489013671875, 0.07231961935758591, 0.5171458125114441, 0.5298430919647217, -0.13880987465381622, -0.30547618865966797, -0.1847652941942215, 0.2395259290933609, 0.33626511693000793, 0.08187693357467651], [0.638982355594635, 0.5915692448616028, -0.14862483739852905, 0.6176761388778687, 0.8802464604377747, 0.25471723079681396, -0.23804618418216705, 0.22288374602794647, 0.024347830563783646, 0.6629918813705444, 0.25473085045814514, -0.6661497950553894, -0.32503145933151245, 0.07838453352451324, 0.28890660405158997, -0.13803525269031525], [0.5044913291931152, 0.9039536714553833, 0.7712693810462952, 0.6482647061347961, 0.633800208568573, 0.5912488698959351, 0.5395947694778442, -0.13019560277462006, 1.102696418762207, 0.5820902585983276, -0.09043537080287933, 0.25895699858665466, -0.07746955007314682, 0.4995148777961731, -0.06271559000015259, 0.129594624042511], [0.4574192762374878, 1.1008599996566772, 0.5145296454429626, 0.5411997437477112, 0.5536292791366577, 0.7197961211204529, 0.269062876701355, 0.06513378024101257, 1.0795761346817017, 0.06540058553218842, -0.3297441303730011, -0.09598352015018463, -0.1726796180009842, 0.5363543629646301, -0.23571597039699554, 0.37068673968315125], [0.6349233388900757, 0.9665309190750122, 0.3455562889575958, 0.8380744457244873, 0.6279931664466858, 0.0848049521446228, 0.24518056213855743, 0.08458663523197174, 0.3419428765773773, 0.0888262465596199, 0.0326228067278862, -0.31999385356903076, 0.09013843536376953, 0.07891853898763657, 0.15997935831546783, 0.14404980838298798], [-0.3716370165348053, -0.6490615010261536, -0.16087742149829865, -0.6263794302940369, -0.6808457970619202, -0.1268232762813568, 0.041099272668361664, 0.600456178188324, -0.13721375167369843, 0.030976522713899612, 0.4049810469150543, 0.5183134078979492, 0.5222080945968628, -0.5394874215126038, 0.6561509370803833, 0.2408219575881958], [-0.3192981481552124, -0.6307587623596191, -0.5613054037094116, -0.8484764695167542, -0.32903414964675903, -0.591923713684082, -0.15568986535072327, 0.20329535007476807, -0.5285330414772034, 0.1205725222826004, 0.7572110295295715, 0.08160263299942017, -0.0298252422362566, -0.4523918032646179, 0.5121016502380371, 0.2452264130115509], [0.3689185380935669, 0.09144812077283859, 0.7086086869239807, 0.2100522518157959, -0.11512630432844162, 0.6561586856842041, 0.4009600579738617, -0.05692421644926071, 0.5455437302589417, -0.17481544613838196, -0.4161861836910248, 0.4666266441345215, 0.0038901979569345713, 0.6970921158790588, 0.0979173555970192, 0.36048245429992676], [-0.24550679326057434, -0.41554367542266846, 0.2674245536327362, -0.33132845163345337, -0.4692673981189728, 0.46029236912727356, -0.21283218264579773, 0.37564098834991455, 0.09889351576566696, -0.018982281908392906, 0.16125187277793884, 0.5131359100341797, 0.8359334468841553, -0.31292393803596497, 0.23771889507770538, 0.641214907169342], [0.7330896258354187, 0.7836850881576538, 0.6001879572868347, 0.5064476728439331, 0.2625296413898468, 0.8127565383911133, 0.24408075213432312, -0.25462448596954346, 1.1261450052261353, -0.0062346975319087505, -0.37001529335975647, -0.060533054172992706, -0.13480375707149506, 0.513018012046814, -0.08602871000766754, 0.21585632860660553]], "fc2.bias": [-0.4641830325126648, -0.08033192157745361, 0.32314926385879517, 0.07585461437702179, 0.1513688862323761, -0.2061678022146225, 0.07639782875776291, -0.10291025787591934, 0.2593908905982971, 0.21846096217632294, -0.04911426082253456, 0.2466791868209839, 0.033712923526763916, 0.5519313812255859, 0.5555747151374817, 0.41261154413223267], "fc3.weight": [[-0.2855563759803772, -0.8705747127532959, 0.33224761486053467, 0.19175903499126434, 0.41090911626815796, 0.874640703201294, -0.6828372478485107, 0.2795431911945343, -0.28255748748779297, -0.20454508066177368, -0.8654338121414185, 0.6612952351570129, 0.7232194542884827, -0.4164137840270996, -0.048688698559999466, -0.5499447584152222], [-0.3256802260875702, 0.9417937994003296, -0.14866089820861816, -0.4007152020931244, -0.39173373579978943, -0.6692216396331787, 0.8656163811683655, -0.24962134659290314, 0.4137403666973114, 0.5952862501144409, 0.9436050653457642, -0.38465556502342224, -0.8373012542724609, 0.626681387424469, 0.20829550921916962, 0.8648039698600769], [-0.3761363923549652, -0.6313034892082214, 0.1422329694032669, 0.001480504753999412, 0.16490595042705536, 0.6213141679763794, -0.4952539801597595, -0.8197703957557678, -0.051474206149578094, 0.13496457040309906, -0.6837143301963806, 0.8929829597473145, 0.5229238867759705, 0.3781244456768036, 0.6355219483375549, 0.046761445701122284], [-0.2437724471092224, -0.7871540784835815, 0.3401343524456024, -0.08333656191825867, 0.2933092713356018, 0.6930420398712158, -0.4358275830745697, -0.4908202290534973, 0.0611104816198349, -0.21465106308460236, -0.3410789966583252, 0.46820637583732605, 0.6731232404708862, 0.4492488503456116, 0.5954183340072632, 0.011375664733350277], [0.02433440275490284, 1.1392912864685059, -0.06644462049007416, -0.10279002785682678, -0.2499350756406784, -0.5789986252784729, 0.7117798924446106, 0.36974281072616577, 0.13219916820526123, 0.5686266422271729, 1.1362905502319336, -0.4324161410331726, -0.5633470416069031, 0.41291332244873047, 0.09275633841753006, 0.8698179125785828], [0.06039060279726982, -0.2616008222103119, 0.5173608064651489, 0.9712465405464172, 0.9782069325447083, 0.20517270267009735, 0.09542272239923477, 1.3712433576583862, 0.10720735043287277, 0.06301195919513702, 0.031817056238651276, 0.01847679913043976, 0.6528776288032532, 0.09473035484552383, 0.08354514837265015, -0.31808021664619446], [0.20740190148353577, 0.605775773525238, 0.3121083676815033, 0.6177752614021301, 0.41925302147865295, -0.028594981878995895, 0.601341724395752, 1.5430588722229004, 0.05891742929816246, 0.03687165305018425, 0.7999992370605469, -1.0071824789047241, 0.03731079772114754, -0.1426038295030594, -0.5550783276557922, 0.0812142863869667], [0.13638219237327576, -0.9383559823036194, -0.12445683032274246, 0.23684392869472504, 0.6413831114768982, 0.35743993520736694, -0.711863100528717, 0.2419743835926056, -0.7559038996696472, -0.41645145416259766, -0.898533046245575, 0.041684385389089584, 0.8661830425262451, -0.44955798983573914, -0.4231914281845093, -0.8685476779937744]], "fc3.bias": [-0.005250414367765188, 0.454482764005661, 0.5718947052955627, 0.3844119906425476, 0.27182233333587646, 0.021228518337011337, 0.01802765391767025, -0.3946182131767273], "fc4.weight": [[-0.7692546248435974, 0.8330709338188171, 0.20620551705360413, 0.05935075506567955, 0.48422694206237793, -0.1925012171268463, -1.0646934509277344, -0.5823605060577393], [-0.45169976353645325, 0.3845519423484802, -1.2312402725219727, -1.135757565498352, 0.5759973526000977, 0.4737206697463989, 1.2044646739959717, -0.3626810908317566], [0.3757678270339966, -0.6429489254951477, -0.7531814575195312, -1.0051459074020386, -0.9433298707008362, -1.1252164840698242, -0.095389224588871, 0.3982706367969513], [1.0456485748291016, -0.7242182493209839, 0.6094384789466858, 0.5206844806671143, -1.141617774963379, 0.46712836623191833, -0.4875185489654541, 0.06160837411880493], [0.7497658729553223, -0.809394896030426, -0.6751466989517212, -0.9126337766647339, -0.572563648223877, -1.182707667350769, -0.6268150806427002, 0.8443140387535095]], "fc4.bias": [0.5538051128387451, -0.2072932869195938, -0.02195747010409832, 0.252878874540329, -0.4724336862564087]}