{"fc1.weight": [[-0.08087564326777426, 0.09547527318757393, -0.08592753692732999, -0.044013522187127174, 0.04927918396176292, -0.046066686216320894, -0.030608293424319522, -0.07957270733591415, 0.03159883243511302], [0.028856374491834504, -0.023135749076832534, -0.0002420875820794672, -0.06769668351113874, -0.059693766226501195, -0.019914142519462396, -0.02575842956059049, -0.00644448936470442, 0.051793656317725534], [-0.01740369161285077, -0.19269647854762914, 0.06776532774045362, -0.0379299448502341, -0.05347511666016865, 0.131243553313287, 0.04779351337221796, 0.1618527302692896, -0.2016752000492511], [-0.0042462618077970275, -0.1027444191078946, -0.0518083877471702, -0.03714320464679445, 0.02199516867626257, -0.09475672766907886, -0.15710167118932408, 0.17400298316480267, -0.008383852347549226], [-0.07914720351674848, -0.23327453004020643, -0.12513018515643506, -0.03770424876876382, -0.18170077079299568, 0.046547693191333395, -0.09196513949577735, -0.08002269368532261, -0.15303053865674063], [-0.005440944256601788, -0.10355190793934752, -0.04134115969165657, -0.1240438805215918, 0.026818136206814957, -0.011503495940487973, -0.11730858401021013, 0.08985910650134685, -0.011448559981277282], [-0.012333620165223167, -0.12140728794598768, 0.029694180610962937, -0.03692869013818158, 0.025430483905569068, 0.010947098688492102, 0.14538819683187604, -0.16300463073272667, 0.15934763202244567], [-0.1073564354726009, -0.04196025584964583, -0.046168412875764474, -0.030263317853611246, -0.08492265276674367, -0.08579339448153663, 0.052681460320724585, 0.044020718150779285, 0.005511211040218782], [-0.07665915278341294, -0.2277974949142721, -0.08474433086688452, 0.046575022677892854, -0.03741312995464692, -0.1368574346863573, -0.013502397263513108, 0.04934070154781506, -0.027593730534210034], [0.04589533175663212, 0.10731833550380035, 0.04167459171169051, 0.07528299798293742, 0.14241913868026448, 0.018623006025924482, -0.014051395334481718, 0.052014198531458306, 0.057336691931482116], [0.12554772629510663, -0.12008037108977518, -0.09348593746586988, 0.14054340926664327, 0.009310058030146394, -0.05483782746401611, 0.09951177086031746, 0.005892024728578024, -0.15133322954169542], [0.013875795452339882, -0.01615903842589206, 0.06955366337960588, 0.005176986691022202, 0.21640871001514306, 0.1428039755520051, -0.06632317846982196, -0.04734811712720392, 0.06510869983649738], [-0.1822052980687895, -0.09157860706607415, -0.15688032212745864, 0.01264338963801046, -0.0378803502071083, -0.011082191008885005, 0.011344672664079047, 0.05617736420637815, -0.059557825766789696], [-0.03401410342373631, -0.14353533365240642, 0.08609838537079273, -0.06182523767056871, 0.01619523441303826, -0.10852277815745645, -0.09670231334403141, 0.0477779038330515, -0.1701366057637572], [-0.21147581921066458, -0.07208529713279926, -0.0023596643595846915, -0.04008066089198198, 0.09911192099986518, -0.0473193689558836, -0.06063445225515565, -0.02895096149967421, -0.0064452232652400816], [-0.0005529458131055674, -0.07889102545484426, 0.14166961862646693, -0.11660010346955157, -0.07398079617122331, 0.007007611677284651, -0.2497236592507849, -0.08340794372342406, -0.26736289469191693]], "fc1.bias": [0.15495208604612792, 0.16972809268481476, 0.15308022575939975, 0.10142634165529313, 0.3572767985837681, 0.21342859726745794, 0.2285157133243398, 0.3167606401564324, 0.24544578611345988, 0.12799280742640376, 0.3370932170425735, 0.17867129740220866, 0.14082842214123184, 0.12873610967665625, 0.11865342373770682, 0.16179083848048645], "fc2.weight": [[0.12674273445520878, 0.1990385748270085, 0.137723000098006, 0.14986462474559814, 0.15851676830446593, 0.19184014526991575, 0.15907783603217718, 0.11338054051250648, 0.2166232749132901, 0.061923074231487865, 0.23156515117241416, 0.08982296526165505, 0.2603039258322692, 0.08865904738222435, 0.1649709849260157, 0.12870965294486802], [-0.11443559861204884, -0.038290514392859035, -0.09958076607006658, 0.25964095541027543, 0.15599011379497196, 0.23338809092468313, 0.065572075756793, 0.06100917937620562, -0.015049032341032996, 0.09101079755970946, 0.048126167896302106, 0.19818293026060987, 0.029778294538687227, 0.10807619155682249, -0.02189811860163443, 0.1081573179050158], [0.18984141096411564, 0.007455070233243485, 0.254819975245008, 0.07079817272017552, 0.21774956265682996, 0.10314682036616439, 0.15335586164509377, -0.03275045955388074, 0.09985009151618394, 0.14896604056954404, 0.09619785292685117, 0.14431581073288235, 0.1443001293076839, 0.04800161698319103, 0.020738423674391025, 0.16678793925874263], [0.28520705914397776, 0.027773054188017014, 0.37265739721676305, 0.07502136495172769, 0.1610430804606842, 0.15089693828630713, 0.2792096146778408, 0.08874560982403644, 0.1776459931996897, 0.17597187012783408, 0.13996136681274643, 0.06794778903336872, 0.03114494707459594, 0.17083040514415318, 0.18213473085105694, 0.22139976047864232], [0.09012598838844246, 0.07636514270204359, 0.17425947596983452, -0.11249515080766662, 0.15935758911699274, -0.09095018194059888, 0.1876945938625426, 0.12759608972554115, -0.009268111179669102, 0.07610484756548425, 0.048123078247972996, -0.11553799639226715, 0.10855536713596896, 0.10730172822274354, 0.06965753767811242, 0.035940144515904056], [0.05943737025420824, 0.13797722663056583, -0.03349615674117077, 0.1459648843318028, 0.15460725254500415, 0.24926110460824438, 0.18495224717573167, 0.06071030190043548, 0.22094220099169606, 0.05299249995058575, 0.007776825194319172, 0.2578556697176406, 0.1823347431196737, 0.020195609590091295, 0.023398869884059644, 0.17143503228807486], [0.024549190360900197, 0.1387169942591266, 0.1968136538114365, -0.11846682525256397, 0.11427246352689141, 0.03997640865488063, 0.1760930724973772, 0.2198206210608535, 0.33722349103202537, 0.1031976401367274, 0.13316856555002163, 0.004298990408697015, 0.04502359673933401, 0.20458198929418653, 0.08669460795444249, 0.0827525918631608], [0.06121193208090803, 0.08653744777219315, -0.01174485189322751, 0.33003274694256446, 0.021969285133732308, 0.09318595763475591, 0.1946368766931208, 0.15876829850894567, 0.1901592792811948, 0.15710664743312439, -0.018108910868399847, 0.25093906327186305, 0.12191166022747614, 0.1963804695812297, 0.054844195187716334, 0.2533849127411019], [0.21329655042315782, 0.2092487101528238, 0.05373250979969324, 0.14096905147896996, 0.03646115327006466, 0.2385402860412547, 0.08721711813379486, -0.021113299580298676, 0.23432433174221368, 0.14160671861552068, -0.0038802886625174137, 0.050020236104689905, 0.23388238301609557, 0.09187297385183164, 0.1743735368566836, 0.24500651673908416], [0.10372301159129026, 0.07294030323094274, 0.2929295767821824, -0.08925643154171205, 0.12290300836882535, -0.0530549844987543, 0.34176375656948277, 0.11041103733874266, 0.11006787905144132, 0.10794674844051166, 0.1255117292963873, -0.025796332068726256, 0.1509506812317406, 0.20970563121009206, 0.20885766199337033, 0.15756733152152325], [0.0991702529091239, 0.16669255549154072, -0.002291306505255972, 0.14142530993496363, 0.1854840100057824, 0.13387144166756115, 0.11234425380458019, 0.03413157293397379, 0.14448115396410477, 0.04008293726610786, 0.14455754706957774, 0.08864434652456635, 0.12190878565785143, 0.15665940153984764, -0.0993794439062988, 0.1129373914004827], [0.046421985024853986, -0.013475956498433023, -0.05010116747228225, 0.23757373699883969, 0.02273075529447813, 0.1339380427530064, 0.07457449749630778, -0.12068741857614947, 0.09842256375046303, 0.18590881983108387, 0.018528617516191705, 0.20311671414972007, -0.004748084111653313, 0.06340296727213823, 0.046520593660837314, 0.06764166489894513], [0.06969382182463492, 0.07700914823210356, -0.012700772226160463, 0.25763744726036447, 0.3142673728484546, 0.27982647738800975, 0.2842841657055467, -0.0342383920059609, 0.2144100390482079, 0.12442387448339903, 0.15833412047374068, 0.23957500834083195, 0.11007866271338813, 0.1647160001318233, 0.04338603389533245, 0.1846727668698445], [0.2546074528202988, 0.15399303553761579, 0.057832255166796354, 0.04526002833706285, 0.05104709536619627, 0.049775117165631544, 0.26267919477898644, 0.13205065833289156, 0.193587873645577, 0.17232700228101144, -0.014750537259499296, 0.1377050083378232, 0.26963066932162255, 0.23474596443948395, 0.08307393633632684, 0.18250299640904805], [0.27007658279742125, -0.0036860378110586704, 0.05343938931996569, 0.27750133389732706, 0.04096461681727542, 0.14598820480688668, -0.007490464415635605, 0.21357861853585844, 0.14095927209260953, 0.13183903889652476, 0.11597586981968426, 0.11925942437948214, 0.07648559045893852, 0.008638785907650935, 0.23856227833758703, -0.011054324193798832], [-0.06887080168384944, -0.006699182903750162, -0.03625076185397597, 0.2730543821607432, 0.296106676336832, 0.1062326293761253, -0.028567649573367604, -0.025757673895769904, 0.05282765644825579, -0.10255161763266013, 0.1879408165409316, 0.11935224151466917, 0.05249475834939291, 0.09134794065810581, -0.10654855563955301, -0.012437078632445904]], "fc2.bias": [0.1664804980887225, 0.1146112263076155, 0.14838921145377265, 0.14680168306985386, 0.09587101782542949, 0.004009630155276465, 0.12923711717564093, 0.2045500254172884, 0.08624988859328263, 0.17822792637683496, 0.09485007695826043, 0.2002450362434425, 0.14814692808011412, 0.05814958341415865, 0.2066758218947464, 0.19260764680089648], "fc3.weight": [[0.18246340364103716, 0.03865153591710538, 0.11858207960162599, -0.11024416536659075, 0.12722238153138044, -0.13141691344542802, -0.2038695261563517, 0.03686450210506224, 0.09510656613944554, -0.011206103930004417, -0.02383641309243687, 0.1979551167715046, 0.10606115529312482, -0.06022840216186952, 0.0654136415639361, 0.1332140101131371], [-0.0241875659336499, 0.025057892260747262, 0.0809195106803126, -0.025164371867514964, -0.10835600563130268, 0.21824580725047396, -0.08659820128373333, 0.06541729565668086, 0.03985182391573619, -0.12397636563055771, 0.11417023235457995, 0.19199453155261537, 0.12253729191225342, 0.052502143619502596, -0.07350541955695263, -0.11717228565128564], [0.19506371524494404, 0.088144453006599, 0.0029119079517996257, 0.24170185210953765, -0.07351288983844134, 0.33855210361361154, 0.2791999331544688, 0.034957175945438033, 0.09778215600663204, 0.0890329329429466, 0.19795766317312988, 0.08465853066264921, 0.15606747881011612, 0.09226794453807566, 0.3463890645358161, 0.03994130926544647], [0.10702697081971195, 0.1908643516493498, 0.11946444159530938, -0.04164726087135973, 0.22019441706646986, 0.30102292499776856, 0.052297284750423764, 0.16245579730246337, -0.0380993188909233, 0.17427338637337947, 0.10636125248484629, 0.2393843357167241, 0.2728576099049275, 0.10726352815607913, -0.053564828047214366, 0.21761110210202345], [0.23436232173705135, 0.06943624680656768, 0.11398426810233475, 0.011696939973972725, -0.09860456213862606, -0.007029926727489083, -0.31104245029709515, 0.08203433098113017, -0.12586320990194236, -0.07107086319640221, 0.05516466448263644, -0.00553325897913361, 0.12802374289854954, -0.1922805533856733, 0.09400921789128666, 0.07436167540733699], [0.1306976379181732, -0.06112528656713122, 0.04471263259161413, 0.0861208332319896, 0.07495260257520378, 0.04671661958500224, 0.15836183091601047, -0.14032782314589465, -0.0048208022522129015, 0.15183867013501093, -0.04956111931783281, 0.08553395549922928, 0.02816422979947058, 0.08729126279338893, -0.23312897030508006, -0.10261216078139514], [-0.15726578553569268, -0.11306162101355645, 0.07570031108805347, 0.14515386004369724, 0.10310457740289139, -0.0386223377189815, 0.22860152883927726, 0.17964492839066998, 0.01828199913665021, 0.13820421864825108, -0.06770384807569454, 0.060317933643878247, -0.07613768802005574, 0.13386039910959616, 0.014091616680269592, -0.019229663996442638], [0.2167435455143486, -0.09645039368206457, 0.040267688738847965, 0.15844489593064248, 0.03613622278378778, -0.02571399656639473, 0.25606261664678964, 0.018722956631218268, 0.0666114050337166, 0.25904032191601567, -0.0821603254873328, -0.020176687978849847, -0.09478632856929964, 0.13030350114872574, -0.0889040515840171, -0.12037233230588831]], "fc3.bias": [0.14794796443379385, -0.02381604500615641, 0.08237483349597621, 0.16811815426653726, 0.2105852922177592, 0.046909068995543354, 0.1236342883930843, -0.008211234287653652], "fc4.weight": [[-0.08583089505433641, 0.03344736409304529, -0.2782787064582846, -0.33889092112790403, -0.1750754157874188, -0.16854854860564483, -0.24671138487814054, -0.28491961548679123], [-0.2177300155045911, 0.08597199650619773, 0.4048700266598084, 0.23274767004776045, -0.1892376295798592, -0.046387338047413226, -0.10444294300733505, 0.21544158575714006], [0.395945220833879, -0.21590159482210555, -0.5497033659128653, -0.02872537284126461, 0.15050624738280152, 0.0012653810648100077, -0.1205662950692569, -0.26593438257614904], [-0.2143043913180654, -0.22826013259645167, -0.14505327839523, -0.17259226202749425, -0.3685033812836295, -0.15639609574426808, 0.04997145209420341, -0.051647613970497386], [-0.2155435279729235, -0.17470294049985832, -0.3909469855343771, -0.3023376972835638, -0.20423375185982304, -0.39425618293845516, -0.31762894770066774, -0.31859114554859197]], "fc4.bias": [-0.24463774145880338, 0.0925576088559753, 0.08008710190591811, 0.05827184593408027, -0.2652566646076881]}