{"fc1.weight": [[-0.11087708175182343, 0.06731092929840088, 0.19113793969154358, 0.11871412396430969, 0.23116853833198547, -0.09861092269420624, -0.24581918120384216, -0.20234763622283936, -0.24368926882743835], [-0.28959619998931885, 0.07339438796043396, -0.06841054558753967, 0.19931331276893616, 0.09027925133705139, 0.005023330450057983, -0.30953654646873474, 0.2496120035648346, 0.19973215460777283], [0.25341179966926575, -0.1216498613357544, 0.19053515791893005, -0.17527568340301514, 0.2059440314769745, -0.043957144021987915, -0.2509288489818573, -0.04917845129966736, 0.12220099568367004], [-0.23247945308685303, 0.019662976264953613, -0.14155682921409607, 0.28388288617134094, 0.2119864523410797, 0.25496706366539, 0.10005798935890198, 0.31447532773017883, 0.07143250107765198], [-0.29454755783081055, 0.0929311215877533, -0.15913820266723633, -0.00638243556022644, 0.03773584961891174, 0.06076350808143616, -0.2681885361671448, -0.12424930930137634, -0.028634756803512573], [-0.327434241771698, 0.07386112213134766, -0.24719254672527313, -0.05220100283622742, -0.009788662195205688, 0.11154112219810486, 0.26166608929634094, 0.05241599678993225, -0.26284778118133545], [0.021442919969558716, -0.31801778078079224, 0.2603781521320343, 0.17328140139579773, -0.16841745376586914, 0.13043054938316345, -0.31125447154045105, -0.14733195304870605, -0.14982709288597107], [-0.17950782179832458, 0.22177651524543762, -0.10814496874809265, 0.2711496651172638, -0.1148475855588913, 0.1390450894832611, -0.12950646877288818, 0.22616103291511536, -0.3021802306175232], [-0.13861629366874695, -0.2457321137189865, -0.16928546130657196, -0.12164752185344696, 0.21165868639945984, -0.2709994316101074, 0.06721043586730957, 0.01328769326210022, -0.14541158080101013], [0.20914414525032043, -0.05585727095603943, 0.21501615643501282, -0.33063220977783203, 0.3160060942173004, -0.045926839113235474, -0.026373982429504395, -0.17477834224700928, -0.12433981895446777], [0.2820618450641632, -0.3252736032009125, 0.002699136734008789, -0.21782279014587402, 0.05656597018241882, -0.1460030972957611, -0.22074393928050995, 0.2777535617351532, 0.28980329632759094], [0.26937612891197205, 0.13703593611717224, -0.21413259208202362, 0.10725679993629456, -0.08752875030040741, 0.15547427535057068, 0.21259889006614685, 0.17340436577796936, -0.09445016086101532], [-0.005576014518737793, 0.0754622220993042, 0.07893893122673035, -0.24055421352386475, 0.10352888703346252, 0.1789914071559906, -0.22673499584197998, -0.07694169878959656, -0.07852348685264587], [0.09582188725471497, -0.2757692337036133, 0.16574278473854065, -0.15805189311504364, -0.17925851047039032, -0.07583644986152649, 0.0186367928981781, -0.28161415457725525, 0.297814279794693], [0.1644139289855957, 0.2840922176837921, -0.09941868484020233, -0.023755311965942383, -0.16994449496269226, 0.2340400516986847, 0.07841625809669495, 0.07898631691932678, 0.11918416619300842], [0.2545238435268402, -0.2854803204536438, -0.03397783637046814, 0.2678082287311554, -0.05670437216758728, -0.10270175337791443, -0.008758395910263062, -0.14427344501018524, -0.27530431747436523]], "fc1.bias": [-0.04765912890434265, 0.11244475841522217, -0.02558848261833191, 0.02895483374595642, 0.12540113925933838, -0.28570935130119324, 0.19267764687538147, 0.08833315968513489, -0.2529924511909485, 0.21174421906471252, 0.17253366112709045, -0.2168433666229248, -0.3172008693218231, -0.17704102396965027, 0.3174639642238617, 0.3039263188838959], "fc2.weight": [[-0.017955482006072998, -0.1029004454612732, -0.02188447117805481, 0.07236182689666748, 0.12298628687858582, 0.13329443335533142, 0.16112574934959412, 0.08470067381858826, -0.22297242283821106, 0.19579413533210754, -0.04620751738548279, 0.012986898422241211, -0.1583094298839569, -0.2251553237438202, -0.16551488637924194, -0.1250377893447876], [-0.02441975474357605, 0.17517292499542236, -0.2136113941669464, -0.0861157774925232, -0.14863058924674988, -0.0016903579235076904, 0.1796148121356964, -0.0012833178043365479, 0.09419605135917664, -0.17010077834129333, -0.2488476037979126, 0.18432918190956116, -0.15601623058319092, 0.09523424506187439, -0.23821964859962463, 0.12025049328804016], [-0.007153153419494629, -0.1653066873550415, -0.17610865831375122, -0.04546576738357544, 0.24953940510749817, -0.07395249605178833, -0.06838080286979675, -0.18596726655960083, 0.2163800597190857, 0.07708260416984558, -0.2443932294845581, 0.2029232382774353, 0.13548502326011658, -0.17227956652641296, 0.24422168731689453, 0.20245271921157837], [0.16952425241470337, -0.021614521741867065, -0.02101421356201172, -0.15990975499153137, 0.23288467526435852, 0.13553443551063538, -0.0320797860622406, 0.21290668845176697, -0.12439548969268799, 0.11005842685699463, -0.22387734055519104, -0.15526703000068665, 0.11497226357460022, -0.19984003901481628, -0.1067715585231781, -0.22419047355651855], [0.15214121341705322, -0.22755026817321777, 0.11798179149627686, 0.08302432298660278, -0.05559298396110535, 0.1982722282409668, -0.08025246858596802, 0.04763263463973999, 0.013808846473693848, 0.025721818208694458, 0.08329889178276062, -0.17404618859291077, -0.20526614785194397, -0.210661381483078, 0.08576637506484985, -0.07910975813865662], [-0.1290246844291687, -0.0484146773815155, 0.21134483814239502, -0.2383512258529663, -0.24998822808265686, -0.24414333701133728, 0.18004566431045532, -0.12106245756149292, -0.10429587960243225, -0.032338470220565796, -0.22959601879119873, -0.0635870099067688, 0.17985808849334717, 0.2261141836643219, 0.20775830745697021, -0.24757260084152222], [-0.13696447014808655, 0.0642167329788208, -0.03071826696395874, -0.09093889594078064, -0.017231494188308716, 0.10928666591644287, 0.09694105386734009, 0.04162949323654175, -0.23810386657714844, -0.03511887788772583, -0.1940176784992218, 0.15988069772720337, 0.23718830943107605, 0.03361383080482483, 0.16119661927223206, 0.03966030478477478], [0.03184577822685242, -0.08006054162979126, -0.1109749972820282, 0.055940479040145874, 0.09599244594573975, 0.18309295177459717, 0.16702577471733093, -0.08612337708473206, 0.1349625289440155, -0.10458037257194519, -0.2077295184135437, -0.13568392395973206, -0.027152150869369507, 0.04187387228012085, 0.15919002890586853, 0.12949946522712708], [-0.14046883583068848, -0.14278486371040344, 0.01235121488571167, 0.10775503516197205, 0.1324371099472046, -0.03788536787033081, 0.23899441957473755, -0.19531652331352234, -0.19743266701698303, 0.19791102409362793, -0.18001911044120789, 0.03351566195487976, 0.2287244200706482, 0.11907786130905151, -0.11116254329681396, 0.05827710032463074], [-0.19010525941848755, 0.15032315254211426, 0.12549233436584473, 0.2217731475830078, 0.2450738549232483, 0.04194125533103943, 0.06713739037513733, 0.05522596836090088, 0.15583491325378418, 0.07351726293563843, -0.17128309607505798, 0.024760663509368896, -0.22442489862442017, -0.03852766752243042, -0.22793933749198914, -0.16670900583267212], [-0.03715825080871582, -0.0912952721118927, 0.11005347967147827, -0.15816402435302734, -0.06928160786628723, -0.2086869180202484, -0.017432361841201782, 0.12785416841506958, 0.17661577463150024, 0.031740009784698486, 0.13474994897842407, 0.11261355876922607, -0.1550893783569336, 0.09426066279411316, -0.03448501229286194, -0.21430879831314087], [0.15343907475471497, 0.1019291877746582, -0.0939851701259613, -0.19730731844902039, -0.037228286266326904, -0.22826293110847473, 0.10415014624595642, -0.09490644931793213, -0.14068719744682312, 0.17606410384178162, -0.09750261902809143, 0.1857849359512329, -0.23931491374969482, 0.06506484746932983, -0.2098502516746521, -0.21535035967826843], [-0.18865615129470825, -0.24340534210205078, -0.2302490472793579, 0.18572279810905457, -0.23707738518714905, 0.20008495450019836, -0.17912358045578003, 0.12354901432991028, 0.1575630009174347, 0.16806131601333618, 0.12255740165710449, 0.02645951509475708, -0.14412546157836914, 0.20308607816696167, -0.20294618606567383, 0.1408991515636444], [-0.20812353491783142, 0.24437516927719116, -0.18975824117660522, 0.17539379000663757, 0.19883492588996887, -0.06365695595741272, -0.23599356412887573, -0.027614861726760864, 0.0014979839324951172, -0.17761120200157166, -0.20491313934326172, 0.09785962104797363, -0.17421779036521912, 0.1621299684047699, -0.22655847668647766, -0.02344900369644165], [0.13155436515808105, -0.0196494460105896, 0.12682509422302246, 0.0182667076587677, 0.11428701877593994, -0.11847296357154846, -0.054404884576797485, 0.09370282292366028, -0.03751102089881897, 0.09751087427139282, 0.041967928409576416, -0.24396702647209167, -0.024988919496536255, -0.15058425068855286, -0.168288916349411, -0.0484350323677063], [0.1763783097267151, 0.16584432125091553, -0.062131524085998535, -0.12349572777748108, -0.043984800577163696, -0.17419341206550598, 0.05335193872451782, 0.24494391679763794, 0.12478834390640259, -0.0965583324432373, -0.18516021966934204, 0.18933919072151184, 0.041811972856521606, -0.0033741295337677, 0.11365333199501038, 0.043812185525894165]], "fc2.bias": [-0.24120113253593445, -0.1835925281047821, 0.0859915018081665, -0.06780359148979187, 0.03949159383773804, 0.20773011445999146, 0.1912609040737152, -0.010899752378463745, -0.11230972409248352, -0.018979668617248535, -0.0027544796466827393, 0.09142807126045227, -0.1250125765800476, -0.14406818151474, -0.2342679500579834, 0.0004048943519592285], "fc3.weight": [[0.04007789492607117, -0.23661884665489197, -0.15849897265434265, 0.2387552559375763, -0.21976229548454285, -0.203445166349411, -0.06452134251594543, 0.0889158546924591, 0.09732013940811157, 0.13030922412872314, 0.027938753366470337, -0.22182798385620117, -0.21348440647125244, 0.23658740520477295, -0.17667964100837708, 0.044609904289245605], [-0.1258712112903595, -0.025573432445526123, -0.12168875336647034, 0.1784074604511261, -0.10036122798919678, 0.011841893196105957, 0.196321040391922, -0.17456430196762085, 0.2482154667377472, 0.06338876485824585, -0.0360257625579834, 0.0429917573928833, -0.2368805706501007, 0.14937403798103333, 0.10830610990524292, 0.0246010422706604], [0.16636881232261658, -0.23739692568778992, -0.21567562222480774, -0.00938597321510315, 0.05296885967254639, -0.18742531538009644, -0.19569307565689087, 0.2486196756362915, -0.044965773820877075, 0.0736028254032135, -0.222232848405838, 0.15304452180862427, -0.10708695650100708, -0.20352086424827576, 0.12614598870277405, 0.22844380140304565], [-0.18919852375984192, 0.08504125475883484, -0.07034876942634583, 0.007941752672195435, -0.15335240960121155, 0.08171907067298889, -0.05441829562187195, -0.23671302199363708, -0.1898028552532196, 0.18620559573173523, -0.04212448000907898, -0.1927770972251892, -0.15403753519058228, -0.12629663944244385, 0.020462483167648315, 0.037599653005599976], [0.10865184664726257, -0.08839961886405945, 0.09892970323562622, -0.2186763882637024, -0.07275810837745667, 0.2195076048374176, -0.13206276297569275, 0.17789670825004578, 0.2044067680835724, -0.1148129403591156, 0.13100063800811768, 0.01961904764175415, 2.7567148208618164e-05, -0.22841167449951172, -0.20752280950546265, 0.12395608425140381], [-0.19062703847885132, 0.11468493938446045, 0.1998893916606903, -0.11386653780937195, 0.0001601576805114746, -0.1185971200466156, 0.17827102541923523, 0.007107555866241455, 0.058197081089019775, -0.18604227900505066, -0.17176908254623413, 0.06926384568214417, -0.03948622941970825, 0.07029080390930176, -0.17331093549728394, 0.03641507029533386], [-0.23334109783172607, -0.13676774501800537, 0.03547075390815735, -0.11260268092155457, -0.17273622751235962, -0.05236107110977173, 0.03806692361831665, -0.06993013620376587, -0.23790514469146729, -0.23963969945907593, -0.10218966007232666, 0.23392334580421448, 0.22461971640586853, -0.19863155484199524, 0.09347859025001526, -0.027244120836257935], [-0.22834399342536926, 0.0516623854637146, -0.1851026713848114, 0.16681259870529175, -0.15931794047355652, -0.16007304191589355, -0.19670239090919495, 0.12025636434555054, -0.21021902561187744, -0.18179988861083984, -0.15465140342712402, 0.1558295488357544, -0.1075318455696106, -0.164208322763443, 0.17662683129310608, -0.08187991380691528]], "fc3.bias": [0.03120914101600647, -0.1596151888370514, -0.04772329330444336, -0.22026661038398743, 0.06411349773406982, 0.15361356735229492, -0.06533408164978027, -0.03601789474487305], "fc4.weight": [[-0.3153824508190155, 0.3245514929294586, -0.16455739736557007, 0.19275811314582825, -0.06611382961273193, -0.18446512520313263, 0.08600512146949768, -0.1374591588973999], [0.032188594341278076, 0.23299571871757507, -0.017793774604797363, 0.10693347454071045, -0.045501708984375, 0.12342476844787598, -0.2616308629512787, -0.23736020922660828], [0.025764822959899902, 0.22887995839118958, 0.32035210728645325, 0.0695040225982666, 0.23943790793418884, -0.26083600521087646, -0.2062617838382721, -0.019386619329452515], [-0.161429300904274, 0.20166680216789246, 0.2302308976650238, -0.3151111900806427, 0.292595773935318, -0.16031013429164886, 0.25238487124443054, 0.1686365306377411]], "fc4.bias": [-0.27193206548690796, -0.09169182181358337, 0.3512021601200104, -0.30538037419319153]}