{"fc1.weight": [[-0.34834641218185425, -0.2230387181043625, 0.49348318576812744, 0.114955835044384, 0.12763136625289917, -0.05943739041686058, -0.5432727932929993, -0.22861939668655396, -0.16597798466682434], [-0.7059794664382935, -0.12103453278541565, -0.1594274342060089, 0.03863076493144035, 0.14999490976333618, -0.15068088471889496, -0.1127246618270874, 0.6518567800521851, 0.2501991093158722], [0.1046113595366478, 0.15315712988376617, 0.2132156640291214, -0.009581978432834148, 0.11008395254611969, 0.027396945282816887, -0.7393585443496704, 0.01908811181783676, 0.037347812205553055], [-0.19526901841163635, 0.12426746636629105, -0.45470380783081055, 0.29795119166374207, 0.32613158226013184, 0.2818845510482788, 0.407134085893631, 0.9116798639297485, 0.12701526284217834], [-1.0763466358184814, -0.04389799386262894, -0.39650025963783264, 0.00711922999471426, 0.03055274486541748, 0.09436537325382233, -0.5215373635292053, -0.1874696910381317, -0.3036888837814331], [-0.9770537614822388, -0.020154578611254692, -0.5609995722770691, -0.048850905150175095, 0.23254968225955963, 0.13711170852184296, 0.8938342332839966, 0.171696737408638, -0.284345805644989], [-0.422244668006897, -0.3084613084793091, 0.3418884873390198, -0.1039312481880188, -0.038659047335386276, 0.25820618867874146, -0.44537636637687683, -0.12789344787597656, -0.39928820729255676], [-0.7751178741455078, 0.09109358489513397, -0.10621190816164017, 0.08722620457410812, 0.07833880186080933, 0.27147379517555237, 0.36687567830085754, 0.6751236915588379, -0.08087443560361862], [-0.6590065956115723, -0.10070525109767914, -0.060402218252420425, -0.20582452416419983, 0.20494668185710907, -0.2894214987754822, -0.23079805076122284, -0.10672293603420258, -0.20667347311973572], [-0.13738949596881866, -0.08995426446199417, 0.6072477102279663, -0.3918149173259735, 0.09200982004404068, -0.23202994465827942, 0.45479828119277954, 0.13530395925045013, -0.040248725563287735], [0.18763013184070587, -0.2867496609687805, -0.3810131847858429, -0.3967553377151489, 0.07755166292190552, 0.05386138707399368, -0.35186365246772766, -0.3463156521320343, 0.015956848859786987], [0.35248562693595886, 0.6613998413085938, -0.5849343538284302, 0.3343351185321808, 0.10569139569997787, 0.3994724750518799, 0.409660279750824, 0.7826499342918396, -0.09850507974624634], [0.2944927215576172, 0.20221753418445587, 0.34600695967674255, 0.01792808808386326, 0.14977796375751495, 0.15014472603797913, -0.7986804842948914, -0.008200645446777344, -0.29582059383392334], [-0.29495882987976074, -0.35323452949523926, 0.37728071212768555, -0.24028682708740234, -0.12144061923027039, -0.2200102061033249, -0.32298851013183594, -0.4477996528148651, 0.3067740797996521], [0.49931177496910095, 0.534525454044342, 0.025310542434453964, 0.015581505373120308, -0.10101138800382614, 0.36564186215400696, 0.6409622430801392, 0.47718656063079834, 0.24250152707099915], [0.2690107226371765, -0.4914928674697876, 0.40201297402381897, 0.1632709801197052, -0.04987262561917305, -0.2228516787290573, 0.6781612634658813, 0.48271337151527405, -0.0841040089726448]], "fc1.bias": [-0.15965917706489563, 0.26643088459968567, -0.008175277151167393, 0.24468766152858734, 0.48486411571502686, 0.03020114079117775, 0.5602700710296631, 0.11171215027570724, -0.23706698417663574, 0.38938120007514954, 0.44019240140914917, 0.07742469012737274, -0.22926050424575806, -0.11291594058275223, 0.4854206442832947, 0.4046347141265869], "fc2.weight": [[-0.06301989406347275, -1.0025100708007812, -0.8196337819099426, -1.0284432172775269, -0.6029191613197327, -0.48828259110450745, -0.5454856157302856, -0.3745333254337311, -0.6241126656532288, -0.25371891260147095, -0.7517915964126587, -0.5549625754356384, -0.2267545759677887, -0.8030086159706116, -0.7710440754890442, -0.49579742550849915], [0.9983532428741455, 0.8340469598770142, 0.34717118740081787, 0.293070912361145, -0.11634538322687149, 0.4241528809070587, 0.23799651861190796, 0.9293642640113831, 0.4089639484882355, -0.07826878875494003, -0.19055666029453278, 0.6589202284812927, 1.2455564737319946, 0.2529282867908478, -0.025708451867103577, 0.16569985449314117], [0.8896103501319885, 0.3059423565864563, 0.33156996965408325, 0.5143029093742371, 0.22033877670764923, 0.6205288171768188, -0.09690772742033005, 0.6443718075752258, 0.5646413564682007, 0.3032870590686798, -0.31051549315452576, 0.9445686340332031, 1.7369468212127686, 0.13502001762390137, 0.8808493614196777, 0.5464084148406982], [1.335771083831787, 0.6767863631248474, 0.50927734375, 0.14434799551963806, 0.21959461271762848, 0.5293585062026978, 0.0007018611649982631, 1.036557674407959, 0.2628440260887146, 0.08267136663198471, -0.34187090396881104, 0.3859257698059082, 1.3835251331329346, 0.15484245121479034, 0.16575221717357635, -0.13492567837238312], [1.2313289642333984, 0.28391340374946594, 0.6866556406021118, 0.5469431281089783, -0.1267838180065155, 0.8685277700424194, -0.11662566661834717, 1.0740185976028442, 0.2967005968093872, 0.12141386419534683, 0.07322810590267181, 0.42144477367401123, 1.2785942554473877, 0.1307501196861267, 0.3444380462169647, -0.2064887434244156], [-0.6694095730781555, -0.5453127026557922, 0.11129315942525864, -0.2047099769115448, -0.5027370452880859, -0.17035233974456787, -0.10751256346702576, -0.5330798625946045, 0.13056443631649017, 0.27921944856643677, -0.11232521384954453, -0.03605018928647041, 0.1391056627035141, 0.4514225423336029, 0.7939777374267578, 0.09193894267082214], [0.7480968236923218, 0.5525006055831909, 0.4840065538883209, 0.36486122012138367, -0.09841380268335342, 0.735931932926178, 0.03587718680500984, 0.8019963502883911, 0.18284030258655548, 0.32111459970474243, -0.2910032272338867, 0.5787628293037415, 1.8027701377868652, 0.3924921751022339, 0.6757792234420776, 0.42364487051963806], [0.9592055082321167, 0.47446513175964355, 0.3752973973751068, 0.9125767946243286, 0.19555453956127167, 1.1809061765670776, 0.24393847584724426, 0.7390069961547852, 0.23328383266925812, -0.09819397330284119, -0.27673038840293884, 0.5049394369125366, 1.2776128053665161, 0.25498753786087036, 0.34314507246017456, 0.022466126829385757], [0.7914032936096191, 0.4298781454563141, 0.41612064838409424, 0.4877036213874817, 0.12389829754829407, 0.6452928781509399, 0.17292587459087372, 0.6997118592262268, -0.034717533737421036, 0.14209972321987152, -0.3170728385448456, 0.5344688892364502, 1.6199445724487305, 0.32298484444618225, 0.1097884550690651, 0.024981936439871788], [-1.0029985904693604, 0.05123552307486534, 0.4349868893623352, 0.2485542744398117, 0.8272011280059814, -0.03564944118261337, 0.6955797076225281, -0.45216459035873413, -0.1628330498933792, -0.03467373922467232, 0.4824816584587097, 0.05670453980565071, -1.5815563201904297, -0.1164202094078064, -0.2778937518596649, -0.3999488651752472], [0.3975580036640167, -0.4140021800994873, -0.0698925331234932, -0.8095671534538269, -0.756099283695221, -0.7397456765174866, -0.6019243001937866, 0.2735699713230133, -0.024237437173724174, -0.3310590982437134, -0.4876726269721985, -0.1348247528076172, 0.49660640954971313, -0.2586117386817932, -0.3711424171924591, -0.4860888123512268], [1.207321286201477, 0.42134276032447815, 0.4710424244403839, 0.20590083301067352, -0.1467902511358261, 0.3676309287548065, 0.15473930537700653, 0.37312161922454834, 0.17918309569358826, 0.2971058785915375, -0.014523974619805813, 0.5155896544456482, 1.3350675106048584, 0.39941173791885376, -0.1763010025024414, -0.1844324916601181], [-0.14975877106189728, -0.5117672681808472, -0.10627014935016632, 0.02151578478515148, -0.8358856439590454, -0.42720383405685425, -0.5403390526771545, -0.16098171472549438, 0.29460999369621277, 0.5438671112060547, 0.028812900185585022, -0.17804893851280212, -0.1838430017232895, 0.45507338643074036, 0.04957783967256546, 0.7895538806915283], [0.9128979444503784, 0.8181198835372925, 0.30531585216522217, 0.5292405486106873, 0.28087276220321655, 0.4413743019104004, -0.124904565513134, 0.8302839994430542, 0.1773042380809784, -0.0744592472910881, -0.23490948975086212, 0.6654715538024902, 1.2534091472625732, 0.43613091111183167, 0.08219065517187119, 0.011911320500075817], [0.2827727496623993, -0.6006589531898499, -0.1724567860364914, -0.9639313817024231, -0.7140315771102905, -0.9295748472213745, -0.8015709519386292, -0.3479440212249756, -0.05288098007440567, 0.07006077468395233, -0.7072300314903259, -1.1968990564346313, 0.24826191365718842, -0.40205714106559753, -0.6523736715316772, 0.027270644903182983], [1.1731860637664795, 0.7169270515441895, 0.44498029351234436, 0.3455904424190521, 0.004270224831998348, 0.5202536582946777, 0.08693807572126389, 1.1111029386520386, 0.27719271183013916, -0.10475112497806549, -0.2852548360824585, 0.7239077091217041, 1.430966854095459, 0.19667792320251465, 0.24977636337280273, 0.008023988455533981]], "fc2.bias": [-1.0072848796844482, -0.12023888528347015, 0.055827874690294266, -0.13194125890731812, 0.0019511068239808083, 0.5239598751068115, 0.1283237636089325, 0.006230521481484175, -0.18374483287334442, 0.5429176092147827, -0.6998763084411621, -0.14718316495418549, -0.022691635414958, -0.13278982043266296, -1.0238828659057617, -0.032376211136579514], "fc3.weight": [[-0.37331050634384155, 0.32776618003845215, 0.13684415817260742, 1.5151143074035645, 0.5234078168869019, -0.6657278537750244, 0.3113821744918823, 0.7549503445625305, 0.8655848503112793, 0.4891496002674103, -0.19283011555671692, 0.5323892831802368, -0.7161332964897156, 0.9079681038856506, -0.5998108386993408, 0.7958892583847046], [-0.23433886468410492, -0.11683289706707001, 0.1055765450000763, -0.6367244720458984, -0.4315909147262573, 0.8354619145393372, 0.3871374726295471, -0.2928497791290283, 0.036970969289541245, -0.591063916683197, -0.2156384140253067, -0.2703409492969513, 0.6122291088104248, -0.04030732065439224, 0.1354617178440094, -0.2068110555410385], [-0.2180812805891037, -0.8396671414375305, -0.6012248396873474, -0.7504522800445557, -0.5532057881355286, -0.04999616742134094, -0.5089770555496216, 0.05442030727863312, -0.6034623980522156, 0.8317067623138428, -1.008482575416565, -0.5015490055084229, -0.8132932782173157, -0.679253876209259, -0.5949714183807373, -0.36959773302078247], [-0.35239842534065247, -0.9414148926734924, -0.9769864678382874, -1.1287873983383179, -1.5465182065963745, -0.32328230142593384, -1.1454321146011353, -0.8571226596832275, -1.3684802055358887, 0.7613980770111084, -0.43185174465179443, -1.246722936630249, -0.6209489703178406, -1.187565565109253, -0.2362145036458969, -0.9365038275718689], [-0.26085689663887024, -0.4005492329597473, 0.06749334186315536, -0.7849750518798828, -0.2592010498046875, 0.3697824776172638, -0.22780370712280273, 0.1518414467573166, -0.1357484757900238, 0.6344534158706665, -0.4967970550060272, -0.40190932154655457, -0.4925851821899414, -0.4435502290725708, -0.9233989715576172, -0.19894707202911377], [-0.8263831734657288, 1.1234759092330933, 0.9170306921005249, 1.3782318830490112, 1.114315390586853, -0.3322775065898895, 0.9818368554115295, 0.9127631783485413, 1.1961545944213867, -0.03757774457335472, -0.5218567252159119, 1.1175683736801147, -0.403999388217926, 1.2243081331253052, -0.6890461444854736, 1.128808617591858], [-0.7137431502342224, -0.22832399606704712, 0.28091534972190857, -0.7985337376594543, -0.1472802758216858, 0.9671854376792908, 0.24670669436454773, 0.009809141047298908, -0.4292910695075989, 0.11001527309417725, -0.7720866799354553, 0.06731856614351273, 0.9103909730911255, -0.3731432259082794, -0.4255833625793457, -0.17808228731155396], [-0.5610713958740234, -0.9353547692298889, -1.0742743015289307, -1.0547152757644653, -1.5831693410873413, -0.3832620084285736, -1.320993185043335, -0.49591922760009766, -1.333823323249817, 0.6073735952377319, -0.7017185091972351, -0.8116515278816223, -0.7901874780654907, -1.0870201587677002, -0.21374748647212982, -1.128311038017273]], "fc3.bias": [0.2308727353811264, 0.03133927285671234, 0.6494141817092896, 0.3103417754173279, 0.7287817001342773, 0.32871806621551514, 0.64988112449646, 0.4701294004917145], "fc4.weight": [[-1.6408722400665283, 1.2935086488723755, -1.7227072715759277, -0.6092654466629028, -1.5926357507705688, -0.14738582074642181, 1.0095168352127075, -0.9809700846672058], [0.5335018038749695, -0.3083462119102478, -2.029104471206665, -1.153140664100647, -1.2419096231460571, 0.6258407235145569, -1.1862365007400513, -1.6146693229675293], [-0.8391493558883667, -0.1343207061290741, 1.172247290611267, 2.00885272026062, 0.5716603994369507, -1.720421552658081, -0.4459610879421234, 2.2477548122406006], [0.07524266093969345, -0.16469454765319824, 0.41173797845840454, -1.6270819902420044, 0.6201093196868896, -0.001763094449415803, 0.3569165766239166, -1.5680432319641113]], "fc4.bias": [-0.495037704706192, -0.7716410160064697, 0.11751583218574524, 0.17327259480953217]}