{"fc1.weight": [[0.5555535554885864, -0.10217662155628204, 0.4306360185146332, -0.19949105381965637, 0.04686616733670235, -0.5221187472343445, 0.32906419038772583, 0.11543905735015869, -0.4079180359840393], [-0.01736670359969139, 0.15714505314826965, 0.4060091972351074, 0.23002226650714874, 0.22100886702537537, 0.08678855001926422, -0.33784055709838867, -0.3637535572052002, -0.6030007600784302], [-0.1955372393131256, 0.05829611420631409, -0.7547167539596558, -0.3686417043209076, 0.12404844164848328, -0.027829324826598167, 0.4292190372943878, 0.5156962871551514, -0.05463515222072601], [-0.8169387578964233, 0.19530434906482697, 0.6596904397010803, -0.3634578287601471, 0.1119229644536972, -0.042148858308792114, -0.5422899723052979, 0.03166022524237633, -0.030103368684649467], [0.3870740234851837, -0.8020743727684021, 0.11839359998703003, 0.1767634153366089, -0.17249205708503723, -0.044516585767269135, -0.4302952289581299, 0.025019682943820953, -0.961545467376709], [-0.22388066351413727, 0.422811895608902, -0.29153814911842346, 0.05115622654557228, -0.0955331027507782, 0.037388354539871216, -0.7301725745201111, -0.33288437128067017, 0.6417669653892517], [0.7147689461708069, -0.516315221786499, 0.06566999107599258, 0.3319701552391052, 0.24196045100688934, 0.309182733297348, 0.19270646572113037, 0.38771364092826843, 0.56337970495224], [0.49196910858154297, 0.33578601479530334, 0.19143404066562653, -0.3637579083442688, 0.12608331441879272, 0.18337582051753998, -0.6484039425849915, -0.541440486907959, 0.2725742757320404], [-1.0461552143096924, -0.12978796660900116, -0.2526734173297882, -0.19394302368164062, -0.2711308002471924, -0.09579041600227356, -0.0023257797583937645, -0.15441757440567017, -0.2931390702724457], [0.1279018074274063, -0.6091467142105103, 0.1189989224076271, -0.18586619198322296, 0.3994900584220886, -0.11964529752731323, 0.46429386734962463, 0.22872166335582733, 0.5359223484992981], [-0.5669511556625366, -0.08391302824020386, -0.05049731209874153, 0.16580963134765625, -0.280850350856781, 0.057016048580408096, -0.41440561413764954, -1.0229541063308716, 0.6765360832214355], [-0.06103348731994629, 0.0024369806051254272, -0.18096928298473358, 0.10877373069524765, -0.06948724389076233, -0.35686880350112915, 0.33338579535484314, -0.31154051423072815, 0.7662550806999207], [-0.793981671333313, -0.030895313248038292, -0.2866358757019043, 0.25106480717658997, 0.3258366286754608, -0.26689571142196655, 0.33149781823158264, -0.2545321583747864, -0.3942888081073761], [-0.13586078584194183, 0.046140026301145554, 0.19944718480110168, -0.3843466341495514, 0.3027620315551758, 0.8487222194671631, 0.12217745184898376, 0.16523027420043945, -0.13587334752082825], [0.490156352519989, -0.7072418928146362, 0.42915305495262146, -0.3736286759376526, -0.7898969054222107, -0.13595038652420044, 0.41657599806785583, 0.638311505317688, 0.1273014098405838], [-1.2120215892791748, -0.5000408887863159, -0.48672956228256226, 0.041708651930093765, 0.41630983352661133, 0.1137792319059372, -0.667134702205658, -0.2869266867637634, 0.2443433552980423]], "fc1.bias": [0.30508092045783997, -0.15306420624256134, -0.05456976965069771, 0.3639809191226959, 0.24714086949825287, -0.18616963922977448, 0.7011467218399048, -0.1432189792394638, -0.028103642165660858, 0.3838615417480469, 0.39091426134109497, 0.4939659833908081, 0.404354453086853, 0.07727256417274475, 0.5123491883277893, -0.2696385979652405], "fc2.weight": [[-0.10664362460374832, -0.34419888257980347, 0.1440853476524353, 0.11577331274747849, -0.024839626625180244, 0.3219022750854492, 0.7225225567817688, -0.11988287419080734, -0.8381547927856445, 0.38580983877182007, 0.359365850687027, 0.34845131635665894, -0.4646315276622772, -0.23193812370300293, 0.08591842651367188, -0.026632199063897133], [0.5086536407470703, 0.4861835241317749, -0.2814632058143616, -0.20058652758598328, 0.6929534673690796, 0.31942498683929443, -0.25451403856277466, 0.19129535555839539, 0.6252551674842834, -0.3979635238647461, 0.18552803993225098, -0.2532553970813751, 0.5038748979568481, 0.4714738428592682, 0.018634235486388206, 0.561500608921051], [0.5157979726791382, 0.09119847416877747, -0.3993929624557495, -0.12382958829402924, 0.8676753044128418, 0.4346022307872772, -0.05673949792981148, -0.266198992729187, 0.24845941364765167, -0.34452706575393677, 0.34890273213386536, -0.2157135158777237, 0.29535046219825745, -0.08458229899406433, -0.04407854378223419, 0.6706501841545105], [0.27189838886260986, 0.20326711237430573, -0.440250039100647, -0.05781092122197151, 0.4791361093521118, 0.1151510700583458, 0.27378833293914795, 0.576968252658844, 0.03975832089781761, -0.44867798686027527, -0.994335949420929, -0.13651280105113983, 0.4588700532913208, 0.20560592412948608, 0.2809496521949768, -0.19169636070728302], [0.1531793773174286, 0.2894045114517212, 0.040662731975317, -0.19050663709640503, 0.7893236875534058, 0.029640324413776398, 0.10265929251909256, 0.2588028013706207, 0.6864698529243469, -0.20329448580741882, -0.050082214176654816, -0.6730648279190063, 0.2618929147720337, 0.3758167028427124, -0.08086215704679489, 0.7345280647277832], [0.2960081398487091, 0.5728988647460938, -0.41017457842826843, 0.43062636256217957, 0.6395796537399292, 0.08306658267974854, -0.08813320100307465, 0.47331246733665466, 0.25732094049453735, -0.4119521975517273, -0.5541139841079712, -0.3011457324028015, 0.39931797981262207, 0.4651894271373749, 0.18273113667964935, -0.1701107621192932], [0.5128018856048584, 0.898217499256134, -0.020793702453374863, -0.04349234700202942, 0.1795029640197754, 0.27199482917785645, -0.8292758464813232, -0.29686814546585083, 0.7123319506645203, -0.39391541481018066, 0.21011731028556824, 0.19473475217819214, 0.3152756989002228, -0.1654830276966095, 0.22653815150260925, 0.40812167525291443], [0.2569422721862793, 0.5389221906661987, -0.09569867700338364, 0.3776608407497406, 0.3791845142841339, 0.20860841870307922, -0.02873578481376171, 0.2181612253189087, 0.33866310119628906, -0.5032138228416443, -0.6833899617195129, -0.22283370792865753, 0.19469043612480164, 0.2738139033317566, 0.1552755981683731, -0.005547893233597279], [0.43519073724746704, 0.18624162673950195, -0.04004688560962677, -0.3164457082748413, 0.6795945167541504, 0.2936097979545593, -0.17484989762306213, 0.12343312054872513, 0.44915834069252014, -0.4478661119937897, -0.0420922189950943, -0.21915532648563385, 0.42086347937583923, 0.5416211485862732, -0.1627817004919052, 0.46140584349632263], [0.24846817553043365, -0.08827552199363708, 0.5439519286155701, 0.2765813171863556, -0.003328218823298812, 0.3618459105491638, 0.7803030610084534, 0.1272098422050476, -0.44510895013809204, 0.659786581993103, 0.45618751645088196, 0.5000817775726318, 0.07123925536870956, 0.12458593398332596, 0.7134218215942383, -0.3375164866447449], [0.30020463466644287, 0.6595554947853088, -0.04986565187573433, 0.5544593334197998, 0.7892950177192688, -0.16622231900691986, -0.279532790184021, 0.39921656250953674, 0.2504555583000183, -0.3273256719112396, -0.3548762798309326, -0.5566750168800354, 0.3169720768928528, 0.31336066126823425, 0.31387850642204285, 0.0985194519162178], [0.2273331582546234, -0.059259478002786636, 0.1970428228378296, 0.34608277678489685, 0.2344387024641037, 0.3366991877555847, 0.7925052046775818, -0.06993361562490463, -0.7916563153266907, 0.20765908062458038, 0.2194911241531372, 0.10849138349294662, -0.05145910009741783, -0.016246242448687553, 0.4456932544708252, -0.25272858142852783], [0.5344251990318298, -0.08585081249475479, 1.0296001434326172, 0.8087234497070312, -0.04770801216363907, 0.13899149000644684, 0.7282866835594177, 0.18022534251213074, 0.03274288773536682, 0.8320757746696472, 0.3158716857433319, 0.5446082949638367, 0.2689531743526459, 0.47065550088882446, 0.7763503193855286, -0.49467241764068604], [0.41849884390830994, 0.21486595273017883, -0.4187982678413391, 0.2965409755706787, 0.6779312491416931, -0.020487023517489433, 0.019661135971546173, 0.37371498346328735, 0.23575183749198914, -0.4706967771053314, -0.41687971353530884, -0.15991954505443573, 0.2684847116470337, 0.26509612798690796, 0.25431329011917114, -0.18722234666347504], [0.08748256415128708, -0.08916732668876648, -0.2589648365974426, 0.28996574878692627, -0.889265775680542, -0.6408759951591492, 0.16087846457958221, -0.22727559506893158, -0.0862363949418068, 0.3892940878868103, 0.2912399470806122, 0.005316484719514847, 0.03192299231886864, 0.20351065695285797, -0.24167530238628387, 0.06341533362865448], [0.21560505032539368, 0.4543130397796631, -0.3637501001358032, 0.01999635435640812, 0.8667848110198975, 0.1541004776954651, -0.056415997445583344, 0.6273846626281738, -0.3310723602771759, -0.4171670377254486, -0.3369314670562744, -0.44462937116622925, 0.10394825786352158, 0.13850517570972443, 0.3576456308364868, 0.04691602289676666]], "fc2.bias": [0.3158969581127167, -0.11550600081682205, 0.14874134957790375, -0.009383651427924633, 0.09630608558654785, 0.10870519280433655, -0.018583307042717934, 0.29315170645713806, 0.10215841978788376, 0.7649670243263245, 0.20038717985153198, 0.08253294229507446, 0.5246828198432922, 0.3958253264427185, 0.17380711436271667, 0.2815532386302948], "fc3.weight": [[0.4713250994682312, -0.896001398563385, -0.37902987003326416, -0.9158444404602051, -0.8439708948135376, -0.5531244874000549, -0.6989219188690186, -0.7209665179252625, -0.5236780047416687, 0.5187068581581116, -0.5016983151435852, 0.4325938820838928, 0.8656893968582153, -0.21969421207904816, 0.49319392442703247, -1.0434434413909912], [-0.7932239770889282, 0.4659343659877777, -0.24995757639408112, 0.7438524961471558, 0.24355053901672363, 0.7631919384002686, 0.538995623588562, 0.9057576656341553, 0.7267374396324158, -0.560937762260437, 0.38203826546669006, -0.5017431974411011, -0.5773182511329651, -0.13134780526161194, -0.21452341973781586, 0.13045839965343475], [-0.6236924529075623, 0.36031317710876465, -0.037878427654504776, 0.15717953443527222, 0.7731650471687317, 0.8618241548538208, 0.711740255355835, 0.6952259540557861, 0.618937075138092, -0.11625215411186218, 0.5118424296379089, -0.34553587436676025, 0.10927677899599075, 0.37994152307510376, 0.5497030019760132, -0.0965348333120346], [-0.5882498621940613, 0.2321174144744873, -0.2784762680530548, 0.5361599922180176, -0.10714364796876907, 0.45646554231643677, 0.6101403832435608, 0.876724362373352, 0.4780406653881073, 0.02472934126853943, 0.5394421219825745, -0.04532935097813606, 0.32229650020599365, 0.0474749319255352, -0.19914890825748444, -0.35248005390167236], [-0.4951888620853424, 0.7115631699562073, 0.15798307955265045, 0.7912411689758301, 0.6850172281265259, 0.9673822522163391, 0.8494661450386047, 1.3400659561157227, 0.7959614396095276, -0.15728335082530975, 1.121436357498169, -0.10383143275976181, 0.08072108030319214, 0.531348466873169, -0.6871996521949768, 0.8531099557876587], [0.10962120443582535, 0.8445811867713928, 0.5761547684669495, 1.3274794816970825, 0.9722694158554077, 0.901229202747345, 0.41047579050064087, 0.7386273145675659, 0.7920898199081421, -0.12186729162931442, 0.7453228235244751, 0.2653017044067383, -0.2982715368270874, 0.6384905576705933, -0.9986262917518616, 1.7019516229629517], [-0.5947768688201904, 0.9411486983299255, 0.38632455468177795, 0.7020961046218872, 1.09529447555542, 0.7100335359573364, 0.5348736643791199, 0.8535053133964539, 0.8623195886611938, -0.4395749568939209, 0.6877105832099915, -0.3481481373310089, -0.04577815532684326, 0.2755568027496338, 0.21035438776016235, 0.6784135103225708], [0.5805333852767944, -0.5867560505867004, 0.5623512864112854, 0.08885219693183899, 0.02089168317615986, -0.3785282373428345, -0.9286923408508301, -1.1567460298538208, -0.36587104201316833, 0.3883475959300995, -0.3458471894264221, 0.4966079294681549, 0.36588242650032043, 0.01811276376247406, -0.04320520907640457, 0.5988085269927979]], "fc3.bias": [0.37119901180267334, -0.41762736439704895, 0.22146491706371307, -0.13946017622947693, -0.043220747262239456, -0.18758325278759003, -0.2093663513660431, -0.12289635092020035], "fc4.weight": [[-0.31736862659454346, 0.27959108352661133, -0.8442939519882202, 0.031038982793688774, 0.31988605856895447, 0.675983726978302, -0.5594576597213745, 0.3268600404262543], [-2.1194043159484863, 0.6195017695426941, 0.25389397144317627, 0.10707614570856094, 0.7631807327270508, 1.0857534408569336, 0.6828358173370361, -0.09279479831457138], [0.9915616512298584, -0.38950204849243164, -1.5757750272750854, -0.849543035030365, -1.6783725023269653, -1.4439976215362549, -1.1206567287445068, 0.7251608967781067], [-0.08150485903024673, 0.5164298415184021, 0.35981860756874084, 0.5328307151794434, 0.5852196216583252, -0.4654946029186249, -0.15692982077598572, -0.5566865801811218]], "fc4.bias": [0.36052781343460083, -0.38091912865638733, 0.441920667886734, 0.3095431625843048]}