{"fc1.weight": [[0.19593305885791779, 0.3339174687862396, -0.3712652027606964, 0.5760107636451721, 0.3706320822238922, -0.5711371898651123, 0.17714430391788483, -0.26447412371635437, -0.018002022057771683], [0.1844247281551361, 0.01908213086426258, 0.24527986347675323, 0.0340062640607357, -0.024587357416749, -0.1271207481622696, 0.4072752892971039, 0.6709371209144592, -0.010960891842842102], [-0.3485051095485687, 0.48271581530570984, 0.13663020730018616, 0.2610953152179718, -0.3071850836277008, 0.6761914491653442, -0.2752421796321869, -0.4321151077747345, -0.26904457807540894], [-0.004522707313299179, 0.08088365942239761, 0.3189406991004944, 0.10301593691110611, 0.13571608066558838, -0.09372536092996597, -0.32656463980674744, 0.26146870851516724, -0.27878502011299133], [-0.004164650104939938, 0.15799961984157562, 0.26320895552635193, 0.15813636779785156, -0.0017723868368193507, -0.022194284945726395, -0.7302595973014832, -0.6417576670646667, 0.02148435264825821], [-0.0903407484292984, 0.0723094716668129, -0.589618980884552, -0.11212500184774399, 0.02383856475353241, 0.2198457419872284, -0.3648938834667206, 0.23152220249176025, -0.19387514889240265], [0.4219154417514801, 0.22329233586788177, -0.22954919934272766, 0.03963079676032066, 0.38941991329193115, 0.3429735600948334, 0.3972184360027313, -0.3105236291885376, 0.42160412669181824], [-0.14529122412204742, -0.29250678420066833, -0.5631169676780701, -0.20837141573429108, 0.17524570226669312, 0.09194498509168625, 0.4076453745365143, 0.9160753488540649, -0.13982385396957397], [0.15331700444221497, 0.2285192459821701, -0.6352786421775818, 0.3442627489566803, 0.22348946332931519, -0.7152748703956604, 0.4851679801940918, 0.2627420127391815, 0.09190410375595093], [0.2021128535270691, 0.06921403855085373, 0.4325646162033081, 0.11406658589839935, 0.0686134546995163, -0.18714182078838348, 0.4369742274284363, 0.38733139634132385, -0.19813625514507294], [0.02291768230497837, 0.3501285910606384, -0.5931872725486755, 0.4163995683193207, -0.23050612211227417, -0.24561676383018494, -0.18517518043518066, -0.11812064796686172, -0.2454957216978073], [0.15736714005470276, 0.1132393553853035, 0.30279824137687683, 0.006067413836717606, 0.06874685734510422, 0.15237025916576385, -0.36773186922073364, -0.42974475026130676, 0.243246391415596], [0.12424714118242264, 0.2370780110359192, -0.22184501588344574, 0.08889034390449524, 0.2720019221305847, -0.2884073853492737, -0.6938999891281128, -0.6579850912094116, -0.09574458003044128], [0.15007053315639496, 0.1925581991672516, 0.2087038904428482, 0.11163275688886642, 0.08863640576601028, 0.05017373338341713, -0.5105633735656738, -0.4422905445098877, -0.046046722680330276], [-0.2524051070213318, 0.5904742479324341, 0.1220279410481453, -0.12331918627023697, 0.31711795926094055, -0.6455965042114258, 0.06265076994895935, -0.4369891285896301, -0.48602956533432007], [0.1436920017004013, 0.156744584441185, 0.25503644347190857, -0.0022805407643318176, 0.0060718064196407795, -0.10730237513780594, -0.7523877024650574, -0.42997458577156067, 0.008793272078037262]], "fc1.bias": [-0.03728441894054413, -0.21606145799160004, -0.1795242428779602, 0.3614944815635681, 0.13478253781795502, 0.540628969669342, 0.4741623103618622, -0.012093126773834229, 0.556970477104187, -0.16623128950595856, 0.6341617107391357, 0.09982047230005264, -0.15764616429805756, 0.11358719319105148, 0.02371070720255375, 0.18584667146205902], "fc2.weight": [[-0.23280665278434753, 0.2517355680465698, 0.25431114435195923, 0.39677461981773376, 0.33196935057640076, 0.535622239112854, 0.21725477278232574, 0.44733449816703796, 0.3707829713821411, 0.0004523787065409124, 0.5396225452423096, 0.1647465080022812, 0.4381687343120575, 0.27838706970214844, 0.23783241212368011, 0.17166109383106232], [-0.05198821797966957, 0.28980210423469543, -0.3172075152397156, 0.39196497201919556, 0.40531548857688904, 0.36903443932533264, 0.4691523611545563, -0.07360640913248062, 0.254658967256546, 0.4282294809818268, 0.3427264988422394, 0.33619049191474915, 0.4520040452480316, 0.5529369711875916, -0.2675670087337494, 0.6075301766395569], [-0.2820794880390167, -0.3142487406730652, -0.6918982267379761, 0.18604306876659393, 0.30937740206718445, 0.14073552191257477, 0.035241179168224335, -1.019021987915039, -0.6244841814041138, 0.17092737555503845, -0.060713618993759155, 0.24465668201446533, 0.6265352368354797, 0.5393224954605103, -0.6720387935638428, 0.5985319018363953], [0.2816182076931, -0.2311365306377411, 0.7840198278427124, -0.2906162440776825, -0.36190086603164673, 0.48109522461891174, 0.48231130838394165, 0.19106987118721008, -0.0547177717089653, -0.24418345093727112, 0.33298459649086, 0.05731908604502678, -0.5746445655822754, -0.22902366518974304, 0.5584902167320251, -0.23935504257678986], [-0.2441229224205017, 0.6150230765342712, -0.5829944014549255, 0.10537348687648773, 0.2381221354007721, -0.17103159427642822, -0.1579989790916443, 0.07120129466056824, 0.05018346756696701, 0.3079528212547302, 0.008582228794693947, 0.12316625565290451, 0.2134176641702652, 0.37291768193244934, -0.720098614692688, 0.25296011567115784], [-0.46133488416671753, -0.00877468753606081, -0.654931366443634, -0.06697661429643631, -0.06937899440526962, -0.05913015455007553, -0.3929491937160492, -0.009558770805597305, -0.21595942974090576, 0.19547738134860992, -0.37024277448654175, -0.3499739170074463, -0.11331308633089066, 0.003952395170927048, -0.4986693561077118, 0.09763991832733154], [0.268355131149292, -0.5653663277626038, 0.5857978463172913, -0.1817781776189804, -0.19392883777618408, -0.17495855689048767, 0.005370375234633684, 0.11153380572795868, 0.420257031917572, -0.20217138528823853, 0.2573745846748352, 0.17592014372348785, -0.13729971647262573, 0.02782130055129528, 0.8860417604446411, -0.39832809567451477], [0.08659401535987854, -0.026526054367423058, 0.07427531480789185, 0.5054053664207458, 0.2383975088596344, 0.5768126845359802, 0.21862371265888214, 0.39436185359954834, 0.12491917610168457, 0.18259043991565704, 0.5949966907501221, -0.055206265300512314, 0.23755374550819397, 0.05817405879497528, -0.11387790739536285, 0.38028696179389954], [0.10856612771749496, 0.38653451204299927, -0.6075866222381592, 0.28769850730895996, 0.26343023777008057, 0.2007269561290741, -0.3045006990432739, -0.1128847524523735, 0.30463331937789917, 0.192982479929924, 0.1228465884923935, 0.032207950949668884, 0.27650901675224304, 0.3019709587097168, -0.3387005925178528, 0.5876080393791199], [0.5302819013595581, -0.498303085565567, 0.7038131952285767, 0.17123766243457794, -0.03855511173605919, 0.03671106696128845, 0.5711427330970764, -0.10527173429727554, 0.5083149075508118, -0.2389674335718155, 0.5036801099777222, 0.017491726204752922, -0.21323150396347046, -0.02317092940211296, 0.8741264343261719, -0.4455564320087433], [-0.24892380833625793, 0.50295090675354, -0.674990177154541, 0.13506169617176056, 0.5626472234725952, 0.14496666193008423, -0.19054296612739563, 0.046219393610954285, -0.10082033276557922, 0.370873361825943, 0.10335321724414825, 0.028431452810764313, 0.47375521063804626, 0.34812405705451965, -0.9301544427871704, 0.29477956891059875], [-0.2527729868888855, 0.12392474710941315, -0.3539227247238159, 0.10772868245840073, 0.2487209141254425, 0.07443229854106903, -0.014039471745491028, 0.20896965265274048, 0.12945468723773956, 0.5211656093597412, 0.030165700241923332, 0.35255998373031616, 0.27841320633888245, 0.3958166241645813, -0.5337325930595398, 0.4248895049095154], [-0.32819175720214844, -0.20765544474124908, -0.8294243812561035, 0.05810083821415901, 0.3365926742553711, -0.1069805845618248, 0.11138416826725006, -1.016137719154358, -0.5279515981674194, -0.04972212389111519, 0.17432108521461487, 0.031626924872398376, 0.5267367362976074, 0.44164010882377625, -0.6983577609062195, 0.39930129051208496], [-0.03594363108277321, -0.2223476618528366, -0.36891937255859375, 0.1209968850016594, 0.015522116795182228, -0.5275635123252869, 0.08353085815906525, -0.0430416539311409, -0.3305226266384125, 0.14263911545276642, 0.04907386377453804, 0.3369324803352356, 0.33255526423454285, 0.09719899296760559, -0.42625436186790466, 0.2686399817466736], [0.4366275668144226, -0.605604887008667, 0.4289703071117401, 0.01829235441982746, -0.16798250377178192, 0.018442057073116302, 0.09241532534360886, 0.005112431477755308, 0.5321856737136841, -0.4131181836128235, 0.27358102798461914, -0.13123558461666107, -0.059336476027965546, -0.23195815086364746, 0.7898080348968506, -0.30131828784942627], [0.006947163958102465, -0.3158406913280487, -0.7318432927131653, 0.12465943396091461, 0.5907856225967407, 0.008232497610151768, -0.046691812574863434, -0.8992196917533875, -0.5997465252876282, 0.16695578396320343, 0.08861327171325684, 0.20858392119407654, 0.27240267395973206, 0.45930352807044983, -0.4220142662525177, 0.41970592737197876]], "fc2.bias": [0.36901697516441345, 0.20286375284194946, 0.03078356757760048, 0.28236016631126404, 0.07381439208984375, -0.28388965129852295, 0.2777602970600128, 0.44872209429740906, 0.16831128299236298, 0.2180972397327423, -0.20043793320655823, 0.20271046459674835, 0.1115150973200798, -0.19903643429279327, 0.41316527128219604, 0.029053548350930214], "fc3.weight": [[0.28211456537246704, 0.12500661611557007, 0.490215003490448, -0.566756546497345, 0.2231544852256775, -0.03848417475819588, -0.9195895195007324, 0.454620897769928, 0.4753649830818176, -0.32793787121772766, 0.5182706117630005, 0.4034299850463867, 0.7132717967033386, 0.6285280585289001, -0.6894741058349609, 0.6416027545928955], [-0.6369450688362122, -0.40726810693740845, 0.0833737924695015, -0.3329577147960663, 0.09051436930894852, 0.5066655874252319, -0.7153120040893555, -0.643832802772522, -0.4202669858932495, -0.7572219371795654, -0.08782434463500977, -0.11645687371492386, 0.2030261904001236, 0.5875627398490906, -0.847136914730072, -0.0006985023501329124], [0.196128249168396, -0.09811963886022568, -0.24780628085136414, 0.7297817468643188, -0.3887067437171936, -0.3753840923309326, 0.526783287525177, 0.26184317469596863, -0.3017358183860779, 0.3819054067134857, -0.13488975167274475, -0.1902284324169159, -0.5787099599838257, -0.7269123792648315, 0.7075583338737488, -0.641210675239563], [0.4752972424030304, 0.5155065655708313, 0.8433303236961365, -0.7803417444229126, 0.5142204165458679, -0.008244089782238007, -0.7925995588302612, 0.28815266489982605, 0.28825175762176514, -0.42523524165153503, 0.6473326683044434, 0.3435910642147064, 0.6251391768455505, 0.7688429951667786, -0.6655195355415344, 0.69281405210495], [-0.04019720107316971, -0.10427591949701309, 0.27896547317504883, -0.07163000106811523, 0.14384374022483826, 0.1367747187614441, -0.08545807749032974, -0.00038607497117482126, -0.3322269320487976, -0.47841987013816833, 0.17305679619312286, -0.11533207446336746, 0.08008477091789246, 0.5532106161117554, -0.1318979412317276, 0.1929207444190979], [-0.32318636775016785, -0.49843376874923706, -0.8528810143470764, 0.30609509348869324, -0.5590908527374268, 0.05721941590309143, 0.335544615983963, -0.02424801141023636, -0.19025790691375732, 0.15033352375030518, -0.7399411201477051, -0.21559540927410126, -0.6963949799537659, -0.6708799600601196, 0.4916835129261017, -0.8447124361991882], [-0.14700207114219666, -0.1646016389131546, -0.642017126083374, 0.30364444851875305, 0.009587222710251808, 0.20203731954097748, 0.18784654140472412, -0.24330274760723114, -0.2905173599720001, 0.17886076867580414, -0.33817318081855774, 0.10894910991191864, -0.5757905840873718, -0.6074573993682861, 0.21514244377613068, -0.5126140117645264], [0.3779652714729309, 0.36385565996170044, -0.7259165048599243, 0.8852921724319458, -0.3952217400074005, -0.44389405846595764, 0.706998348236084, 0.2724452614784241, 0.3124862611293793, 0.7483778595924377, -0.6490880250930786, 0.18298198282718658, -0.534932553768158, -0.8010200262069702, 0.99666428565979, -0.47580602765083313]], "fc3.bias": [0.03261537849903107, -0.6141435503959656, 0.282135546207428, 0.13706083595752716, -0.05506803095340729, -0.24368120729923248, -0.08569884300231934, 0.18481671810150146], "fc4.weight": [[-0.23565638065338135, 0.7860019207000732, -0.21801018714904785, -0.34394755959510803, 0.20453600585460663, 0.7051885724067688, 0.1853773444890976, -0.6348211169242859], [-0.1515776365995407, -0.5381073951721191, 0.8641734719276428, -0.1662677526473999, -0.31062832474708557, 0.35525643825531006, 0.03665858507156372, 0.7227804660797119], [0.8982613682746887, -0.17562183737754822, -1.3719993829727173, 0.8190491795539856, 0.08838338404893875, -0.43377459049224854, -0.3679342269897461, -0.6966999769210815], [0.16767147183418274, -0.09683200716972351, -0.20399853587150574, -0.3794613480567932, 0.28737393021583557, 0.23409542441368103, -0.26786094903945923, 0.06537948548793793], [-0.5062741041183472, 0.6386817693710327, -0.3712214231491089, -0.4134654104709625, 0.038911670446395874, 0.11362281441688538, -0.014840003103017807, -0.9736883044242859]], "fc4.bias": [-0.2593669295310974, 0.17812523245811462, -0.138565793633461, -0.07611194252967834, -0.5135532021522522]}