{"fc1.weight": [[0.25326791405677795, 0.24599498510360718, 0.05745890736579895, 0.12377852946519852, 0.36392393708229065, -0.06351103633642197, -0.14298169314861298, -0.4720209538936615, -0.4118294417858124], [0.31420469284057617, -0.22952257096767426, 0.0944015309214592, -0.414346307516098, 0.306144118309021, 0.025644393637776375, -0.15980716049671173, -0.10796879231929779, -0.5826913118362427], [0.05393901467323303, 0.028827600181102753, -0.13989228010177612, 0.2557727098464966, -0.16131848096847534, -0.3927020728588104, -0.15924318134784698, 0.15608014166355133, -0.35589462518692017], [-0.4174599051475525, 0.3180409073829651, 0.33245736360549927, -0.11000598222017288, 0.0638054609298706, 0.215420201420784, -0.1840091496706009, 0.3371265232563019, -0.32752925157546997], [-0.5282432436943054, -0.03676050528883934, 0.4118838310241699, -0.06275643408298492, -0.0778278186917305, 0.24680784344673157, -0.06161806732416153, -0.1268378049135208, -0.5194516777992249], [0.07614711672067642, -0.09007665514945984, -0.5581379532814026, 0.04063037037849426, -0.022503532469272614, -0.0825665146112442, 0.4737173318862915, 0.23979991674423218, 0.4623970687389374], [0.12903018295764923, -0.6209452152252197, -0.19010761380195618, -0.3104696273803711, -0.3060031235218048, -0.1794368177652359, -0.24377720057964325, -0.7081011533737183, 0.2641375660896301], [-0.032114434987306595, -0.37863782048225403, 0.1390175074338913, -0.03632548078894615, 0.11249060928821564, 0.15113896131515503, 0.36496323347091675, -0.04995718225836754, 0.6634978652000427], [-0.011308965273201466, -0.08437802642583847, 0.32906222343444824, 0.2654123902320862, 0.22784356772899628, -0.01782402954995632, -0.045149385929107666, 0.08762900531291962, -0.5184440016746521], [-0.06848128885030746, 0.02807997353374958, 0.7824531197547913, 0.14629966020584106, 0.19157396256923676, -0.10838419944047928, -0.02713773585855961, -0.5608755350112915, 0.22135107219219208], [-0.12128940224647522, 0.2535383403301239, 0.20047836005687714, 0.200478196144104, -0.03141017630696297, -0.43276721239089966, -0.04504353553056717, 0.08308988809585571, 0.12388649582862854], [-0.2805030643939972, -0.0025759784039109945, 0.7254682183265686, 0.06376224011182785, 0.2223212569952011, -0.3045358657836914, -0.19417023658752441, -0.12848828732967377, 0.401407927274704], [0.36567723751068115, -0.16225652396678925, -0.42826759815216064, 0.16955536603927612, 0.06436972320079803, 0.3415107727050781, 0.4519299268722534, 0.34019923210144043, 0.1091713011264801], [-0.30319222807884216, 0.2747419774532318, 0.2184264212846756, -0.22418221831321716, -0.36974427103996277, 0.11259344965219498, -0.21680405735969543, -0.06227013096213341, -0.3370201289653778], [0.01999642886221409, -0.0067227561958134174, 0.5864974856376648, -0.2642275094985962, -0.14673976600170135, 0.260391503572464, 0.09347694367170334, 0.32708847522735596, 0.17493928968906403], [0.43669649958610535, 0.1764371544122696, -0.468777060508728, 0.01666518673300743, 0.010826311074197292, -0.043063730001449585, 0.3293302059173584, 0.13506922125816345, -0.11879903078079224]], "fc1.bias": [-0.15194568037986755, 0.31258177757263184, 0.4635269343852997, 0.385053813457489, 0.407581090927124, -0.1811666339635849, -0.08209244906902313, 0.4890928268432617, -0.1025952398777008, 0.12488249689340591, 0.030314670875668526, 0.02809053100645542, 0.5033591985702515, -0.03656860440969467, 0.5331642031669617, -0.08070901781320572], "fc2.weight": [[-0.019086360931396484, 0.45258355140686035, 0.4324510097503662, 0.1403777003288269, 0.5048238635063171, 0.3255344033241272, 0.5788758397102356, 0.13762323558330536, 0.13376940786838531, -0.0488617941737175, 0.14586420357227325, 0.1862291842699051, 0.4042423963546753, 0.21546827256679535, 0.22166141867637634, -0.014994475990533829], [-0.04683388024568558, -0.22231756150722504, -0.009220042265951633, -0.24049019813537598, -0.154380202293396, 0.09852436929941177, -0.0973413735628128, 0.52488112449646, -0.44420236349105835, 0.23727820813655853, 0.06989355385303497, 0.1401066780090332, 0.2696801722049713, -0.16198304295539856, 0.2272869497537613, 0.07746574282646179], [-0.10279671102762222, -0.4306614100933075, -0.13079743087291718, -0.3031085431575775, 0.04933403432369232, 0.19387151300907135, -0.019797535613179207, 0.4594821035861969, -0.09107058495283127, 0.18168555200099945, 0.10029290616512299, 0.43087494373321533, 0.33225569128990173, -0.1871861219406128, 0.22161757946014404, 0.41070592403411865], [0.03842700645327568, 0.300462007522583, 0.40605494379997253, 0.4164395034313202, 0.31087175011634827, 0.20371122658252716, 0.43377411365509033, -0.12668022513389587, 0.16585536301136017, 0.1517542451620102, 0.3205606937408447, -0.17682605981826782, 0.05405329540371895, 0.05791979283094406, 0.2857455611228943, 0.059237074106931686], [0.1997591257095337, -0.08305787295103073, 0.07630910724401474, -0.10904207080602646, 0.0981980413198471, 0.11452559381723404, -0.34462445974349976, 0.014459659345448017, 0.13364627957344055, -0.24165847897529602, -0.07292506098747253, -0.1388552188873291, -0.005310624837875366, 0.04626745730638504, -0.04161786288022995, -0.20356827974319458], [-0.18883132934570312, -0.1790788322687149, -0.07169215381145477, 0.24121999740600586, 0.2812216579914093, 0.14718998968601227, -0.24264800548553467, 0.4001278877258301, -0.2297269105911255, 0.4823971688747406, 0.3276970088481903, 0.37477391958236694, 0.36064842343330383, -0.3564895689487457, 0.3039485514163971, 0.09196729212999344], [0.36922332644462585, 0.31413811445236206, 0.24236750602722168, 0.03836929425597191, 0.4605770409107208, 0.07182924449443817, 0.42255932092666626, -0.31350213289260864, 0.2039719820022583, -0.18047718703746796, 0.015709921717643738, -0.07227868586778641, 0.07860814034938812, 0.3603689968585968, 0.17966455221176147, -0.22482730448246002], [0.4158267378807068, 0.3699263632297516, 0.05387567728757858, 0.21095727384090424, 0.18538503348827362, -0.20596958696842194, 0.1407005786895752, -0.2479565143585205, 0.4202359616756439, -0.19483767449855804, -0.06604095548391342, 0.13004088401794434, -0.09623606503009796, 0.2764541804790497, 0.27594393491744995, 0.24527573585510254], [-0.3365724980831146, -0.3599715530872345, 0.07177326083183289, -0.07684492319822311, -0.1345972716808319, 0.08746717870235443, -0.2875128388404846, 0.37661370635032654, -0.17048479616641998, 0.39755305647850037, 0.1755460649728775, 0.3776523172855377, 0.44712361693382263, -0.1623121052980423, 0.005644341465085745, 0.5248591899871826], [-0.04347005859017372, -0.03507150709629059, -0.08686075359582901, 0.22552981972694397, -0.15442608296871185, 0.2074948102235794, 0.13022258877754211, 0.45118075609207153, -0.3984808623790741, 0.5158197283744812, 0.150724858045578, 0.25729799270629883, 0.42093050479888916, -0.2995496392250061, 0.28674325346946716, 0.4980608820915222], [0.13789716362953186, 0.46958333253860474, 0.31807541847229004, 0.21485267579555511, 0.27741703391075134, -0.04651938006281853, 0.423444926738739, -0.30872800946235657, 0.33022865653038025, 0.07646691054105759, -0.1651543825864792, -0.03217146173119545, -0.0903410091996193, -0.05903373286128044, -0.137008935213089, 0.0802072063088417], [0.30912408232688904, 0.25848305225372314, 0.16418226063251495, 0.3452911674976349, -0.023063402622938156, -0.28255513310432434, 0.02482341043651104, -0.2812047600746155, 0.29531189799308777, 0.19608114659786224, 0.06595172733068466, -0.11978936195373535, 0.07556574791669846, 0.29308247566223145, -0.04104482755064964, 0.08176642656326294], [0.3341454863548279, -0.024835119023919106, 0.25391867756843567, -0.03508424758911133, 0.3744868040084839, -0.042121436446905136, 0.3021535873413086, -0.0581701323390007, 0.21006383001804352, -0.05174684897065163, -0.032921262085437775, 0.1078624352812767, -0.07445064187049866, -0.10731249302625656, -0.2015817016363144, -0.13722756505012512], [0.28742825984954834, 0.3355235457420349, -0.09183309972286224, 0.00523980101570487, -0.04784226045012474, -0.3288024961948395, 0.12850284576416016, -0.2566084861755371, 0.037313662469387054, 0.1991317868232727, 0.22936956584453583, -0.3176281750202179, 0.262474924325943, 0.4273972809314728, 0.012037122622132301, -0.13320043683052063], [0.2891615629196167, 0.47977763414382935, 0.13193973898887634, 0.3623674213886261, 0.05568375065922737, 0.23096299171447754, 0.01583157479763031, 0.1049618348479271, 0.05108780786395073, 0.33254361152648926, 0.10432630777359009, 0.157144233584404, -0.003519294550642371, 0.2349170297384262, 0.23135243356227875, -0.03948628157377243], [0.31818974018096924, 0.08428369462490082, 0.39386722445487976, 0.4246457815170288, 0.3971517086029053, -0.21230463683605194, 0.33200204372406006, -0.20166803896427155, 0.4925267994403839, -0.020693767815828323, 0.08797038346529007, 0.030328145250678062, 0.1569836139678955, 0.20548735558986664, 0.25678107142448425, -0.2609955370426178]], "fc2.bias": [0.31252148747444153, 0.10845872014760971, 0.12440917640924454, 0.34841999411582947, -0.21459122002124786, 0.09252891689538956, -0.0376632995903492, -0.014774302020668983, 0.11818840354681015, 0.15335845947265625, 0.046029675751924515, -0.013151765801012516, -0.09006411582231522, 0.11945074796676636, -0.037549182772636414, 0.17382773756980896], "fc3.weight": [[0.05123058333992958, 0.4439828395843506, 0.48142820596694946, 0.012440059334039688, 0.17207029461860657, 0.42272496223449707, -0.6250410676002502, -0.4324609637260437, 0.3851916790008545, 0.021468397229909897, -0.606007993221283, -0.4473933279514313, -0.24757304787635803, -0.2871708273887634, 0.1776779443025589, 0.07722282409667969], [0.09225718677043915, 0.24527990818023682, 0.47792375087738037, 0.04929846525192261, -0.1844533532857895, 0.2614768147468567, -0.21659289300441742, -0.3523843586444855, 0.5525771379470825, 0.07816579192876816, -0.11988872289657593, -0.021928204223513603, -0.4022271931171417, -0.49690011143684387, -0.05788296461105347, -0.3195239007472992], [0.470104843378067, 0.06366818398237228, 0.03682872653007507, 0.3885338008403778, -0.10270228236913681, 0.31127098202705383, 0.43678048253059387, 0.24510729312896729, 0.2163013219833374, 0.39631447196006775, 0.22439169883728027, 0.2374373972415924, 0.21679703891277313, 0.01778578758239746, 0.4223455786705017, 0.42154985666275024], [0.24188296496868134, -0.2743568420410156, -0.19273948669433594, 0.18657991290092468, -0.08225783705711365, -0.020785558968782425, 0.5861406326293945, 0.16875438392162323, -0.22685888409614563, -0.16583077609539032, 0.42018812894821167, 0.35426995158195496, 0.1821843683719635, 0.19219845533370972, 0.28975579142570496, 0.3202142119407654], [0.26351088285446167, 0.39508605003356934, 0.4236483573913574, 0.39484715461730957, -0.2510257959365845, 0.4621208906173706, -0.3438677489757538, 0.007529492489993572, 0.47682464122772217, 0.4288129508495331, -0.10754360258579254, -0.46070900559425354, -0.16121895611286163, -0.30340102314949036, 0.12426082789897919, 0.29685941338539124], [0.4195370376110077, -0.363649845123291, -0.1894594132900238, 0.1461683213710785, -0.17862050235271454, -0.007549983449280262, 0.27919724583625793, 0.515304684638977, -0.4632834196090698, 0.033379629254341125, 0.3489606976509094, 0.5521509051322937, 0.0864509716629982, 0.3729994595050812, 0.13349799811840057, 0.12874922156333923], [0.2997993230819702, -0.39513882994651794, -0.30452460050582886, 0.4426136612892151, -0.19619037210941315, -0.042856115847826004, 0.2952934801578522, 0.21513338387012482, -0.24828283488750458, -0.27541810274124146, 0.473909854888916, 0.45255953073501587, 0.2814088463783264, 0.29399657249450684, 0.08589252829551697, 0.28002306818962097], [0.19865672290325165, 0.249434694647789, 0.280893474817276, -0.21949249505996704, -0.16031646728515625, 0.10326811671257019, -0.40811508893966675, -0.06849797815084457, 0.4268885552883148, 0.3111060857772827, -0.5340490937232971, -0.07278961688280106, -0.26288992166519165, -0.4967080056667328, 0.16791020333766937, -0.25026437640190125]], "fc3.bias": [0.36729490756988525, 0.0691116452217102, 0.3344235420227051, 0.08000229299068451, -0.04866456985473633, -0.042014554142951965, 0.3069581985473633, 0.2476554960012436], "fc4.weight": [[-0.1007298082113266, -0.2527841329574585, -0.08269640058279037, -0.21306675672531128, -0.5934049487113953, -0.529322624206543, -0.4386637806892395, -0.13613487780094147], [-0.4106256067752838, -0.455096960067749, 0.43465688824653625, 0.605503261089325, 0.0022895908914506435, 0.6937894821166992, 0.4353412091732025, -0.5645926594734192], [0.3804408013820648, 0.7242270708084106, 0.3327954411506653, -0.45771124958992004, 0.3873104453086853, -0.6961383819580078, -0.3789823353290558, 0.6202249526977539], [-0.391795814037323, -0.0059870765544474125, -0.49567216634750366, -0.3200564384460449, -0.3970080316066742, 0.011931296437978745, -0.03317059949040413, 0.03988035023212433], [-0.44431379437446594, -0.022131208330392838, -0.30733513832092285, -0.11684022098779678, -0.6357648968696594, -0.2752869427204132, -0.07063467055559158, -0.254798948764801]], "fc4.bias": [-0.3085040748119354, 0.21176664531230927, 0.10213317722082138, -0.2803039252758026, 0.11400141566991806]}