{"fc1.weight": [[0.0362071692943573, 0.20337128639221191, -0.40857842564582825, -0.24464218318462372, -0.16175217926502228, -0.19580942392349243, 0.0025790168438106775, 0.29023364186286926, -0.07721561938524246], [0.4193231463432312, 0.3812693953514099, 0.01320470217615366, -0.23340661823749542, -0.27550867199897766, 0.24816761910915375, -0.3867286741733551, -0.250417023897171, 0.2634728252887726], [0.31464192271232605, -0.2124820500612259, 0.25246861577033997, -0.13322599232196808, -0.09592150151729584, 0.3031940758228302, -0.42669689655303955, 0.1901450753211975, -0.2906677722930908], [-0.23438496887683868, 0.39354392886161804, -0.23483909666538239, 0.3603160083293915, -0.1057220920920372, 0.34479424357414246, 0.08036975562572479, 0.5419614315032959, -0.013347720727324486], [0.3178893029689789, 0.20371423661708832, -0.5109866857528687, 0.032939862459897995, -0.034057680517435074, -0.02387511543929577, -0.3544091284275055, -0.6857971549034119, -0.3458733558654785], [0.027361880987882614, 0.05717194080352783, -0.2168712615966797, -0.12362591177225113, 0.4013649821281433, -0.23870962858200073, 0.2557220160961151, 0.28160130977630615, 0.0963897556066513], [-0.007214860990643501, -0.2653770446777344, -0.08960511535406113, -0.21376749873161316, 0.3286469578742981, 0.4536478519439697, 0.03485449403524399, -0.34573283791542053, -0.2802586257457733], [-0.630948543548584, 0.033776286989450455, -0.023939991369843483, -0.17529793083667755, -0.16090348362922668, -0.05875447019934654, -0.05587286874651909, 0.2363830953836441, -0.46580180525779724], [0.3267354369163513, 0.18001699447631836, -0.1532963216304779, -0.12280347943305969, -0.190315380692482, 0.48723772168159485, 0.3922939896583557, 0.5852952599525452, 0.28308454155921936], [0.15386569499969482, -0.10314591974020004, -0.06219172477722168, -0.19060280919075012, -0.17262302339076996, 0.4399791359901428, 0.3476058542728424, 0.5423325300216675, 0.10654877871274948], [-0.3004382252693176, 0.25214388966560364, 0.1596982777118683, -0.3096559941768646, -0.25588199496269226, -0.21045765280723572, 0.28111451864242554, -0.36302831768989563, 0.03157486021518707], [-0.45039835572242737, -0.46227625012397766, 0.4131093919277191, -0.0606372095644474, 0.35458511114120483, -0.21649131178855896, 0.43915218114852905, -0.12230825424194336, 0.04530524089932442], [0.1161782443523407, 0.2509382665157318, 0.007396525237709284, -0.1675916612148285, 0.37728363275527954, 0.0584971085190773, 0.09110301733016968, 0.6458852291107178, -0.1687397062778473], [0.5773922204971313, -0.26271113753318787, 0.40295878052711487, -0.28021714091300964, 0.11584477871656418, -0.31359294056892395, -0.6194536685943604, 0.00198554084636271, 0.00871353317052126], [-0.08438712358474731, 0.18375970423221588, 0.24963924288749695, 0.3011004328727722, 0.2165384292602539, -0.3274131715297699, 0.021213332191109657, -0.2640380561351776, -0.2897947430610657], [0.3181930184364319, 0.3075591027736664, -0.3038729727268219, -0.009992904029786587, 0.2980477511882782, 0.40690138936042786, -0.5002855658531189, -0.5998489260673523, -0.20679455995559692]], "fc1.bias": [0.47873175144195557, 0.38373202085494995, 0.08021827042102814, 0.10452067852020264, 0.13344377279281616, 0.0498727522790432, 0.3895342946052551, 0.4309849143028259, 0.39708033204078674, 0.3654220700263977, 0.13469675183296204, 0.3172982335090637, 0.2780570685863495, -0.0293637216091156, -0.06642688065767288, 0.2499726563692093], "fc2.weight": [[0.2056392878293991, 0.006981906481087208, 0.36172160506248474, 0.34916070103645325, -0.3046269118785858, 0.03793078660964966, 0.2867179214954376, 0.061793822795152664, 0.533123791217804, 0.5954128503799438, -0.1769309788942337, 0.1652861088514328, 0.5523857474327087, 0.17074812948703766, 0.15915101766586304, 0.04089304059743881], [0.5586391091346741, -0.0062111918814480305, -0.34563082456588745, -0.44856977462768555, 0.19897352159023285, -0.01752406544983387, -0.05410672351717949, 0.16316191852092743, -0.5766879320144653, -0.50494384765625, -0.15024630725383759, -0.17972591519355774, -0.2944333553314209, -0.5587250590324402, -0.18482299149036407, 0.05091449245810509], [-0.08645079284906387, -0.14748607575893402, 0.5005017518997192, 0.22780708968639374, -0.21531687676906586, 0.0805191770195961, -0.1359226256608963, 0.21437221765518188, 0.2014332413673401, 0.4272499978542328, 0.1268082708120346, 0.42150890827178955, 0.37319764494895935, 0.43323850631713867, 0.06612958014011383, -0.08591850847005844], [-0.20151516795158386, 0.21708925068378448, 0.19314119219779968, 0.05908799543976784, 0.21701525151729584, -0.04985363781452179, 0.16970600187778473, -0.4260949492454529, -0.021545512601733208, 0.14308568835258484, -0.35599830746650696, -0.09904885292053223, 0.18561962246894836, 0.02359156869351864, 0.22528377175331116, 0.2901458442211151], [0.5084283351898193, 0.3935776948928833, -0.08277446776628494, -0.1257374882698059, 0.3130834400653839, -0.20172074437141418, 0.48256468772888184, 0.6123336553573608, 0.24770982563495636, 0.056908149272203445, 0.13338473439216614, 0.1954502910375595, -0.08370452374219894, -0.06681440025568008, -0.33520594239234924, 0.20983240008354187], [0.272436261177063, 0.35392487049102783, 0.06264558434486389, 0.06113239377737045, 0.5049763917922974, 0.16788806021213531, 0.6124657988548279, 0.49033209681510925, 0.17751942574977875, -0.04996443912386894, 0.23378705978393555, 0.11336734145879745, -0.26194971799850464, -0.3354327380657196, -0.39801374077796936, 0.2036971151828766], [-0.18648505210876465, 0.33092719316482544, 0.3181985914707184, 0.5480479001998901, 0.058140456676483154, 0.04248751699924469, 0.27327761054039, -0.11129901558160782, 0.46164634823799133, 0.17250138521194458, 0.1823207139968872, 0.27690696716308594, 0.3853225111961365, 0.608536958694458, -0.04304555058479309, -0.06236233562231064], [-0.32955849170684814, 0.30082884430885315, 0.4101824164390564, -0.07541798800230026, 0.08885546028614044, -0.03328482806682587, -0.13191808760166168, -0.31131628155708313, -0.19350330531597137, -0.1803988516330719, -0.2194521278142929, 0.008338668383657932, 0.09085847437381744, 0.21194836497306824, 0.04475405812263489, 0.23307590186595917], [0.28461363911628723, 0.03200352191925049, 0.16582508385181427, 0.32151588797569275, -0.20842307806015015, 0.07697656005620956, -0.19593212008476257, 0.3479783236980438, 0.2768312394618988, 0.5014674067497253, 0.049803476780653, 0.27891838550567627, 0.2107790857553482, 0.23106732964515686, 0.3679904341697693, -0.23103338479995728], [0.012039223685860634, 0.21308420598506927, 0.068326435983181, -0.1551741659641266, 0.13489891588687897, -0.10606937855482101, -0.033687759190797806, -0.3274933695793152, -0.3177768290042877, 0.13157683610916138, 0.14800576865673065, 0.13551349937915802, 0.0038150763139128685, 0.13695128262043, -0.14088140428066254, 0.12705355882644653], [0.2121608406305313, -0.18748046457767487, -0.08204499632120132, 0.08609539270401001, 0.10648061335086823, 0.1780489832162857, 0.06315626204013824, -0.027628453448414803, -0.14419105648994446, 0.17550085484981537, 0.04659801349043846, 0.05262601375579834, -0.0704820305109024, -0.2737619876861572, 0.12670566141605377, -0.2259240448474884], [0.11418087780475616, 0.04345625638961792, -0.017987921833992004, 0.45164555311203003, -0.3465590476989746, 0.037435147911310196, -0.09401844441890717, 0.3878978490829468, 0.19465991854667664, 0.5080986022949219, 0.3598179519176483, 0.44974642992019653, 0.20336481928825378, 0.03386332467198372, 0.029724426567554474, 0.07249562442302704], [0.26029065251350403, 0.31450414657592773, 0.27006128430366516, 0.16715240478515625, 0.1261039823293686, 0.3544914424419403, 0.31470605731010437, 0.4069121181964874, 0.342096209526062, 0.25009027123451233, 0.1972229778766632, 0.13200928270816803, 0.051042184233665466, 0.36465534567832947, -0.21644866466522217, 0.2211076319217682], [0.17893444001674652, -0.1848197728395462, 0.29432767629623413, 0.3574334979057312, -0.5187368988990784, 0.4189736247062683, 0.2403065711259842, 0.4242326617240906, 0.25014498829841614, 0.4590613842010498, -0.060249876230955124, 0.43492063879966736, 0.13808666169643402, 0.32801124453544617, -0.16784052550792694, -0.19540412724018097], [0.23459990322589874, 0.1454266905784607, 0.48648759722709656, 0.375395268201828, 0.19504520297050476, 0.325458288192749, 0.039427291601896286, 0.06983401626348495, 0.36042726039886475, 0.1449248194694519, -0.07761350274085999, 0.020362403243780136, 0.3076727092266083, 0.32031190395355225, 0.1064540296792984, 0.2145211398601532], [0.10014337301254272, 0.10525612533092499, 0.4351691007614136, 0.5056203603744507, -0.27441251277923584, 0.31765618920326233, 0.062344253063201904, 0.4597761034965515, 0.3905304968357086, 0.05701017379760742, -0.1607801616191864, 0.06030500307679176, 0.5646860003471375, 0.078847236931324, 0.03419218212366104, -0.327799916267395]], "fc2.bias": [-0.13530398905277252, 0.057606637477874756, 0.3049306273460388, -0.17838752269744873, 0.5773602724075317, 0.5575024485588074, -0.22851531207561493, -0.0891176387667656, 0.1458960324525833, -0.2075158953666687, -0.15037356317043304, -0.01798548921942711, 0.42014312744140625, 0.23747046291828156, 0.28168365359306335, 0.10981591790914536], "fc3.weight": [[-0.2894195020198822, 0.5480838418006897, -0.05650656297802925, 0.06156304106116295, 0.31229060888290405, 0.4534503221511841, -0.6341521739959717, -0.38840535283088684, -0.37545299530029297, -0.2523333728313446, 0.02944686822593212, -0.21109680831432343, 0.1160552129149437, -0.344035804271698, 0.10731029510498047, -0.48502177000045776], [0.08746559917926788, 0.2022617757320404, 0.13173198699951172, 0.07435064762830734, 0.3171941339969635, 0.4854430854320526, 0.19157704710960388, 0.002647337270900607, 0.2498791515827179, -0.005707619711756706, -0.04876044765114784, 0.36235618591308594, 0.51154625415802, 0.05866032838821411, 0.4683298170566559, 0.3027797043323517], [0.42586827278137207, -0.21568100154399872, 0.17941702902317047, 0.36377549171447754, -0.17481569945812225, 0.10261363536119461, 0.175170436501503, 0.30396974086761475, 0.29665878415107727, 0.17654100060462952, 0.17354509234428406, 0.19353006780147552, 0.11810223013162613, 0.3290225863456726, 0.24305729568004608, 0.1837957352399826], [0.32752400636672974, -0.2860158681869507, 0.3643431067466736, 0.17522743344306946, 0.1087711751461029, -0.15188856422901154, 0.5760272145271301, 0.4251050353050232, 0.28703904151916504, 0.05396740138530731, -0.22326062619686127, 0.21148525178432465, 0.0019066474633291364, 0.4367195665836334, 0.3169279992580414, 0.4400608539581299], [0.5961558222770691, -0.4633873701095581, 0.5141832232475281, 0.1650611013174057, -0.002294243313372135, -0.06121627613902092, 0.5508791208267212, -0.030226949602365494, 0.4074512720108032, 0.15885095298290253, -0.09830442070960999, 0.3868893086910248, 0.16228480637073517, 0.3644501864910126, -0.07971904426813126, 0.5621998906135559], [-0.16408100724220276, 0.23458552360534668, -0.415936142206192, -0.14708870649337769, 0.19262084364891052, 0.40332895517349243, -0.2382916957139969, -0.241965651512146, -0.4311291575431824, -0.3855549991130829, -0.24844332039356232, -0.28555944561958313, 0.33016982674598694, -0.09232864528894424, -0.12530295550823212, -0.5390388369560242], [0.08620278537273407, 0.38283026218414307, -0.0776965543627739, 0.10351072251796722, 0.27647238969802856, 0.43700137734413147, -0.06759322434663773, -0.25491002202033997, 0.15933650732040405, -0.07012930512428284, -0.09264041483402252, 0.3678534924983978, 0.4606073498725891, 0.33385011553764343, 0.4606717526912689, 0.23097212612628937], [0.37864646315574646, -0.5645397901535034, 0.4501475691795349, 0.469553679227829, -0.09498857706785202, 0.02957732044160366, 0.4495142698287964, 0.25169917941093445, 0.4502595365047455, 0.3188497722148895, -0.1493370234966278, 0.4640745222568512, 0.16822710633277893, 0.4188461899757385, 0.29720622301101685, 0.5931461453437805]], "fc3.bias": [0.31195613741874695, 0.18111729621887207, -0.20275898277759552, -0.09602739661931992, 0.18776372075080872, 0.2946973443031311, 0.5128493905067444, -0.17777232825756073], "fc4.weight": [[-0.30456113815307617, -0.41808751225471497, 0.03676840290427208, -0.4822380244731903, 0.08370056003332138, -0.13114500045776367, -0.5453289747238159, 0.00753262871876359], [-0.6252312660217285, 0.39727604389190674, 0.22469660639762878, 0.6315642595291138, 0.5152275562286377, -0.33855563402175903, -0.12375908344984055, 0.7030805349349976], [0.49150070548057556, 0.3783779442310333, -0.4741304814815521, -0.4386241137981415, -0.41509488224983215, 0.44445890188217163, 0.17030254006385803, -0.9067227244377136], [-0.3195854425430298, -0.42811477184295654, 0.3167223334312439, -0.23066765069961548, -0.4414432644844055, 0.026406366378068924, -0.5706348419189453, -0.10459662973880768], [-0.2824479341506958, -0.5519358515739441, -0.18399983644485474, -0.5073047280311584, -0.2517211437225342, -0.5082703828811646, -0.5044859051704407, -0.3691495358943939]], "fc4.bias": [-0.3560792803764343, 0.1147892102599144, 0.1279909610748291, -0.39493080973625183, -0.38684147596359253]}