{"fc1.weight": [[-0.2725071907043457, -0.461258202791214, 0.35359877347946167, -0.6240729093551636, 0.29097869992256165, 0.12532180547714233, -0.4174303710460663, 0.4361451268196106, 0.2288065403699875], [0.24899061024188995, -0.4882667362689972, -0.41809365153312683, -0.019284965470433235, 0.04831438139081001, 0.12846453487873077, -0.368843138217926, 0.027050646021962166, 0.5547399520874023], [-0.10396236181259155, -0.6928773522377014, 0.5870792269706726, -0.29519420862197876, -0.2950061559677124, -0.21707305312156677, -0.5749944448471069, -0.5518022179603577, -0.10383769869804382], [0.001120066735893488, 0.5995992422103882, -0.24210472404956818, -0.2596684694290161, 0.26166456937789917, 0.13198105990886688, -0.09848866611719131, -0.1861429661512375, -0.3423541784286499], [-0.17338010668754578, 0.5988913774490356, -0.5138549208641052, 0.036214739084243774, 0.11040738970041275, -0.0795932188630104, -0.007756849750876427, 0.0019459131872281432, -0.3194642961025238], [0.18949207663536072, 0.34632399678230286, -0.4869016706943512, 0.04806160926818848, -0.24728034436702728, 0.3861127495765686, -0.03496747091412544, 0.04651080444455147, -0.5110717415809631], [-0.14496181905269623, 0.5649495720863342, 0.664014458656311, 0.021390682086348534, 0.3382839560508728, 0.04828033223748207, 0.14061659574508667, -0.31127437949180603, -0.2821674346923828], [0.018351394683122635, -0.5034055709838867, -0.7265205383300781, 0.12066436558961868, -0.4318702518939972, -0.19521868228912354, 0.1594216674566269, -0.5338968634605408, 0.09342299401760101], [-0.13376925885677338, 0.17260432243347168, 0.11370836198329926, 0.10599549114704132, 0.2887457609176636, 0.0283176489174366, -0.3636646568775177, 0.25064411759376526, -0.5311808586120605], [-0.2904915511608124, 0.34536013007164, 0.3947996497154236, 0.09866904467344284, 0.18597297370433807, 0.23751653730869293, -0.10033571720123291, 0.6015744209289551, 0.3290805518627167], [0.3314548432826996, 0.24496111273765564, 0.1967284083366394, 0.4407404959201813, 0.3133864998817444, -0.2924800515174866, -0.3547912836074829, -0.013218782842159271, -0.16714370250701904], [-0.5464022159576416, 0.5329304933547974, -0.061179373413324356, -0.25969770550727844, 0.04235532134771347, 0.22354818880558014, 0.3568810522556305, -0.30174869298934937, 0.6623643040657043], [-0.0678967833518982, -0.3215288519859314, 0.35429954528808594, 0.15021122992038727, 0.1535062938928604, -0.3598621189594269, -0.3551183044910431, 0.46699121594429016, -0.2428191751241684], [-0.3446750044822693, 0.31990915536880493, 0.009772732853889465, -0.4881097972393036, 0.2309194654226303, 0.2485702633857727, 0.09044050425291061, 0.5556614398956299, 0.031567689031362534], [-0.2256915271282196, 0.48261579871177673, -0.2938785254955292, 0.15440675616264343, 0.1587180197238922, -0.2175782322883606, 0.16597263514995575, 0.1895667165517807, -0.23946869373321533], [0.24409861862659454, -0.2971603572368622, 0.42437753081321716, -0.6359180808067322, 0.04148304462432861, -0.022182093933224678, -0.5599009990692139, -0.5187737345695496, 0.23543457686901093]], "fc1.bias": [0.24138575792312622, 0.337149977684021, 0.6285513043403625, 0.6161423325538635, 0.6596322059631348, 0.22822783887386322, 0.3252231478691101, 0.7245492339134216, 0.24792516231536865, 0.5450875163078308, 0.28726184368133545, 0.18518203496932983, 0.6126573085784912, 0.5796952247619629, 0.7611212134361267, 0.5374721884727478], "fc2.weight": [[0.20069627463817596, -0.3061290383338928, 0.08308354020118713, 0.6125418543815613, 0.29033103585243225, 0.3189072012901306, 0.24604271352291107, 0.07918643206357956, 0.5408369898796082, 0.3109566867351532, 0.3261856138706207, 0.6229733824729919, 0.23803502321243286, 0.5135322213172913, 0.5517786145210266, -0.36874571442604065], [0.10871508717536926, -0.35569682717323303, 0.05581415817141533, 0.47412124276161194, 0.6122100949287415, 0.3442281186580658, 0.3507312536239624, 0.034875430166721344, 0.469884991645813, 0.25942736864089966, 0.07806791365146637, 0.48480409383773804, 0.285670667886734, 0.2890914976596832, 0.23882679641246796, -0.3549114167690277], [0.11203546077013016, 0.0037366515025496483, 0.10976215451955795, 0.29330775141716003, 0.3960341811180115, 0.24881428480148315, 0.47730860114097595, 0.17724032700061798, 0.505654513835907, 0.3178081810474396, -0.07904436439275742, 0.5695092678070068, 0.19610650837421417, 0.6002532839775085, 0.6391605734825134, 0.26605746150016785], [0.47656726837158203, 0.14311933517456055, 0.3136482536792755, 0.2952392101287842, 0.10999476909637451, 0.24656853079795837, 0.42530718445777893, 0.30154144763946533, 0.32847851514816284, 0.5515506863594055, -0.17227722704410553, 0.32958799600601196, 0.23863114416599274, 0.4620775282382965, 0.23079106211662292, 0.15125899016857147], [-0.30400514602661133, -0.14555267989635468, -0.20490358769893646, 0.2228390872478485, 0.3797634243965149, 0.2689632475376129, -0.07520055025815964, 0.2657111585140228, 0.29377779364585876, -0.36855342984199524, 0.09579692780971527, 0.3524594306945801, 0.2360757291316986, 0.14719805121421814, 0.12445496022701263, -0.3170488178730011], [-0.04719429835677147, -0.34931254386901855, -0.4646294414997101, 0.31439170241355896, 0.06534978002309799, 0.48907244205474854, 0.301875501871109, 0.3588486611843109, 0.04834718257188797, -0.20910978317260742, 0.1854425072669983, 0.4454286992549896, 0.08668313175439835, -0.05389634892344475, 0.4186156690120697, -0.3934180438518524], [-0.12842760980129242, -0.27728989720344543, -0.1014055386185646, 0.23692426085472107, 0.3969862163066864, 0.40377506613731384, 0.39051780104637146, 0.2550013065338135, 0.13481931388378143, 0.08974773436784744, 0.2692434787750244, 0.13193529844284058, 0.08995205909013748, 0.3410395085811615, 0.44297826290130615, -0.18921686708927155], [-0.34112977981567383, -0.5335999727249146, -0.3437008559703827, 0.35577523708343506, 0.392190545797348, 0.3834301829338074, 0.14778119325637817, 0.3251412808895111, 0.26108047366142273, -0.22696612775325775, 0.26593759655952454, 0.1969306319952011, 0.1136488988995552, -0.15139912068843842, 0.17726753652095795, -0.12092367559671402], [0.19538614153862, 0.3505653738975525, 0.28449323773384094, -0.035641275346279144, -0.10576219856739044, -0.09683233499526978, -0.06527803838253021, 0.25960591435432434, -0.024829953908920288, 0.04013000801205635, 0.07307267189025879, -0.15934698283672333, 0.3705705404281616, 0.14073091745376587, -0.14083099365234375, 0.6682952642440796], [0.4381166398525238, 0.7370157241821289, 0.7033727765083313, -0.32162660360336304, 0.1177155151963234, 0.18534396588802338, 0.1464802324771881, 0.4361927807331085, -0.2961483597755432, -0.15592125058174133, 0.09466294199228287, -0.015248400159180164, 0.12725281715393066, 0.15285128355026245, 0.025126580148935318, 0.5284573435783386], [0.4753256142139435, 0.5008224844932556, 0.5952470898628235, -0.4012978672981262, -0.182664155960083, -0.1602100282907486, 0.1149507537484169, 0.16950997710227966, -0.20581738650798798, 0.10920390486717224, 0.22755807638168335, -0.18394725024700165, 0.35661813616752625, 0.3433842658996582, -0.03162149339914322, 0.5804613828659058], [0.30550068616867065, 0.17818963527679443, 0.3466545343399048, 0.2692872881889343, 0.021665818989276886, 0.28586524724960327, 0.42457225918769836, 0.26091545820236206, 0.2773127555847168, 0.6710657477378845, -0.05311691015958786, 0.34861502051353455, 0.28440138697624207, 0.6288151144981384, 0.09210178256034851, 0.5299909114837646], [0.30227530002593994, -0.0776117742061615, 0.05525648593902588, 0.20318520069122314, 0.5657007694244385, 0.19854921102523804, 0.5621640086174011, -0.020316394045948982, 0.5887123346328735, 0.6417902708053589, 0.18899331986904144, 0.12289826571941376, -0.03381863236427307, 0.6644384264945984, 0.4240502417087555, 0.0360635444521904], [0.20734111964702606, -0.4980654716491699, 0.10929607599973679, 0.09579446911811829, -0.31141942739486694, 0.05941097065806389, 0.6438822746276855, 0.03788476064801216, 0.44025155901908875, 0.14824247360229492, -0.12905311584472656, 0.13822653889656067, -0.27011820673942566, -0.04393267631530762, -0.29520702362060547, 0.41492408514022827], [0.14986975491046906, 0.17252451181411743, 0.16149434447288513, 0.009880919940769672, -0.1443891078233719, -0.30014875531196594, -0.21266791224479675, 0.11137203872203827, -0.025067416951060295, -0.3050632178783417, 0.38188737630844116, -0.7428958415985107, 0.1333058923482895, -0.21712489426136017, 0.00637380126863718, 0.4301697313785553], [0.1675703078508377, 0.6699371933937073, 0.43850377202033997, -0.2713550925254822, -0.24720032513141632, 0.1813620924949646, 0.2643260955810547, 0.2125808596611023, -0.017949912697076797, 0.1064486876130104, -0.24529699981212616, -0.2409522384405136, 0.07637149840593338, 0.3034350574016571, -0.11840851604938507, 0.3751145005226135]], "fc2.bias": [0.06548647582530975, 0.29048770666122437, 0.206581249833107, 0.4766750633716583, 0.023657841607928276, 0.21172966063022614, 0.42954570055007935, -0.15884630382061005, 0.19033432006835938, 0.38671475648880005, 0.4528040885925293, 0.37318819761276245, 0.3679492771625519, -0.0013526799157261848, 0.02324018068611622, 0.16872595250606537], "fc3.weight": [[0.25211575627326965, 0.046808309853076935, 0.09189785271883011, -0.17878633737564087, 0.16711221635341644, 0.5988551378250122, 0.31541749835014343, 0.3724437355995178, -0.6098413467407227, -0.10930342227220535, -0.13568174839019775, 0.11016420274972916, 0.037675891071558, -0.18588301539421082, -0.10783470422029495, -0.46588367223739624], [0.2105536162853241, 0.3983542025089264, 0.10693777352571487, 0.2351188063621521, 0.5000424981117249, 0.3532673120498657, 0.015643995255231857, 0.609000027179718, -0.1932283192873001, 0.11665249615907669, -0.29931962490081787, 0.02334875985980034, -0.016956306993961334, -0.1159110888838768, -0.3011719882488251, -0.4516172409057617], [-0.1972452700138092, -0.10990504175424576, 0.4235445559024811, 0.18271031975746155, -0.35732775926589966, -0.3228549659252167, 0.14258991181850433, -0.28577446937561035, 0.2933577001094818, 0.4920094609260559, 0.5822531580924988, 0.4526180326938629, 0.2672838270664215, 0.03102480061352253, 0.3930680453777313, 0.3488543927669525], [0.3146689236164093, -0.049791984260082245, 0.1386176347732544, -0.09803694486618042, 0.3206491768360138, 0.40123042464256287, 0.2729458808898926, 0.4748381972312927, 0.29507964849472046, -0.19778111577033997, -0.31101566553115845, -0.09407661855220795, -0.1960180401802063, -0.16904202103614807, 0.1007324606180191, -0.4010866582393646], [0.0008940818952396512, -0.27622976899147034, 0.13974370062351227, 0.34380507469177246, -0.5317198634147644, -0.1637820601463318, -0.28427356481552124, -0.4532211124897003, 0.6293920278549194, 0.46139729022979736, 0.5638277530670166, 0.41755411028862, 0.09324347227811813, -0.023249534890055656, 0.32707035541534424, 0.8035748600959778], [0.7293090224266052, 0.7526899576187134, 0.5813034176826477, 0.33972084522247314, 0.3218814432621002, 0.39884161949157715, 0.47527390718460083, -0.08047043532133102, -0.31970250606536865, -0.0744396522641182, -0.17640578746795654, 0.2659229338169098, 0.5925091505050659, 0.7196163535118103, -0.7132735848426819, -0.30806300044059753], [-0.17536906898021698, -0.3430142402648926, 0.32278206944465637, 0.11602962017059326, -0.3180910348892212, -0.314052939414978, 0.0776861384510994, -0.18101593852043152, 0.4907230734825134, 0.5470981597900391, 0.47394829988479614, 0.023822495713829994, 0.2283732295036316, -0.1545087695121765, 0.2900512218475342, 0.4208199083805084], [0.07690893858671188, -0.07132209092378616, -0.036959294229745865, -0.2111843228340149, -0.1941370815038681, -0.07159131020307541, -0.14703096449375153, -0.5322771072387695, -0.17911440134048462, -0.316499799489975, -0.22485966980457306, -0.04434489458799362, -0.0033701141364872456, -0.07277774065732956, -0.3472082018852234, -0.07868099957704544]], "fc3.bias": [0.02340364269912243, -0.07708555459976196, 0.27753257751464844, 0.15192073583602905, 0.19481036067008972, 0.1097029522061348, 0.2703332006931305, -0.0030676675960421562], "fc4.weight": [[0.11580003052949905, -0.19293217360973358, 0.08322247862815857, 0.24280910193920135, -0.5350633263587952, -0.17738182842731476, -0.4310995638370514, 0.1769188940525055], [-0.11004737764596939, -0.03515617176890373, 0.39556020498275757, -0.3392902612686157, 0.10651177912950516, 0.5326546430587769, 0.21787327527999878, 0.162888765335083], [0.048038776963949203, -0.10278372466564178, 0.5146369338035583, -0.06198975071310997, 0.32453224062919617, -0.6825862526893616, 0.4930613338947296, -0.19884248077869415], [0.6369293928146362, 0.4947085976600647, 0.1485292613506317, 0.4332702159881592, -0.448110431432724, 0.3524615168571472, 0.040078576654195786, -0.1993345469236374], [-0.08450361341238022, -0.4061890244483948, -0.4184362590312958, 0.027546856552362442, -0.2517605125904083, 0.08200392872095108, -0.10869501531124115, 0.09641095250844955]], "fc4.bias": [0.11247234791517258, 0.020098114386200905, 0.29930415749549866, 0.16973301768302917, -0.02870902605354786]}