{"fc1.weight": [[0.24359892308712006, 0.2963639795780182, 0.029750656336545944, -0.5749757885932922, 0.1886877864599228, -0.2644834518432617, 0.20613467693328857, 0.08764852583408356, 0.0020898994989693165], [-0.4468138515949249, -0.0810239315032959, 0.25591692328453064, -0.5664461255073547, -0.35889214277267456, 0.22345207631587982, 0.2872568964958191, 0.35288071632385254, -0.03868580982089043], [-0.07867913693189621, -0.5532213449478149, -0.29791009426116943, 0.3635712265968323, 0.3501959443092346, 0.07607686519622803, 0.2213200479745865, 0.2962220311164856, -0.03981795534491539], [0.39933931827545166, -0.3915492296218872, 0.20168055593967438, 0.30005785822868347, -0.26454034447669983, -0.7037670016288757, 0.20758800208568573, 0.1600206345319748, -0.06726615875959396], [-0.4287969768047333, -0.35926565527915955, 0.03940584510564804, -0.16102571785449982, -0.30858922004699707, 0.3589712679386139, 0.09143716096878052, 0.3433157205581665, -0.3330847918987274], [-0.2845396101474762, 0.27157217264175415, 0.6866381764411926, 0.03754556551575661, 0.126942440867424, -0.04761497676372528, -0.49026843905448914, 0.13695798814296722, -0.369733989238739], [0.07789891958236694, -0.13290227949619293, -0.3419233560562134, -0.6082486510276794, -0.30684295296669006, -0.66651850938797, -0.16978269815444946, -0.2249622792005539, 0.6872529983520508], [-0.4965684711933136, -0.06384456157684326, 0.10618878901004791, -0.2642662823200226, -0.5147936344146729, -0.5870936512947083, 0.07184471935033798, 0.03174595907330513, -0.029357554391026497], [-0.26028117537498474, 0.18183819949626923, -0.09460484236478806, 0.4518100321292877, -0.27852994203567505, -0.3265526592731476, -0.4997153580188751, -0.7385504841804504, -0.2788343131542206], [-0.15177591145038605, -0.17596136033535004, -0.6374138593673706, -0.5103814601898193, -0.3079604506492615, -0.1106809750199318, 0.2593759298324585, -0.3021090626716614, 0.4909243881702423], [0.2797866761684418, 0.44240251183509827, 0.14765995740890503, 0.31263765692710876, -0.05185684561729431, 0.42718327045440674, 0.4031519889831543, -0.39597728848457336, -0.32766833901405334], [-0.12204568833112717, -0.2714538276195526, 0.3356679081916809, -0.11804566532373428, 0.0878433883190155, 0.11966636776924133, -0.47692185640335083, -0.5931174159049988, -0.017274348065257072], [0.24863961338996887, 0.05104420334100723, 0.11053360253572464, -0.2264016717672348, -0.4842889606952667, -0.3636747896671295, 0.414298951625824, 0.4088743329048157, -0.07176908850669861], [0.15505535900592804, -0.10297390073537827, -0.0006705894484184682, -0.3027248680591583, -0.34728506207466125, -0.6685118079185486, 0.41646942496299744, 0.14803370833396912, -0.2455165982246399], [-0.2696111798286438, 0.3347194492816925, -0.2744112014770508, -0.43962937593460083, 0.12833665311336517, -0.6259536147117615, -0.22857043147087097, 0.0695253387093544, 0.4085272550582886], [-0.3691401779651642, -0.10451628267765045, 0.18881860375404358, -0.4349311292171478, -0.08659762889146805, 0.30577048659324646, -0.34154921770095825, -0.09456665068864822, -0.2095261663198471]], "fc1.bias": [0.4552294909954071, -0.08078601956367493, 0.3313087224960327, 0.3775387704372406, 0.31046026945114136, 0.24506674706935883, 0.6480653285980225, 0.37764662504196167, 0.13940924406051636, 0.35952916741371155, 0.21618211269378662, 0.21155767142772675, 0.030591242015361786, -0.10767114162445068, 0.2843124568462372, -0.030681723728775978], "fc2.weight": [[-0.24391531944274902, 0.6130378842353821, 0.10188021510839462, 0.4444761574268341, 0.08079522103071213, 0.36400899291038513, -0.009280267171561718, 0.09443023800849915, 0.4140471816062927, 0.24298952519893646, 0.21254193782806396, 0.520955502986908, 0.6712672710418701, 0.4634151756763458, 0.24817538261413574, 0.39950138330459595], [0.1504363864660263, 0.11008073389530182, -0.2230801284313202, 0.2079363912343979, 0.3007141053676605, 0.6689478754997253, 0.07393725216388702, 0.09184939414262772, 0.177638977766037, 0.40653523802757263, -0.23946426808834076, 0.278243750333786, 0.22605566680431366, 0.41485220193862915, 0.019240686669945717, 0.3848932683467865], [0.4116693437099457, -0.3668361008167267, 0.39788156747817993, -0.4133091866970062, 0.09768285602331161, -0.28493937849998474, 0.14749813079833984, 0.16888830065727234, -0.14935849606990814, 0.22190293669700623, 0.18773508071899414, -0.48527780175209045, -0.6398961544036865, -0.6198685169219971, 0.30434349179267883, -0.08928687870502472], [0.31310826539993286, -0.18608051538467407, 0.5949435830116272, -0.1756347417831421, 0.2731491029262543, -0.3032251298427582, 0.15695634484291077, -0.2388940453529358, -0.4624679386615753, 0.07371877878904343, 0.16649401187896729, -0.28307414054870605, -0.4571414291858673, -0.15153780579566956, 0.15224985778331757, -0.06877188384532928], [0.28073108196258545, -0.8222688436508179, -0.1290130466222763, -1.1048988103866577, -0.4854050874710083, -0.721342921257019, 0.5102634429931641, 0.23303362727165222, -1.0916728973388672, 0.2397630512714386, -0.6694847345352173, -0.7170045375823975, -0.9108437895774841, -0.382231742143631, 0.5912164449691772, -0.4006062150001526], [-0.17184457182884216, 0.3514697253704071, -0.31716153025627136, 0.2751399576663971, 0.4065752327442169, 0.7711283564567566, 0.28308749198913574, 0.25666990876197815, 0.4774700403213501, -0.001165359397418797, -0.25833919644355774, 0.5354295372962952, 0.5249554514884949, 0.28889167308807373, -0.26761093735694885, 0.33941394090652466], [-0.06186721846461296, 0.6105799674987793, -0.4161738157272339, 0.13281574845314026, 0.19470326602458954, 0.3639906346797943, 0.006174040958285332, 0.2516482174396515, 0.6847867369651794, 0.1985449641942978, 0.016198789700865746, 0.8315571546554565, 0.3893924951553345, 0.4836173951625824, -0.26324647665023804, 0.14077627658843994], [-0.08314470201730728, 0.4131558835506439, -0.2903073728084564, 0.4389497935771942, 0.20351357758045197, 0.6572325825691223, 0.23656202852725983, 0.25950393080711365, 0.6382495760917664, -0.08517034351825714, -0.11184046417474747, 0.7921366095542908, 0.5845328569412231, 0.5123989582061768, -0.26489317417144775, 0.469054251909256], [-0.07720179855823517, 0.04436127841472626, -0.28677740693092346, 0.04929088428616524, 0.1265670657157898, 0.0446644127368927, -0.09922841936349869, -0.31272828578948975, -0.24524573981761932, 0.1456144005060196, -0.18062937259674072, -0.3934156000614166, -0.05933336541056633, 0.06407478451728821, 0.09533718228340149, -0.14061638712882996], [0.43689247965812683, -0.023487713187932968, -0.061657629907131195, -0.06801646202802658, -0.2829098403453827, -0.009088893420994282, 0.755533754825592, 0.09691042453050613, -0.30499422550201416, 0.4867987632751465, -0.4550034701824188, -0.2890312373638153, 0.13002042472362518, 0.19546949863433838, 0.23061631619930267, -0.2040386199951172], [0.14474351704120636, 0.5488720536231995, 0.017693787813186646, 0.16324888169765472, 0.2646782100200653, 0.2767088711261749, 0.27169662714004517, 0.28617623448371887, 0.49204957485198975, 0.39063796401023865, 0.30677708983421326, 0.30905553698539734, 0.1947273463010788, 0.46879416704177856, -0.10248038172721863, 0.11594653874635696], [0.16739606857299805, 0.1729724109172821, -0.27204805612564087, -0.005260200705379248, -0.25184792280197144, -0.1272021234035492, 0.8400343656539917, 0.15876352787017822, -0.018281472846865654, 0.4016043543815613, -0.32998692989349365, 0.08152176439762115, -0.00968390703201294, 0.271800696849823, 0.3150235414505005, -0.032510820776224136], [-0.12692265212535858, 0.2666650414466858, -0.3350383937358856, 0.06301482766866684, 0.2872866988182068, 0.6499242186546326, 0.15412744879722595, 0.27080631256103516, 0.19957970082759857, 0.2851773798465729, -0.04891316965222359, 0.4676169157028198, 0.47949308156967163, 0.16218020021915436, 0.020402291789650917, 0.3821376860141754], [-0.08584105223417282, 0.6304145455360413, -0.38466811180114746, 0.02545015886425972, 0.36276376247406006, 0.41231870651245117, 0.05153023079037666, 0.2734150290489197, 0.5010268688201904, 0.11532963067293167, -0.2697896659374237, 0.45039963722229004, 0.38056108355522156, 0.43312737345695496, -0.13481126725673676, 0.5225086808204651], [0.19472377002239227, 0.18513278663158417, 0.8682724237442017, 0.6297503113746643, 0.5480186343193054, 0.10763911157846451, -0.27184638381004333, 0.01518328208476305, 0.13763980567455292, -0.10336324572563171, 0.5891833305358887, 0.19931337237358093, 0.42480236291885376, 0.09392830729484558, 0.048493675887584686, -8.770931890467182e-05], [0.1085653230547905, 0.5766458511352539, 0.45644640922546387, 0.6648567914962769, 0.637140691280365, 0.24673594534397125, 0.03749071806669235, 0.4501461684703827, 0.6525571942329407, 0.07684823870658875, 0.3188554346561432, 0.20967496931552887, 0.46482032537460327, 0.554221510887146, 0.29017528891563416, 0.0836440920829773]], "fc2.bias": [0.14796540141105652, -0.13914115726947784, 0.4509972333908081, 0.1045786514878273, 0.020821183919906616, -0.08643165230751038, 0.10399153083562851, 0.018587656319141388, 0.04429572448134422, 0.18936708569526672, 0.40015289187431335, 0.04490238428115845, 0.15437021851539612, 0.042158085852861404, 0.3545776903629303, 0.3749714493751526], "fc3.weight": [[0.2688600420951843, -0.06527969986200333, 0.6766130328178406, 0.24882584810256958, 0.4914304316043854, -0.460748553276062, -0.29278379678726196, -0.5220974683761597, 0.12398479878902435, 0.43668317794799805, 0.5104944109916687, 0.6268567442893982, -0.01258024200797081, 0.05530383065342903, -0.3179108798503876, 0.4746094346046448], [0.20431165397167206, 0.32419294118881226, 0.02639460191130638, -0.36043262481689453, -0.5714734792709351, 0.9596527814865112, 0.8620504140853882, 0.9061511158943176, 0.09040795266628265, -0.1267901062965393, 0.2480148822069168, -0.010212576948106289, 0.3258165121078491, 0.482827752828598, 0.23835597932338715, 0.37553471326828003], [0.2292334884405136, 0.4945840537548065, 0.06065528467297554, -0.05790012702345848, -0.6497994065284729, 0.9939190149307251, 0.6013960242271423, 1.028061866760254, -0.3961832821369171, -0.33749762177467346, 0.4757930040359497, 0.016320690512657166, 0.39266905188560486, 0.5500156283378601, 0.6810025572776794, 0.4771040976047516], [-0.08157621324062347, 0.39529114961624146, -0.14310143887996674, -0.4194128215312958, -0.0700729712843895, 0.48761600255966187, 0.06823580712080002, 0.23123548924922943, -0.18420332670211792, 0.4773435890674591, 0.1911083310842514, 0.47600144147872925, 0.44304490089416504, 0.18543340265750885, -0.5381465554237366, -0.008414515294134617], [0.10934296995401382, -0.19821324944496155, 0.40248286724090576, 0.5419713258743286, -0.18492360413074493, 0.08198947459459305, 0.04908735305070877, 0.09971071034669876, -0.053331561386585236, -0.39272600412368774, 0.09973470866680145, -0.6172400712966919, 0.05518801882863045, -0.023256080225110054, 0.44705548882484436, 0.29821792244911194], [0.05891958996653557, 0.4494781196117401, 0.1828429102897644, 0.2326868325471878, 0.6117783784866333, 0.08968637883663177, -0.22984030842781067, -0.2685917317867279, 0.1366739124059677, 0.6258133053779602, 0.25175729393959045, 0.535084068775177, 0.23744362592697144, 0.022476311773061752, -0.3900485932826996, 0.06938620656728745], [-0.08537556976079941, 0.45779919624328613, 0.020585205405950546, 0.11989159882068634, 0.7738480567932129, -0.10327880084514618, 0.10187596082687378, 0.24285997450351715, -0.10305926948785782, 0.6647439002990723, -0.0018006248865276575, 0.6297577619552612, 0.16284434497356415, 0.038643814623355865, -0.30654671788215637, -0.092216856777668], [0.3117378354072571, 0.5018916726112366, -0.3917279839515686, -0.31869444251060486, -0.5761217474937439, 0.6555667519569397, 0.4143645465373993, 0.600904643535614, -0.07156252861022949, 0.10122863203287125, 0.2461126446723938, 0.34541669487953186, 0.14022700488567352, 0.6066741943359375, -0.17562329769134521, -0.0016096994513645768]], "fc3.bias": [0.22019720077514648, 0.2232215255498886, 0.3243902921676636, 0.07262888550758362, 0.5026650428771973, 0.2823846638202667, 0.26619207859039307, -0.07261405885219574], "fc4.weight": [[0.10293050110340118, 0.17441853880882263, 0.32863056659698486, -0.7685948610305786, 0.49810436367988586, -0.42236077785491943, -0.3923170566558838, 0.025395147502422333], [-0.048678331077098846, 0.2818639278411865, 0.07182623445987701, 0.43252530694007874, -0.6153548359870911, 0.16190320253372192, 0.35493966937065125, 0.8327116966247559], [0.5142304301261902, -1.0592591762542725, -0.921877384185791, -0.04028787836432457, -0.8908684849739075, 0.5580724477767944, 0.5362415313720703, -1.095071792602539], [-0.8605477809906006, -0.22732968628406525, -0.8313981294631958, 0.06936963647603989, -0.3672511875629425, -0.5244719982147217, -0.3374207615852356, -0.47225889563560486], [-0.8721044063568115, -0.522163987159729, -0.7545440196990967, -0.057149481028318405, -0.4043600559234619, -0.411185085773468, -0.2431357204914093, -0.03129987418651581]], "fc4.bias": [0.33726778626441956, -0.014499349519610405, -0.22861769795417786, -0.3460755944252014, -0.47087806463241577]}