{"fc1.weight": [[-0.31943169236183167, -0.2981880307197571, 0.1047474592924118, -0.3026682138442993, -0.030985018238425255, -0.275779664516449, -0.2747892737388611, 0.25227639079093933, -0.49268463253974915], [0.23059077560901642, 0.31794264912605286, -0.23822523653507233, 0.02023710496723652, 0.44058865308761597, -0.3881996273994446, 0.4137713611125946, 0.2614867389202118, 0.308211088180542], [0.2791588306427002, 0.28964963555336, -0.24638968706130981, -0.030020881444215775, 0.041123371571302414, 0.009240088053047657, 0.554220974445343, 0.24720002710819244, -0.42406582832336426], [-0.0267369095236063, 0.29104694724082947, -0.5073809027671814, -0.015134740620851517, 0.08420915901660919, 0.20205238461494446, -0.022405141964554787, 0.10865186154842377, -0.24064967036247253], [-0.28098514676094055, -0.08409357815980911, 0.060571443289518356, -0.4112795889377594, -0.47322574257850647, -0.5880873203277588, -0.34637391567230225, -0.572180986404419, 0.3430028259754181], [-0.19333365559577942, 0.28427180647850037, 0.5340397357940674, 0.13510897755622864, -0.34413495659828186, 0.411820650100708, 0.09487201273441315, -0.37720707058906555, 0.21428972482681274], [-0.30602025985717773, 0.42928346991539, -0.4936106204986572, 0.0472799614071846, 0.18066413700580597, 0.03848138824105263, 0.20460692048072815, 0.26731640100479126, -0.2904958128929138], [-0.023118022829294205, -0.5942692756652832, -0.7713049054145813, -0.35992634296417236, 0.11397282779216766, 0.13689254224300385, -0.2145228385925293, -0.4381702244281769, -0.15581271052360535], [0.5692397952079773, -0.6991955637931824, 0.16664455831050873, 0.05890898033976555, 0.09234082698822021, 0.38150927424430847, 0.10798221826553345, -0.02358860895037651, 0.2848191559314728], [-0.10216488689184189, 0.17880938947200775, -0.6401922106742859, -0.03812361881136894, -0.19949781894683838, 0.136386439204216, -0.5353213548660278, -0.17394015192985535, -0.21528416872024536], [-0.12073216587305069, -0.8696746826171875, -0.19046321511268616, -0.13330210745334625, -0.04299768805503845, -0.2353052943944931, 0.09432539343833923, 0.37043681740760803, -0.17339028418064117], [0.13472259044647217, 0.7017889618873596, -0.10820713639259338, -0.03965974971652031, 0.1769382655620575, 0.10110531747341156, -0.37636449933052063, -0.13881689310073853, -0.3031897246837616], [-0.24353459477424622, 0.4434491693973541, -0.29936766624450684, 0.018840238451957703, -0.07630833983421326, -0.14177927374839783, -0.3181648254394531, -0.007855663076043129, -0.6035358905792236], [-0.36836498975753784, 0.3223171532154083, -0.13000531494617462, 0.028529424220323563, -0.014840703457593918, 0.10292641818523407, 0.015092496760189533, 0.34521207213401794, -0.4773329198360443], [0.11480624228715897, -0.3705176115036011, 0.2545824348926544, 0.026494067162275314, 0.2754608392715454, 0.3827831447124481, 0.2384815514087677, 0.2666504979133606, -0.4831089675426483], [0.5439592003822327, 0.739082396030426, 0.10664496570825577, 0.30606961250305176, -0.11306816339492798, -0.02748838998377323, -0.38961413502693176, -0.20661385357379913, -0.21081213653087616]], "fc1.bias": [0.7851520776748657, 0.48926618695259094, -0.10075853765010834, 0.2461799681186676, 0.4414023756980896, 0.195462167263031, 0.43848273158073425, 0.564094603061676, 0.3943767249584198, 0.06660545617341995, 0.2212022840976715, 0.2613082230091095, 0.4847797155380249, 0.511316180229187, 0.014210497960448265, 0.14293749630451202], "fc2.weight": [[0.23822839558124542, -0.10226256400346756, 0.28208082914352417, 0.3557001054286957, -0.13873295485973358, -0.1643431931734085, 0.3155525326728821, 0.2962398827075958, -0.11715898662805557, 0.2621605098247528, -0.05278541520237923, 0.18655402958393097, 0.3534085154533386, 0.07954913377761841, -0.07903192192316055, -0.2938635051250458], [0.14267191290855408, -0.04269694164395332, -0.29204869270324707, -0.060076579451560974, -0.31987008452415466, -0.008016294799745083, -0.09141400456428528, -0.042142800986766815, -0.07169469445943832, -0.045484475791454315, -0.21083199977874756, -0.5670592188835144, -0.15122699737548828, 0.0010392513358965516, -0.17647528648376465, -0.33306559920310974], [0.009496131911873817, 0.20417924225330353, 0.3277217149734497, -0.10701321065425873, 0.35891538858413696, 0.14633743464946747, 0.05024078115820885, -0.2727092504501343, 0.07018490135669708, 0.024485129863023758, 0.029730957001447678, 0.4918409287929535, -0.1412339061498642, -0.25044769048690796, -0.10186335444450378, 0.20150645077228546], [0.19898799061775208, 0.1502954065799713, -0.24493588507175446, -0.29789629578590393, 0.5244050621986389, 0.6218691468238831, -0.39492934942245483, 0.02793084643781185, 0.46347734332084656, -0.2109367698431015, 0.4386986792087555, -0.4726077616214752, 0.09070403128862381, -0.04125309735536575, 0.02710660547018051, -0.03714461624622345], [0.47589969635009766, -0.012305048294365406, 0.25711581110954285, 0.0907200276851654, 0.36056575179100037, -0.049505602568387985, 0.16418863832950592, 0.5117763876914978, -0.05173034220933914, 0.31690117716789246, 0.276650071144104, -0.24613894522190094, 0.2309548407793045, -0.02343646250665188, -0.014035551808774471, -0.3051551878452301], [-0.1357264667749405, 0.45513272285461426, 0.2541292905807495, 0.09517666697502136, 0.1687142550945282, 0.19030871987342834, -0.31727340817451477, -0.009621729142963886, 0.293510377407074, -0.2497292459011078, -0.06465823948383331, 0.2892371118068695, -0.16158528625965118, -0.19897973537445068, 0.08545231819152832, 0.6918478608131409], [0.14260485768318176, 0.039759427309036255, -0.022614736109972, -0.2993831932544708, 0.46009138226509094, 0.5066605806350708, -0.2856501340866089, 0.33485132455825806, 0.4936855435371399, -0.008028902113437653, 0.266632616519928, -0.4749901294708252, -0.22630588710308075, -0.2135239839553833, 0.16472987830638885, -0.27225762605667114], [0.39207831025123596, 0.07010430842638016, 0.0503099299967289, 0.16109812259674072, -0.010106275789439678, 0.40729957818984985, 0.4736785292625427, 0.41181984543800354, 0.37849482893943787, 0.20661002397537231, 0.10756607353687286, 0.06292884796857834, 0.4162701368331909, 0.5706647038459778, 0.1830352246761322, -0.2984658181667328], [-0.25681814551353455, 0.1257721185684204, 0.3200235068798065, -0.13738510012626648, 0.23683017492294312, 0.3335402011871338, 0.28839680552482605, -0.5877942442893982, 0.06732454895973206, 0.11656250804662704, -0.4494900405406952, 0.594659686088562, -0.018134551122784615, 0.016899684444069862, -0.19834020733833313, 0.5601057410240173], [0.44622600078582764, 0.40675708651542664, 0.19959990680217743, 0.20579974353313446, 0.4076506793498993, -0.36526623368263245, 0.3271237313747406, 0.34654006361961365, -0.081827312707901, 0.5692899227142334, 0.3891775906085968, -0.03191986680030823, 0.4240119755268097, 0.3615551292896271, 0.35016655921936035, -0.13016772270202637], [0.08837446570396423, -0.06740504503250122, 0.05805027112364769, -0.061078865081071854, 0.44598129391670227, 0.05858321115374565, -0.23965094983577728, 0.5314821004867554, 0.550432562828064, -0.08643382042646408, 0.5160204768180847, -0.6363832950592041, -0.25393131375312805, -0.2078714668750763, 0.016078053042292595, -0.284775048494339], [-0.36501389741897583, 0.27574726939201355, 0.35852187871932983, -0.10252122581005096, -0.09914922714233398, -0.21659697592258453, 0.28531256318092346, -0.45714518427848816, 0.14948904514312744, 0.0047318581491708755, -0.3562720715999603, 0.6016796231269836, 0.22011198103427887, -0.28735458850860596, 0.08646086603403091, 0.2098298966884613], [-0.1257581114768982, -0.08753344416618347, 0.018498903140425682, -0.08986358344554901, -0.12233354151248932, -0.11248619854450226, -0.07858837395906448, 0.02586154080927372, 0.06005159765481949, 0.00775159103795886, 0.13373273611068726, -0.11449724435806274, 0.22281546890735626, -0.04967537894845009, -0.07210673391819, -0.42714276909828186], [0.21915078163146973, 0.21485763788223267, 0.18219080567359924, 0.5305784940719604, 0.09966902434825897, -0.22642728686332703, 0.3155469000339508, 0.3322291374206543, -0.24646863341331482, 0.33922234177589417, 0.36006954312324524, 0.22462743520736694, 0.21000702679157257, 0.43198296427726746, 0.15682940185070038, -0.24962569773197174], [0.11849930137395859, 0.007624553982168436, -0.045295849442481995, -0.1110595241189003, 0.37576016783714294, 0.3050081133842468, -0.20999638736248016, 0.33704674243927, 0.3888385593891144, 0.01975048892199993, 0.357352614402771, -0.27625879645347595, -0.2536886930465698, -0.1098446398973465, 0.2585357129573822, -0.29891064763069153], [0.3384994566440582, 0.2831740379333496, -0.30817022919654846, -0.34328901767730713, 0.12579934298992157, 0.2907424867153168, 0.00986326765269041, 0.46368297934532166, 0.26490724086761475, -0.2120981216430664, 0.39008909463882446, -0.33314743638038635, 0.0371759869158268, -0.40535154938697815, 0.14735345542430878, -0.25135719776153564]], "fc2.bias": [0.12291332334280014, -0.010398894548416138, -0.12674319744110107, 0.1530517190694809, 0.33342498540878296, 0.0017830102005973458, 0.2745305895805359, 0.2078002542257309, -0.13494867086410522, 0.10389444231987, 0.16565373539924622, 0.05937110260128975, -0.22603780031204224, 0.38596969842910767, 0.032027989625930786, -0.10942170023918152], "fc3.weight": [[0.38455939292907715, 0.0348280631005764, -0.009140213020145893, -0.3495132029056549, 0.02316608466207981, -0.36554306745529175, -0.5241782665252686, 0.13706360757350922, -0.11162030696868896, -0.02811538428068161, -0.48778069019317627, -0.32724177837371826, -0.051645733416080475, 0.43655678629875183, -0.22667665779590607, -0.5722733736038208], [-0.09469331800937653, -0.5731146931648254, 0.1872379183769226, 0.1791486144065857, -0.07253140956163406, 0.4312673509120941, -0.005018285010010004, -0.16963036358356476, 0.2839854061603546, -0.10016288608312607, -0.09701240807771683, 0.40586429834365845, -0.22502240538597107, -0.1748090535402298, -0.10722382366657257, -0.4303295612335205], [-0.31327006220817566, -0.006893453653901815, 0.5453325510025024, 0.503508448600769, 0.03509342670440674, 0.8311467170715332, 0.5236276388168335, 0.08472353219985962, 0.5663182139396667, 0.16727755963802338, 0.2776070237159729, 0.4391813278198242, -0.3543638288974762, -0.15574847161769867, 0.25674477219581604, 0.5766099691390991], [-0.19132672250270844, -0.1815238744020462, 0.6431513428688049, 0.6896072030067444, 0.16007311642169952, 0.7266467809677124, 0.716687023639679, 0.2078818529844284, 0.6188585758209229, -0.12630245089530945, 0.70365971326828, 0.7389326095581055, -0.01948360726237297, -0.09231635183095932, 0.6937024593353271, 0.4778827428817749], [0.2836695909500122, -0.19090409576892853, -0.22143490612506866, -0.6331055164337158, 0.13034288585186005, -0.602200984954834, -0.5727590322494507, 0.30518487095832825, -0.467684805393219, 0.502314567565918, -0.7092211246490479, -0.39032605290412903, -0.028710613027215004, 0.3800327479839325, -0.5020670294761658, -0.6017690896987915], [-0.09827861189842224, -0.1527176946401596, -0.11400095373392105, -0.2794649302959442, 0.2216348648071289, -0.13232071697711945, -0.004972455557435751, -0.08919912576675415, 0.014130143448710442, -0.21244816482067108, -0.09574329107999802, 0.05521759018301964, 0.20436248183250427, 0.13022200763225555, 0.056540850549936295, -0.01662445068359375], [0.06627919524908066, -0.01820792630314827, -0.18956777453422546, 0.4263307452201843, 0.393094003200531, -0.09483715891838074, 0.1977517008781433, 0.23745261132717133, -0.2572568953037262, 0.11132641136646271, 0.5920166373252869, -0.37417542934417725, -0.10941420495510101, 0.36160051822662354, 0.4976477324962616, 0.27740922570228577], [0.31029534339904785, -0.22107037901878357, -0.3137245178222656, 0.4226156175136566, 0.3780544400215149, -0.22400744259357452, 0.5121464133262634, 0.2849559783935547, -0.19628940522670746, 0.5227200984954834, 0.42711004614830017, -0.5513717532157898, 0.0437781848013401, 0.31901443004608154, 0.13122181594371796, 0.4505957365036011]], "fc3.bias": [0.36500871181488037, -0.10944771766662598, 0.18324871361255646, 0.12349247187376022, 0.3568616807460785, -0.012032810598611832, 0.2091742902994156, 0.06573370099067688], "fc4.weight": [[-0.605832040309906, 0.190382182598114, 0.007946454919874668, -0.3427900969982147, -0.11398842930793762, -0.23925571143627167, -0.682411789894104, -0.389839768409729], [-0.740323007106781, -0.5678827166557312, 0.3457444906234741, 0.3098008334636688, -0.5700618624687195, -0.2264145165681839, 0.6418498754501343, 0.6141546964645386], [0.488111674785614, -0.35925498604774475, -0.7883284091949463, -0.6376166343688965, 0.77158522605896, -0.09467988461256027, 0.07389955967664719, 0.45499685406684875], [-0.2802618741989136, 0.770329475402832, 0.563981831073761, 0.3190639913082123, -0.3186332583427429, -0.26970037817955017, -0.28876933455467224, -0.14965590834617615], [-0.044764790683984756, -0.23339760303497314, -0.6264960765838623, -0.43790510296821594, -0.4538246691226959, 0.2696222960948944, -0.36826616525650024, -0.6352237462997437]], "fc4.bias": [-0.41908904910087585, -0.303341269493103, 0.27797549962997437, 0.01972983404994011, 0.17697910964488983]}