{"fc1.weight": [[-0.11001384258270264, -0.12711367011070251, -0.021057922393083572, -0.3999166786670685, -0.326067715883255, 0.5067105293273926, 0.2622295320034027, -0.380635529756546, -0.08936124294996262], [0.05310652777552605, -0.6242461800575256, -0.16477511823177338, -0.1056540459394455, -0.25847330689430237, -0.047117192298173904, -0.4333645701408386, 0.3874187171459198, 0.08092012256383896], [-0.08269348740577698, 0.0044872392900288105, 0.4180208742618561, -0.21821247041225433, -0.09710069745779037, -0.24671177566051483, 0.27480587363243103, -0.10192505270242691, -0.4404435157775879], [-0.15313135087490082, -0.15408110618591309, 0.5633581876754761, -0.15933185815811157, 0.024300748482346535, 0.31991368532180786, 0.008380762301385403, -0.37382423877716064, -0.21695882081985474], [-0.07765385508537292, 0.1653597503900528, -0.08479232341051102, 0.047714658081531525, -0.23606371879577637, -0.22556842863559723, 0.3186102509498596, -0.09266482293605804, -0.0959627628326416], [-0.25150197744369507, -0.30942586064338684, -0.03740987926721573, 0.23245662450790405, 0.22624772787094116, 0.49884429574012756, -0.004291590303182602, 0.10055691748857498, -0.133400559425354], [-0.2684205174446106, 0.4877203404903412, 0.6691696643829346, 0.2691325843334198, -0.15447057783603668, 0.130609929561615, -0.16810709238052368, 0.2769843339920044, 0.03020269237458706], [-0.25732946395874023, 0.49192890524864197, 0.06838764995336533, 0.08238674700260162, -0.10220316052436829, -0.053040340542793274, -0.36600130796432495, -0.4816766381263733, 0.17433355748653412], [0.16531948745250702, 0.5878338813781738, -0.4385422170162201, 0.14656154811382294, 0.0415143147110939, -0.21237370371818542, 0.3770829737186432, 0.24001441895961761, 0.2375658005475998], [-0.21356365084648132, 0.2745138704776764, 0.1045307070016861, -0.24332913756370544, -0.031471628695726395, 0.1823427975177765, -0.03832434117794037, -0.02330179139971733, 0.3631419539451599], [0.03419264778494835, -0.7285343408584595, 0.042926445603370667, -0.10117212682962418, 0.29606857895851135, 0.007121640257537365, -0.06177134811878204, 0.37926986813545227, -0.04761752858757973], [0.5033571124076843, 0.4583260715007782, -0.3104969561100006, 0.03749888762831688, 0.1670423150062561, 0.1603820025920868, -0.14962568879127502, -0.2675880491733551, 0.22456233203411102], [-0.10208098590373993, -0.22566670179367065, 0.007604182232171297, -0.16002127528190613, -0.23747433722019196, -0.4310656487941742, -0.3259750306606293, 0.2599254846572876, 0.3122926354408264], [0.16544222831726074, 0.31289973855018616, 0.3116031289100647, 0.021991243585944176, 0.2543657720088959, 0.0005474351928569376, -0.14611254632472992, -0.01466304063796997, 0.176252543926239], [-0.09117656946182251, 0.4603476822376251, 0.34664684534072876, 0.2146851271390915, -0.07045861333608627, -0.19120213389396667, -0.37729987502098083, -0.10318384319543839, 0.19988302886486053], [-0.12936918437480927, -0.4188484847545624, -0.23654527962207794, 0.3428575098514557, 0.05602533742785454, 0.293947696685791, -0.28059494495391846, -0.19985651969909668, 0.5109588503837585]], "fc1.bias": [0.20335125923156738, 0.27910926938056946, 0.4694255590438843, 0.17905142903327942, 0.3732459247112274, -0.13419166207313538, 0.3435884118080139, 0.40808308124542236, -0.007720642257481813, 0.07651771605014801, 0.28738081455230713, 0.037082307040691376, 0.6561277508735657, 0.19030766189098358, 0.2662998139858246, 0.35288509726524353], "fc2.weight": [[-0.30646926164627075, 0.45313313603401184, 0.16914674639701843, -0.4476946294307709, -0.13224175572395325, 0.04812286049127579, 0.23718972504138947, -0.313524454832077, -0.4492165446281433, 0.16088904440402985, 0.04063285142183304, -0.4146151542663574, 0.46740639209747314, 0.10375478118658066, -0.05690256878733635, 0.11217977106571198], [0.13304777443408966, 0.5255686044692993, 0.16323547065258026, -0.17001770436763763, 0.21858948469161987, 0.5051110982894897, 0.3365195393562317, 0.10301882773637772, -0.1344195306301117, 0.18795669078826904, 0.5583645105361938, -0.22283805906772614, 0.5691893100738525, 0.2774185538291931, 0.14169542491436005, 0.2741123139858246], [0.22407497465610504, 0.0481148399412632, 0.25523674488067627, 0.5230669975280762, 0.18040011823177338, -0.10659197717905045, -0.09832243621349335, 0.3713225722312927, 0.11432339251041412, -0.06818108260631561, -0.1532585173845291, 0.4764409363269806, -0.0448017381131649, -0.03367287665605545, -0.0004948342684656382, -0.0067606354132294655], [0.09062273800373077, -0.22954688966274261, -0.07390259951353073, -0.06002611294388771, -0.12048424780368805, -0.17809681594371796, -0.2143518626689911, 0.15257056057453156, -0.14133647084236145, -0.1837453991174698, 0.026078788563609123, 0.2008027732372284, -0.04834626615047455, -0.2946329712867737, -0.13388819992542267, -0.25607118010520935], [0.06106051057577133, -0.05558701977133751, 0.2906683087348938, 0.08811108022928238, 0.2381780445575714, -0.03971601277589798, 0.059917863458395004, 0.2479875534772873, 0.20171698927879333, 0.2501526474952698, -0.08066408336162567, 0.34273990988731384, 0.15179353952407837, 0.08715667575597763, 0.2548743784427643, 0.25984129309654236], [0.5467972159385681, -0.19502423703670502, 0.20872282981872559, 0.6439123153686523, -0.006496801972389221, 0.40813902020454407, -0.12298111617565155, 0.018227601423859596, 0.45294666290283203, -0.03333667293190956, -0.022293411195278168, 0.20150040090084076, 0.1304779201745987, 0.20289891958236694, -0.1052350252866745, 0.10403622686862946], [0.01858357898890972, 0.42445671558380127, -0.12176549434661865, -0.16450625658035278, -0.18660588562488556, 0.26539739966392517, 0.13074207305908203, 0.10059580951929092, 0.11981624364852905, 0.21292701363563538, 0.3376869261264801, 0.08351604640483856, 0.13903173804283142, -0.13163772225379944, -0.2050761580467224, 0.1580265611410141], [0.3348483443260193, 0.33385223150253296, -0.1261962205171585, 0.4304410517215729, 0.02404133602976799, 0.3950020968914032, -0.117349773645401, -0.20683304965496063, 0.42965057492256165, -0.22318236529827118, 0.39486727118492126, 0.4503938555717468, -0.061183590441942215, 0.15305428206920624, -0.10376204550266266, 0.007518113125115633], [-0.23547546565532684, 0.37029966711997986, -0.024083957076072693, 0.17468100786209106, -0.11604945361614227, 0.37527647614479065, -0.06069377437233925, -0.37991756200790405, -0.17042119801044464, -0.07737422734498978, 0.08994972705841064, -0.03733783960342407, -0.042418379336595535, -0.22529201209545135, -0.2691345512866974, 0.4834265410900116], [0.2442442774772644, -0.0522695854306221, 0.2339196503162384, 0.11109595000743866, 0.3097698986530304, 0.052510812878608704, 0.33773431181907654, 0.42623695731163025, -0.008413157425820827, 0.2449808120727539, -0.026382792741060257, 0.24558556079864502, 0.07560732960700989, 0.2956083416938782, 0.37062036991119385, -0.2415807992219925], [-0.016598276793956757, 0.02439011074602604, -0.0184444822371006, 0.2550281286239624, 0.23798546195030212, -0.06076208874583244, 0.16402345895767212, 0.19163931906223297, 0.3332746922969818, 0.28572985529899597, -0.015710027888417244, 0.21400439739227295, -0.20472557842731476, 0.03580080345273018, 0.174920916557312, -0.02088935114443302], [0.03063831478357315, 0.3830241560935974, -0.04138464108109474, -0.16822947561740875, 0.08711668848991394, -0.11362279206514359, 0.09983803331851959, -0.01829744689166546, -0.36404934525489807, -0.19302137196063995, 0.12077359855175018, -0.26528456807136536, 0.3771092891693115, 0.07552353292703629, -0.16136789321899414, 0.31694096326828003], [0.2887834310531616, -0.1775956004858017, 0.3730708658695221, 0.12404312938451767, 0.3677607476711273, -0.12255433201789856, 0.26862043142318726, -0.0024010955821722746, -0.04386322945356369, 0.06567467749118805, 0.1767343431711197, 0.35660529136657715, 0.1265731304883957, 0.08084729313850403, 0.29849469661712646, -0.18710485100746155], [0.027159646153450012, -0.004492805339396, 0.25437769293785095, 0.4522060751914978, 0.16480660438537598, -0.10686834156513214, 0.2143246829509735, 0.42313727736473083, 0.31979963183403015, -0.10252206027507782, -0.3036876618862152, 0.38423284888267517, 0.10520649701356888, 0.35437527298927307, 0.13111814856529236, -0.11513141542673111], [0.37271514534950256, -0.06550734490156174, 0.018225377425551414, 0.24887888133525848, 0.42348870635032654, -0.12710028886795044, 0.42647236585617065, 0.2322245091199875, 0.4303324520587921, 0.2528744637966156, 0.14141014218330383, 0.059649351984262466, 0.3754730820655823, 0.12089580297470093, 0.3323552906513214, 0.24280939996242523], [0.12424961477518082, 0.18214693665504456, 0.28511765599250793, 0.3169746994972229, 0.2958003282546997, -0.05387900024652481, 0.3118171989917755, 0.03104689158499241, 0.31556960940361023, -0.08322449773550034, -0.24098831415176392, 0.3441513478755951, -0.06915539503097534, 0.18377649784088135, 0.07386347651481628, -0.17715585231781006]], "fc2.bias": [0.24386736750602722, 0.2125740498304367, 0.16091544926166534, 0.027056919410824776, 0.15950345993041992, 0.26787152886390686, 0.06894805282354355, 0.32426804304122925, 0.06605048477649689, -0.032508887350559235, -0.2764880359172821, 0.03410667926073074, 0.3545683026313782, 0.19985711574554443, 0.09500521421432495, 0.18082863092422485], "fc3.weight": [[0.3335362374782562, 0.3455233871936798, 0.12171661108732224, -0.21625839173793793, 0.044612105935811996, 0.2175179421901703, 0.3565349876880646, 0.3397139310836792, 0.474690318107605, -0.33888253569602966, -0.22135616838932037, 0.18665017187595367, 0.06777068227529526, -0.15145738422870636, 0.22097811102867126, 0.0588475726544857], [-0.5000035166740417, -0.19730129837989807, 0.5326703786849976, 0.03563094884157181, 0.3140944540500641, 0.4654991328716278, 0.15635843575000763, 0.42066171765327454, 0.012683553621172905, -0.05429530516266823, 0.2690095603466034, -0.09688042849302292, 0.03783538192510605, 0.40797150135040283, 0.30872857570648193, 0.3842909634113312], [0.5875594019889832, 0.2519892156124115, -0.3239271342754364, 0.05143764987587929, 0.2175547480583191, -0.25910696387290955, 0.19085416197776794, 0.09627953171730042, 0.2559163570404053, 0.24527330696582794, -0.34440624713897705, 0.5094276070594788, 0.16143670678138733, -0.10321687906980515, 0.17808735370635986, -0.02092849835753441], [-0.34206423163414, 0.2708211839199066, 0.5453830361366272, 0.2646951675415039, 0.022366736084222794, 0.5950650572776794, 0.027649937197566032, 0.20783308148384094, -0.247802734375, -0.017552681267261505, 0.3684827983379364, -0.2633132040500641, 0.46316462755203247, -0.0032005622051656246, 0.12795595824718475, 0.32293662428855896], [-0.10687889158725739, 0.06671247631311417, 0.4168866276741028, -0.20332731306552887, 0.22943109273910522, -0.10365471988916397, -0.26001301407814026, -0.19508883357048035, -0.21987690031528473, 0.33888110518455505, 0.21334527432918549, -0.15795423090457916, 0.27162373065948486, 0.48665404319763184, 0.2322790026664734, 0.35686472058296204], [-0.184831902384758, 0.04118305817246437, 0.11495976895093918, -0.2057979553937912, 0.20794977247714996, 0.22491808235645294, -0.16102537512779236, -0.17109183967113495, -0.5000227689743042, 0.33461853861808777, 0.2521393597126007, -0.35569876432418823, 0.19928595423698425, 0.4147859513759613, 0.36348477005958557, 0.5367081761360168], [-0.2360450029373169, -0.2626764476299286, 0.44845297932624817, 0.27103787660598755, 0.20170848071575165, 0.21448753774166107, -0.1001715138554573, 0.218247652053833, -0.15490438044071198, 0.4210939109325409, 0.21778781712055206, -0.3826614022254944, 0.2344309687614441, 0.16896820068359375, 0.1567201018333435, 0.4447532594203949], [-0.5080227255821228, 0.09016942232847214, 0.050823673605918884, -0.15972913801670074, 0.42122358083724976, 0.14654883742332458, -0.04446391388773918, 0.22689585387706757, 0.06405980885028839, 0.0282524973154068, -0.01277682464569807, -0.1143924742937088, 0.12991824746131897, 0.41456910967826843, 0.03089735470712185, 0.344422310590744]], "fc3.bias": [0.31380000710487366, 0.3120134770870209, 0.06605623662471771, 0.30486154556274414, 0.09956416487693787, 0.29206493496894836, 0.0511494018137455, 0.16103681921958923], "fc4.weight": [[0.495043009519577, 0.056473247706890106, -0.022595854476094246, -0.043645620346069336, -0.6389577388763428, -0.5621557831764221, -0.39929577708244324, -0.08756433427333832], [-0.4808085858821869, 0.479325532913208, -0.53923100233078, -0.036082249134778976, 0.2079278528690338, 0.5576294660568237, 0.39273184537887573, 0.3633466958999634], [-0.4507374167442322, 0.04275834932923317, -0.40192556381225586, -0.6886127591133118, -0.23989513516426086, -0.3398551940917969, 0.021631548181176186, -0.1945783942937851], [0.40024662017822266, -0.42114508152008057, 0.4759237766265869, -0.3019590377807617, -0.1371082216501236, 0.31988126039505005, -0.057146262377500534, -0.35884159803390503], [-0.6588884592056274, -0.07256022840738297, -0.3815139830112457, -0.4367808997631073, -0.22289793193340302, -0.28995436429977417, 0.012296986766159534, -0.6228392124176025]], "fc4.bias": [0.29260483384132385, 0.16719229519367218, -0.2633712589740753, -0.2581443786621094, -0.4092230796813965]}