{"fc1.weight": [[-0.1273183375597, -0.8156276345252991, 0.09018564969301224, -0.11090810596942902, 0.03477989882230759, 0.12948159873485565, -0.3044513463973999, 0.14316031336784363, 0.560992956161499], [-0.14854873716831207, -0.39682647585868835, -0.15486402809619904, -0.024213850498199463, -0.14471857249736786, 0.13665488362312317, -0.8726117014884949, 0.12989231944084167, -0.39948174357414246], [0.4606524407863617, 0.23510430753231049, 0.12658730149269104, -0.1695459634065628, -0.1647987961769104, 0.060915976762771606, -0.14177410304546356, 0.4602910578250885, 0.6459468603134155], [-0.5029390454292297, -0.6977739334106445, 0.29416391253471375, 0.019209234043955803, 0.02896941639482975, -0.03571484610438347, -0.19526928663253784, -0.45514756441116333, -0.1410323530435562], [-0.2889443635940552, -0.19121627509593964, 0.22366903722286224, 0.19915771484375, 0.19183072447776794, 0.4495466649532318, -0.08532972633838654, 0.10390497744083405, -0.21768735349178314], [0.18559086322784424, -0.6564415097236633, -0.21845746040344238, -0.20801009237766266, -0.285274475812912, 0.23545266687870026, -0.01276709046214819, 0.26833367347717285, 0.5623717904090881], [0.40819644927978516, 0.05263049528002739, 0.10655169934034348, 0.06027189642190933, -0.015036961995065212, 0.08660722523927689, 0.4561823308467865, 0.6501151323318481, -0.18102394044399261], [0.25686314702033997, -0.49891266226768494, -0.41885414719581604, 0.24552778899669647, -0.0504414439201355, -0.059015560895204544, -0.7185928821563721, 0.3112722635269165, -0.46824994683265686], [-0.2536090016365051, -0.7766273021697998, -0.3503151834011078, -0.09467224776744843, -0.22861668467521667, -0.40923285484313965, -0.21019349992275238, 0.02636714093387127, 0.4949852526187897], [0.6463318467140198, 0.4443364441394806, 0.27231863141059875, 0.006889584474265575, 0.13312497735023499, -0.11283208429813385, -0.45477965474128723, 0.5385874509811401, 0.4703805148601532], [-0.28408852219581604, -0.1794673204421997, -0.3383142054080963, -0.16671660542488098, -0.0024928124621510506, -0.03824663907289505, -0.6118159890174866, 0.2772889733314514, -0.7194375991821289], [-0.1506604254245758, 0.35698652267456055, -0.07114768028259277, -0.30829665064811707, 0.30307871103286743, 0.28748002648353577, -0.4917792081832886, 0.46006232500076294, -0.48711279034614563], [-0.7584018707275391, -0.7353050708770752, -0.20821858942508698, -0.06499790400266647, -0.0005584819591604173, -0.06524205207824707, 0.44891443848609924, 0.35208284854888916, -0.08348832279443741], [-0.4443638026714325, 0.36710038781166077, -0.0482935905456543, 0.12482140213251114, -0.21047425270080566, -0.38984784483909607, -0.35825374722480774, -0.1585404872894287, -0.7907137870788574], [0.8773247003555298, 0.19146031141281128, -0.07487191259860992, -0.013229467906057835, -0.00723416730761528, 0.008157140575349331, -0.47737279534339905, 0.0715816468000412, 0.3573073744773865], [-0.03722129389643669, -0.25314459204673767, 0.04854002967476845, -0.13060244917869568, 0.01649589277803898, 0.06909514218568802, -0.6029140949249268, 0.0791042149066925, -0.42759808897972107]], "fc1.bias": [0.31438472867012024, 0.07463112473487854, 0.10629026591777802, -0.007654985412955284, -0.11805147677659988, 0.47143232822418213, 0.15093640983104706, 0.41575857996940613, 0.05867372080683708, -0.05308748781681061, 0.45232370495796204, 0.4497663378715515, 0.18162797391414642, 0.05060909315943718, -0.18525046110153198, -0.040158022195100784], "fc2.weight": [[0.3019663989543915, 0.5661298632621765, -0.07458053529262543, -0.35332968831062317, -0.09177934378385544, 0.2905418276786804, -0.21245655417442322, 0.3476521074771881, 0.17399367690086365, -0.0511859655380249, 0.48755189776420593, 0.5159355998039246, -0.23118704557418823, -0.04895893856883049, -0.1397625207901001, 0.31688523292541504], [0.5427824854850769, 0.6226218342781067, 0.11139137297868729, 0.0191446952521801, -0.08106105774641037, 0.6544581651687622, 0.2466810941696167, 0.4173664450645447, 0.4362834393978119, 0.04906300827860832, 0.031192943453788757, 0.06612550467252731, -0.009735092520713806, 0.12999799847602844, 0.2867545187473297, 0.4220888912677765], [0.6324535012245178, 0.5720974802970886, 0.2658011317253113, 0.262991338968277, 0.33315202593803406, 0.5941604375839233, 0.4377138912677765, 0.5343759655952454, 0.38874441385269165, 0.31052881479263306, 0.2304069846868515, 0.08402145653963089, 0.009174762293696404, 0.04498274251818657, 0.5763822197914124, 0.2568274736404419], [-0.22071754932403564, -0.24933670461177826, -0.11072558164596558, 0.04066551849246025, -0.21922895312309265, -0.0007176619837991893, -0.08538009226322174, -0.2797764837741852, -0.33167633414268494, 0.04690613970160484, -0.15572918951511383, 0.13957205414772034, -0.1112418845295906, -0.06692847609519958, -0.009134423919022083, 0.017334362491965294], [0.22554484009742737, 0.031162796542048454, 0.31703171133995056, 0.5974545478820801, 0.3287530541419983, 0.17695553600788116, 0.5331229567527771, 0.03785265237092972, 0.13748988509178162, 0.305942177772522, -0.12186332792043686, -0.15059742331504822, 0.6345662474632263, -0.22647663950920105, 0.3160477876663208, 0.0738760381937027], [0.008875925093889236, -0.03424404188990593, 0.13487735390663147, 0.5719830393791199, 0.37450283765792847, 0.02447131834924221, 0.5837721228599548, 0.20783402025699615, 0.3023909628391266, 0.2263721376657486, 0.036716073751449585, -0.14682729542255402, 0.5250502228736877, -0.14245359599590302, 0.6196080446243286, -0.13094045221805573], [-0.3218296468257904, 0.06717518717050552, -0.27225902676582336, -0.33290091156959534, 0.2043934315443039, 0.14155933260917664, -0.0665460079908371, 0.32213690876960754, 0.2807150185108185, -0.013467350043356419, -0.18096540868282318, -0.20324324071407318, -0.2420063018798828, 0.22256335616111755, -0.2578413486480713, 0.12106891721487045], [0.12025012820959091, -0.025524627417325974, 0.2333519011735916, 0.9254065752029419, 0.3637281060218811, 0.026228273287415504, 0.6944923400878906, 0.021255003288388252, 0.012687700800597668, 0.27492842078208923, 0.1935732066631317, 0.14899836480617523, 0.33022966980934143, 0.029795870184898376, 0.10101266950368881, 0.07250329107046127], [0.18735526502132416, -0.11518803238868713, 0.4378783106803894, 0.429919958114624, 0.3791343867778778, 0.04727104678750038, 0.5527962446212769, -0.20434319972991943, 0.42560088634490967, 0.4379698932170868, 0.00575530668720603, 0.13802900910377502, 0.7161355018615723, -0.025733591988682747, 0.6912247538566589, -0.054186441004276276], [0.40685802698135376, 0.35511475801467896, -0.27011969685554504, -0.8406785726547241, 0.00300453114323318, 0.11557641625404358, -0.18114085495471954, 0.5033810138702393, 0.0669194832444191, -0.17935970425605774, 0.5261912941932678, 0.42777958512306213, -0.4888787567615509, 0.2892729341983795, -0.29060259461402893, 0.3603686988353729], [-0.22012963891029358, -0.27968868613243103, -0.33791491389274597, 0.6959766149520874, 0.13726867735385895, -0.23386681079864502, 0.08135721832513809, -0.03250984847545624, 0.019563376903533936, -0.08242874592542648, -0.14453279972076416, 0.5043515563011169, 0.42471733689308167, 0.46093040704727173, -0.2704438269138336, -0.2401951253414154], [0.3075336217880249, -0.0526486299932003, 0.602838397026062, 0.40807804465293884, 0.22574086487293243, 0.3513367772102356, 0.5029364228248596, -0.0072569455951452255, 0.15256503224372864, 0.7261574268341064, -0.11972412467002869, -0.1413588672876358, 0.5886622071266174, 0.0066956025548279285, 0.8049641847610474, 0.12525159120559692], [0.3718150854110718, 0.15763375163078308, 0.23871558904647827, 0.5648047924041748, 0.01748383417725563, 0.2724454402923584, 0.6852353811264038, 0.12927906215190887, 0.08717037737369537, 0.516324520111084, -0.2559968829154968, -0.11408168077468872, 0.4037829339504242, -0.2956323027610779, 0.47800078988075256, -0.06225109100341797], [0.0023889215663075447, -0.46366989612579346, 0.21765613555908203, 0.3072238564491272, -0.16343311965465546, 0.00873379036784172, 0.24847394227981567, -0.3479313552379608, -0.18778225779533386, 0.34960365295410156, -0.4894951283931732, -0.519828736782074, 0.5397857427597046, -0.13510721921920776, 0.5340847373008728, -0.14315378665924072], [0.2444174736738205, 0.26873692870140076, 0.5103744268417358, 0.3546842932701111, 0.007513160351663828, 0.20496653020381927, 0.2424195408821106, 0.13493521511554718, 0.19986233115196228, 0.6636179089546204, -0.11337760090827942, -0.22068306803703308, 0.5151859521865845, -0.3595431447029114, 0.46603134274482727, 0.00853272620588541], [-0.02199852280318737, 0.005489414557814598, 0.04535907506942749, 0.2485339194536209, 0.19886735081672668, 0.09692264348268509, 0.2570068836212158, 0.3126443028450012, 0.3352513015270233, -0.18502432107925415, 0.509773850440979, 0.17534789443016052, -0.05357675999403, 0.3486555218696594, -0.43177133798599243, 0.2505686283111572]], "fc2.bias": [0.27699241042137146, 0.20466963946819305, 0.07775334268808365, -0.38049596548080444, 0.029331553727388382, 0.06081653758883476, 0.10048802196979523, 0.39607366919517517, -0.008834163658320904, 0.232259139418602, 0.202518031001091, -0.0862087681889534, 0.03768535330891609, -0.5567216873168945, -0.07791679352521896, 0.595122218132019], "fc3.weight": [[-0.1809646040201187, 0.14077095687389374, 0.24203185737133026, -0.1749173402786255, 0.5906419157981873, 0.5492609143257141, -0.3747580349445343, 0.479204922914505, 0.6228274703025818, -0.4150228202342987, 0.6648612022399902, 0.7606940269470215, 0.42160266637802124, 0.41009530425071716, 0.746802568435669, 0.22682027518749237], [-0.13948853313922882, 0.15822167694568634, 0.14843186736106873, -0.1807805597782135, 0.5244770646095276, 0.3908592760562897, -0.4434138536453247, 0.05704399570822716, 0.1806228756904602, -0.04194680601358414, -0.2793042063713074, 0.5716952681541443, 0.44542497396469116, 0.26237815618515015, 0.6942824721336365, -0.046222344040870667], [-0.3371926248073578, 0.061486370861530304, 0.2707824409008026, 0.07032460719347, 0.2541213929653168, 0.48319679498672485, 0.09431984275579453, 0.24924099445343018, 0.32011836767196655, -0.5996058583259583, 0.5520845651626587, 0.6483303904533386, 0.6992541551589966, -0.09700486063957214, 0.7967393398284912, 0.29448607563972473], [0.08763712644577026, 0.05252908542752266, 0.2160746306180954, -0.18777987360954285, 0.5073513984680176, 0.21595165133476257, -0.11111123859882355, 0.13059988617897034, 0.3492070138454437, -0.27436065673828125, -0.0992555096745491, 0.7532351016998291, 0.7333823442459106, 0.38296955823898315, 0.7717573046684265, -0.13403092324733734], [0.5159280300140381, 0.2901323139667511, 0.493648886680603, -0.19161224365234375, -0.06251246482133865, 0.22612310945987701, 0.184488907456398, -0.04750245809555054, -0.12549041211605072, 0.6138109564781189, -0.8470227122306824, -0.16903917491436005, -0.00010939250205410644, -0.4150075316429138, 0.2998153865337372, 0.3437231183052063], [0.3471613824367523, -0.15884114801883698, 0.0738295391201973, -0.13915863633155823, -0.08212152123451233, -0.14634621143341064, 0.3791438341140747, 0.3199595510959625, -0.25013890862464905, 0.1124124526977539, 0.6081663966178894, -0.48754069209098816, 0.02768068015575409, -0.16633129119873047, -0.33369407057762146, 0.43441909551620483], [0.6102280616760254, 0.4899097979068756, 0.4074855446815491, -0.5922502279281616, -0.08211290836334229, 0.27547624707221985, 0.17383766174316406, 0.3708063066005707, -0.27970731258392334, 0.49818846583366394, -0.46564459800720215, -0.3000539541244507, -0.1783914417028427, -0.6336649656295776, -0.5356788635253906, 0.5235676169395447], [0.09292098879814148, 0.2556641399860382, 0.2993481159210205, -0.3950602114200592, -0.17861418426036835, -0.34651944041252136, 0.28024211525917053, -0.04453490301966667, -0.5292806029319763, 0.4469907879829407, -0.6108749508857727, -0.06360597908496857, -0.32135874032974243, -0.40850505232810974, -0.5696085691452026, 0.11218789964914322]], "fc3.bias": [0.11678939312696457, -0.27570825815200806, -0.1639285683631897, -0.14570680260658264, 0.0212723221629858, 0.3284553587436676, 0.5738959312438965, -0.012745228596031666], "fc4.weight": [[-0.8928809762001038, -0.6772353053092957, -0.02051849476993084, -0.8327465653419495, -0.7484760880470276, -0.41325798630714417, -0.42601698637008667, -0.4232468605041504], [0.3465802073478699, 0.39854609966278076, 0.35611435770988464, 0.8345099687576294, 0.24105505645275116, -0.7441689372062683, -0.029448622837662697, -0.6120494604110718], [-0.4521917700767517, -0.46330252289772034, -0.9541497826576233, -0.7842887043952942, 0.46106162667274475, 0.11825454980134964, 0.4874967634677887, 0.26085832715034485], [0.39762064814567566, -0.12443244457244873, 0.26405879855155945, 0.05945505574345589, -0.09152334183454514, 0.23230402171611786, 0.21130424737930298, -0.9003933072090149], [-0.9225897789001465, -0.7980578541755676, 0.2227729856967926, -0.43238455057144165, -0.7853009700775146, -0.806391716003418, -0.8523236513137817, 0.2208224982023239]], "fc4.bias": [-0.5551712512969971, -0.16831399500370026, 0.5614532232284546, 0.6034358143806458, -0.14714151620864868]}