{"fc1.weight": [[-0.13054601848125458, -0.11379381269216537, 0.1036888137459755, -0.28580623865127563, -0.44454848766326904, 0.25536879897117615, 0.07877610623836517, 0.06122515723109245, 0.40465760231018066], [-0.334979385137558, -0.014315233565866947, 0.2594175338745117, -0.44702449440956116, -0.06551726907491684, 0.25315210223197937, 0.4253688156604767, -0.3498104512691498, -0.08182623982429504], [-0.1121019795536995, -0.02287711761891842, -0.0017697458388283849, -0.3511519432067871, 0.25443118810653687, -0.16704237461090088, -0.16335707902908325, 0.3848786950111389, 0.044732969254255295], [-0.2762933671474457, 0.08416527509689331, -0.33672088384628296, -0.25359517335891724, -0.0034734364598989487, -0.03430430591106415, -0.4707210659980774, 0.2332647293806076, -0.46716204285621643], [0.2912296652793884, -0.1388382613658905, -0.16007080674171448, 0.22910070419311523, 0.152419775724411, 0.1158401370048523, -0.38331347703933716, 0.14533615112304688, 0.038905806839466095], [0.2626349925994873, 0.08522096276283264, -0.1563654989004135, -0.30439281463623047, -0.31892770528793335, -0.24339047074317932, 0.14090768992900848, 0.2995583415031433, -0.30550044775009155], [0.15775085985660553, 0.2659372389316559, 0.41905519366264343, -0.10317729413509369, -0.03356166183948517, -0.09890644252300262, 0.04035225138068199, 0.0801764577627182, 0.1055782288312912], [0.11115454882383347, 0.026826107874512672, -0.05932481959462166, -0.23650288581848145, -0.3399677276611328, -0.11032906174659729, 0.22023826837539673, -0.07579797506332397, 0.42699748277664185], [0.29260721802711487, 0.14266912639141083, -0.25433704257011414, -0.4574948847293854, -0.13364440202713013, 0.4543653130531311, 0.2377539873123169, 0.01657767780125141, 0.3894300162792206], [0.12048905342817307, 0.23626065254211426, 0.3880341351032257, -0.01019342802464962, 0.3359849452972412, -0.4461040198802948, 0.09343864768743515, 0.11106704920530319, 0.051511019468307495], [-0.14883576333522797, -0.32507219910621643, -0.34139856696128845, 0.07730370759963989, -0.11885532736778259, -0.19045224785804749, -0.021103326231241226, -0.0009517943253740668, 0.40281668305397034], [-0.017371874302625656, 0.07599712163209915, 0.07277899980545044, -0.46892881393432617, -0.07743670046329498, -0.20903737843036652, 0.36606666445732117, -0.08906774967908859, -0.01757189817726612], [0.27552539110183716, -0.3964913785457611, -0.3826475739479065, 0.1388370245695114, 0.16145126521587372, 0.3408988118171692, 0.4573771357536316, -0.3920983672142029, 0.062751404941082], [0.4546566307544708, -0.3793087303638458, -0.08685918152332306, 0.1433907449245453, -0.37873920798301697, -0.11032616347074509, -0.2609153687953949, 0.2858153283596039, -0.10217228531837463], [0.3050318956375122, -0.061251748353242874, -0.35174232721328735, -0.2400888353586197, 0.024621058255434036, 0.16636447608470917, -0.27738428115844727, -0.3130485713481903, -0.47574546933174133], [0.18581411242485046, -0.40669578313827515, -0.27630385756492615, -0.1128927618265152, -0.03363002464175224, -0.3580048680305481, 0.21333283185958862, -0.1416362226009369, 0.4951091408729553]], "fc1.bias": [0.0468580462038517, -0.0375814363360405, 0.2903510630130768, -0.1375105381011963, 0.3315132260322571, 0.3486998677253723, -0.20788760483264923, 0.31848403811454773, 0.167110875248909, -0.1623292863368988, 0.23005037009716034, 0.3163992464542389, 0.33027124404907227, 0.1670551896095276, 0.4590231776237488, 0.11669588088989258], "fc2.weight": [[-0.12279047071933746, 0.06342166662216187, 0.06305429339408875, -0.3949618935585022, -0.33263546228408813, -0.03379989042878151, -0.0883745402097702, -0.1381635218858719, -0.15904872119426727, 0.1603780835866928, -0.19836683571338654, -0.2906535863876343, -0.2846333384513855, -0.3727123737335205, -0.07115741819143295, 0.02000664360821247], [0.019970908761024475, 0.147182434797287, 0.28179892897605896, 0.026444077491760254, -0.12638835608959198, -0.08251573145389557, 0.09485745429992676, 0.2582855224609375, -0.0966804251074791, 0.2062600702047348, 0.20905812084674835, 0.008157935924828053, 0.14794038236141205, 0.08526239544153214, 0.2860686480998993, 0.004676590673625469], [0.12869851291179657, -0.06577562540769577, -0.150771364569664, 0.029518216848373413, 0.13110817968845367, -0.29150906205177307, -0.13133472204208374, -0.18267709016799927, 0.08636896312236786, 0.026987764984369278, 0.09754376858472824, 0.1380213499069214, -0.3171825110912323, 0.1554575115442276, 0.09614203125238419, -0.17853347957134247], [0.20061922073364258, 0.25661835074424744, -0.05949797481298447, 0.022669333964586258, 0.03974081203341484, 0.15290383994579315, 0.021108504384756088, 0.24693883955478668, 0.2989688813686371, -0.26511868834495544, 0.10891086608171463, 0.1810922920703888, 0.4001328945159912, 0.34344255924224854, -0.04879271984100342, 0.11367122083902359], [-0.022654158994555473, 0.30888602137565613, 0.13260215520858765, -0.05067112669348717, 0.3378659188747406, 0.12773169577121735, -0.21223677694797516, 0.0007731611840426922, 0.2573181688785553, -0.010777728632092476, 0.0566827654838562, 0.12403436750173569, 0.3067994713783264, 0.42480432987213135, 0.37080448865890503, -0.009376722387969494], [-0.26693853735923767, 0.20484444499015808, 0.22603099048137665, -0.026921333745121956, -0.04155440628528595, 0.182003915309906, 0.04461494833230972, -0.20567478239536285, -0.18731433153152466, 0.18650411069393158, 0.12613336741924286, 0.11937133967876434, 0.015617330558598042, 0.09741096198558807, -0.10065305978059769, -0.0758652538061142], [0.10894057899713516, 0.3259495794773102, 0.3163597881793976, 0.13057275116443634, -0.06662525236606598, 0.34860751032829285, -0.15078848600387573, 0.06090179458260536, 0.3564036190509796, -0.17761410772800446, 0.16005149483680725, 0.13925690948963165, 0.22863608598709106, 0.3355993926525116, -0.033409882336854935, 0.0676453560590744], [0.19819733500480652, 0.21110093593597412, 0.030833223834633827, 0.004613227676600218, 0.3395872414112091, -0.039406947791576385, -0.1746564656496048, 0.12026438117027283, 0.366738498210907, 0.04100785776972771, 0.3448924720287323, 0.3397969603538513, 0.13406985998153687, 0.30796706676483154, 0.046755846589803696, 0.40747472643852234], [0.35113218426704407, 0.155704528093338, 0.256510466337204, 0.16703587770462036, 0.2691901922225952, 0.14858458936214447, -0.07327505946159363, 0.15500745177268982, 0.2678508162498474, -0.31371182203292847, 0.159575417637825, -0.008336512371897697, 0.040990591049194336, -0.010425347834825516, 0.2684343159198761, 0.07142779976129532], [0.14271163940429688, -0.04339298978447914, 0.3852926790714264, 0.012902084738016129, 0.0755496695637703, 0.42448586225509644, -0.31285181641578674, 0.24302799999713898, 0.13517776131629944, 0.061128247529268265, 0.27882012724876404, 0.10348283499479294, 0.006664709188044071, -0.0063820527866482735, 0.430204838514328, 0.2391674965620041], [-0.18974916636943817, -0.28422796726226807, 0.1583089977502823, -0.23146860301494598, 0.21736939251422882, 0.24131491780281067, -0.43866485357284546, -0.03285909816622734, -0.22450241446495056, 0.11353348940610886, -0.10283424705266953, -0.08849121630191803, -0.11785417050123215, 0.25589895248413086, -0.0011561897117644548, 0.0825292244553566], [0.11571160703897476, 0.024460427463054657, 0.05794684588909149, 0.050267938524484634, 0.2702658474445343, -0.0017205735202878714, 0.05946863070130348, -0.11886858195066452, 0.20348596572875977, -0.0667133703827858, 0.2189449667930603, -0.12235862016677856, 0.17679855227470398, -0.004645777400583029, 0.1798623502254486, 0.045481983572244644], [0.3635689616203308, 0.387953519821167, -0.012924150563776493, -0.09072858840227127, 0.0602702759206295, 0.14434146881103516, 0.10044408589601517, -0.0865059643983841, -0.017588619142770767, -0.13066820800304413, 0.3151811361312866, 0.376312255859375, 0.16692200303077698, 0.2412918508052826, 0.1894068866968155, 0.3916551470756531], [0.009525217115879059, 0.27810317277908325, 0.35652410984039307, 0.275392085313797, 0.06327574700117111, 0.3647005558013916, -0.11650387197732925, 0.2651708424091339, 0.3799855411052704, 0.015473798848688602, 0.19811156392097473, 0.3635869324207306, 0.30051910877227783, 0.24209456145763397, 0.3902222812175751, 0.3757942020893097], [-0.02810286544263363, -0.22304461896419525, -0.24118103086948395, 0.07579755038022995, -0.11353452503681183, 0.15351296961307526, -0.26067987084388733, -0.23442015051841736, 0.13624662160873413, -0.05433927848935127, -0.20385697484016418, 0.12406300008296967, -0.06917937099933624, -0.10118460655212402, -0.1338079273700714, 0.011244547553360462], [0.3978368043899536, 0.3022000193595886, 0.08019731938838959, 0.18949642777442932, 0.06534437090158463, 0.062100037932395935, -0.10038169473409653, 0.2969384491443634, 0.1035633385181427, -0.1989448070526123, 0.09753681719303131, 0.20932568609714508, 0.35659363865852356, 0.14988157153129578, 0.31088075041770935, 0.0649167001247406]], "fc2.bias": [-0.39267498254776, -0.10547558963298798, -0.31291788816452026, 0.2354714423418045, -0.006533280946314335, -0.015036201104521751, 0.3573158383369446, 0.17520251870155334, 0.27843236923217773, 0.14480902254581451, 0.09199376404285431, 0.05937957018613815, 0.0018337819492444396, -0.027725404128432274, 0.16028636693954468, 0.03694120794534683], "fc3.weight": [[-0.020450405776500702, 0.24603097140789032, 0.07508055120706558, 0.2500057518482208, 0.3294215202331543, 0.24342024326324463, -0.028396805748343468, 0.01879272423684597, -0.03961103409528732, 0.38625815510749817, -0.04294934868812561, 0.0628620833158493, 0.168462336063385, 0.22341948747634888, -0.2173692137002945, 0.29921755194664], [0.21255384385585785, 0.030111195519566536, -0.1435663104057312, -0.20049840211868286, -0.2753585875034332, -0.008129407651722431, 0.05688844621181488, 0.11900070309638977, 0.1508789360523224, -0.30343908071517944, 0.01911148615181446, -0.004000667482614517, -0.25957363843917847, -0.22059649229049683, 0.0005549514316953719, 0.02358626201748848], [-0.001162821426987648, 0.25657230615615845, -0.2766812741756439, 0.12730824947357178, 0.30288994312286377, -0.06384216248989105, 0.1055365651845932, 0.2908773124217987, 0.14081916213035583, 0.16179563105106354, 0.22253790497779846, 0.18806137144565582, 0.24668599665164948, 0.21912099421024323, -0.0021340162493288517, 0.3971933424472809], [-0.36528250575065613, -0.17390212416648865, -0.27863380312919617, 0.31829729676246643, 0.20580816268920898, -0.13083170354366302, 0.42249155044555664, 0.3105109930038452, 0.06261252611875534, 0.10231920331716537, 0.16310632228851318, 0.11948506534099579, 0.42379868030548096, 0.31280067563056946, -0.16553761065006256, 0.44797399640083313], [-0.3076099753379822, 0.0352950319647789, -0.177254319190979, 0.22040632367134094, -0.03327079862356186, 0.21591225266456604, 0.2944164574146271, 0.4135556221008301, 0.3780619502067566, 0.07483140379190445, 0.26599088311195374, 0.19828414916992188, 0.34006989002227783, 0.2446907013654709, -0.03621630743145943, 0.16709350049495697], [-0.14440245926380157, -0.05120110884308815, -0.18569348752498627, -0.044204287230968475, 0.32927295565605164, -0.12934550642967224, 0.3072749376296997, 0.08388485759496689, 0.291561484336853, 0.3890283405780792, -0.15197639167308807, 0.042367760092020035, 0.12432777136564255, 0.215366929769516, 0.043067630380392075, -0.04389305040240288], [-0.1766081154346466, 0.1762763112783432, 0.15808317065238953, 0.03658241406083107, 0.266539067029953, -0.0843166932463646, 0.04820331186056137, 0.22537347674369812, 0.32168474793434143, 0.3321591019630432, -0.1026335060596466, 0.15977053344249725, -0.001510433852672577, 0.2548217177391052, 0.3148723840713501, 0.17195622622966766], [0.2566010653972626, 0.04252656549215317, -0.07104005664587021, 0.013948297128081322, 0.0743328332901001, -0.04877404123544693, -0.02521374076604843, 0.07552728056907654, 0.23998042941093445, 0.0014522435376420617, -0.1769493818283081, 0.20326395332813263, 0.2212885320186615, 0.05404459312558174, 0.03649361431598663, -0.03867302089929581]], "fc3.bias": [0.26925763487815857, -0.024449873715639114, 0.3117603063583374, 0.1311948597431183, -0.02388136275112629, 0.36277443170547485, -0.009716697037220001, 0.18966634571552277], "fc4.weight": [[0.14370568096637726, -0.17151790857315063, -0.12330007553100586, -0.4604272246360779, -0.036720458418130875, -0.043602894991636276, -0.05163278430700302, -0.2185654491186142], [0.23389758169651031, -0.2915067672729492, 0.06752333790063858, 0.47462889552116394, 0.24476951360702515, 0.5025466680526733, 0.3216181993484497, -0.07719666510820389], [-0.511472761631012, 0.11061874777078629, -0.18984517455101013, 0.0010765533661469817, -0.3983515501022339, -0.14760008454322815, -0.08522506803274155, -0.33367785811424255], [0.18689404428005219, 0.16629864275455475, -0.4448874294757843, -0.313846230506897, -0.3700147271156311, -0.26535722613334656, -0.38884100317955017, 0.047891248017549515], [-0.1276695430278778, -0.14842402935028076, 0.05195307359099388, -0.4557097256183624, -0.3064320981502533, -0.27496740221977234, -0.43795761466026306, -0.148258239030838]], "fc4.bias": [-0.45588573813438416, 0.2841854393482208, -0.45029136538505554, 0.24694444239139557, -0.13348327577114105]}