{"fc1.weight": [[-1.1842889785766602, -0.29358717799186707, 0.15103879570960999, 0.4064808189868927, 0.12271663546562195, 0.3062598705291748, 0.067776158452034, -0.06445463001728058, 0.07303661108016968], [0.3921993672847748, -0.2876614034175873, 0.3682083785533905, 0.3578244149684906, -0.21691535413265228, 0.10593583434820175, -0.015151627361774445, -0.421337753534317, 0.5202699899673462], [0.13361899554729462, -0.8368136882781982, 0.5013594031333923, -0.30848321318626404, 0.10053853690624237, 0.25170037150382996, -0.009719920344650745, 0.24448584020137787, -0.4085251986980438], [0.11317326873540878, -0.11866270005702972, -0.24497482180595398, 0.06157228350639343, 0.05739021301269531, 0.10293770581483841, -0.5974315404891968, 0.5699453353881836, 0.4203605651855469], [0.10485342890024185, -0.5872412919998169, -0.6891895532608032, -0.0816497951745987, -0.08855567872524261, -0.08147948235273361, 0.43442898988723755, -0.14175601303577423, 0.20795492827892303], [-0.11153320223093033, -0.28528741002082825, 0.2631019055843353, -0.30131056904792786, 0.11100606620311737, -0.049447201192379, -0.48254865407943726, -0.09396325796842575, -0.5801798105239868], [-0.45979219675064087, -0.32426580786705017, 0.2386958748102188, 0.17595477402210236, -0.023080846294760704, 0.20208199322223663, 0.30666881799697876, -0.38564008474349976, 0.44923701882362366], [0.1150156557559967, 0.8174204230308533, 0.5761002898216248, 0.08481022715568542, -0.31030967831611633, 0.05382996052503586, 0.4199366569519043, 0.07090041786432266, 0.5943172574043274], [-0.7413602471351624, -0.6678380370140076, 0.08029881119728088, -0.025325046852231026, 0.11802561581134796, -0.5698381066322327, -0.11530860513448715, 0.29257702827453613, -0.49625325202941895], [0.30747053027153015, 0.4305238425731659, 0.21670569479465485, 0.3473694920539856, 0.4333731234073639, 0.4179023802280426, 0.06461471319198608, 0.0130945248529315, 0.35583776235580444], [0.602886974811554, -0.5934664011001587, -0.17438212037086487, 0.33724433183670044, 0.03312147781252861, 0.22423119843006134, 0.3715307414531708, 0.11057113856077194, -0.31193482875823975], [0.38996630907058716, -0.1481282263994217, -0.49393025040626526, 0.05280282348394394, 0.2510916292667389, 0.5667385458946228, 0.1650419682264328, 0.11642348766326904, 0.24563921988010406], [-0.9555001854896545, -0.06586319953203201, -0.35067129135131836, 0.48652175068855286, -0.04675489664077759, 0.13409723341464996, 0.03465301916003227, 0.41538646817207336, -0.5402796268463135], [0.36634835600852966, -0.31657490134239197, 0.12913550436496735, -0.18592816591262817, 0.163996621966362, -0.29063305258750916, -0.2282327115535736, 0.40189629793167114, -0.5071765780448914], [-0.9519166350364685, -0.42629116773605347, 0.04281800612807274, -0.21908192336559296, -0.08282774686813354, 0.2680761218070984, 0.15438319742679596, -0.09649834781885147, 0.07809988409280777], [0.06510096788406372, -0.54405677318573, -0.09739306569099426, -0.30068114399909973, -0.18180213868618011, -0.34002619981765747, -0.2716495394706726, 0.6340101361274719, -0.8627510070800781]], "fc1.bias": [0.06405145674943924, -0.09149765223264694, 0.21357311308383942, -0.5048718452453613, 0.8331387639045715, -0.13831308484077454, -0.09843543916940689, 0.21399638056755066, 0.2661881446838379, -0.04497656226158142, 0.6996639370918274, 0.3604886531829834, 0.014025822281837463, 0.22207307815551758, -0.04028965160250664, 0.21136736869812012], "fc2.weight": [[0.10696244984865189, 0.22976696491241455, 0.5214377641677856, 0.11883685737848282, 0.7465207576751709, 0.1718217432498932, 0.5290001630783081, -0.17125043272972107, 0.3894723057746887, -0.247086301445961, 0.6169494986534119, -0.07917644828557968, 0.48084917664527893, 0.11399757117033005, -0.048014767467975616, 0.5276210308074951], [-1.1258729696273804, -0.8849014639854431, -0.3048718571662903, 0.6292675733566284, 0.6020870208740234, -0.19490429759025574, -0.6688201427459717, -0.7088083624839783, -0.48367616534233093, -0.38911938667297363, 0.2646431028842926, 0.5042744874954224, -0.7162073254585266, -0.407469242811203, -0.6123313307762146, -0.23993436992168427], [0.3349265158176422, 0.05797731503844261, 0.7029750943183899, 0.11817541718482971, 0.4736623466014862, 0.47249674797058105, 0.6336892247200012, 0.0027063777670264244, 0.7101325988769531, -0.18259462714195251, 0.27860379219055176, 0.10403329133987427, 0.7500523328781128, 0.29205742478370667, -0.14574317634105682, 0.24926263093948364], [0.8127907514572144, 0.2677576243877411, 1.0027456283569336, 0.04684226214885712, -0.05660657584667206, 0.1489586979150772, 0.5971919894218445, 0.16502586007118225, 0.8484181761741638, 0.23810343444347382, 0.04386614263057709, 0.01684817485511303, 0.667342483997345, 0.3816596567630768, 0.3372078239917755, 0.8047009110450745], [0.4333367943763733, 0.2223738729953766, 0.8555598258972168, -0.10139524936676025, 0.3864572048187256, 0.1936839371919632, 0.840042769908905, -0.21255695819854736, 0.6899325847625732, 0.12944850325584412, 0.08970554172992706, 0.00040309556061401963, 0.5270503163337708, 0.3111572265625, 0.30226990580558777, 0.5258994102478027], [0.6276851296424866, 0.5811067223548889, 0.7602084279060364, -0.2573181092739105, 0.2655009329319, 0.43444159626960754, 0.8681493401527405, -0.19837027788162231, 0.841564953327179, 0.14055012166500092, 0.08029775321483612, 0.1086178794503212, 0.4940086305141449, 0.19609946012496948, 0.27025797963142395, 0.5771714448928833], [0.691556453704834, 0.6030263900756836, 0.7642553448677063, -0.43367838859558105, -0.019836274906992912, 0.19018319249153137, 1.0708255767822266, 0.6164074540138245, 0.9941318035125732, 0.6235187649726868, 0.024040021002292633, -0.030172327533364296, 0.5808047652244568, 0.7573654651641846, 0.6574704647064209, 0.9697033166885376], [0.00027011390193365514, 0.018784204497933388, -0.3864121735095978, 0.39891552925109863, -0.6828545331954956, -0.34584224224090576, 0.05148885399103165, 0.6529902219772339, 0.004664615262299776, 0.5555049777030945, -0.4540267884731293, 0.2632834017276764, -0.10659676045179367, -0.04947846755385399, 0.3086559474468231, 0.24940036237239838], [0.6936773657798767, 0.4681035876274109, 0.6347754597663879, -0.26860255002975464, -0.03185005858540535, 0.5495401620864868, 0.5090423822402954, -0.03339933976531029, 0.8126636743545532, 0.2231210321187973, 0.07061515748500824, -0.06861879676580429, 0.6206976175308228, 0.3444523513317108, 0.47818949818611145, 0.6302871704101562], [0.12298151105642319, 0.3226499855518341, 0.6580029129981995, -0.09631011635065079, 0.056855518370866776, 0.09446398168802261, 0.7720322608947754, -0.28998225927352905, 0.6610521674156189, -0.12591959536075592, 0.10964182019233704, 0.09061931073665619, 0.4534255862236023, 0.3449176549911499, 0.14553715288639069, 0.6035189032554626], [0.1836911290884018, 0.3512849807739258, 0.6721620559692383, 0.07470135390758514, 0.3867693543434143, 0.1390165239572525, 0.3743126690387726, -0.12597636878490448, 0.36415576934814453, -0.10491131246089935, 0.2053852379322052, -0.12863197922706604, 0.2644205689430237, 0.4602358639240265, 0.20658837258815765, 0.4035981595516205], [-1.0072455406188965, -0.7934137582778931, -0.3568495213985443, 0.46596410870552063, 0.46922117471694946, 0.2354263812303543, -0.7680723667144775, -0.8026293516159058, -0.41775327920913696, -0.2139730155467987, 0.26230666041374207, 0.42675521969795227, -0.7226832509040833, 0.022351788356900215, -0.460743248462677, -0.37718480825424194], [-0.18212351202964783, 0.21871964633464813, 0.3447483479976654, 0.3451298773288727, 0.8911280632019043, 0.31643104553222656, 0.2399652749300003, -0.12166253477334976, 0.31601107120513916, -0.012575413100421429, 0.5218270421028137, 0.17009465396404266, -0.11308687925338745, -0.03931112214922905, -0.2110946923494339, 0.16500550508499146], [1.1830674409866333, 0.8332465887069702, 0.6154215931892395, -0.3317411541938782, -0.012936670333147049, 0.28331056237220764, 0.730567991733551, 0.6456299424171448, 1.0848826169967651, 0.4171234667301178, 0.15506567060947418, -0.08086183667182922, 1.021535873413086, 0.5405457615852356, 0.8685286641120911, 0.6058194041252136], [-0.04636957496404648, 0.11854524910449982, -0.6009054780006409, 0.38786378502845764, -0.47497129440307617, -0.271230012178421, 0.040528882294893265, 0.5556076765060425, -0.12987209856510162, 0.37329280376434326, -0.47420093417167664, 0.22980956733226776, 0.12747472524642944, 0.31136175990104675, 0.14706100523471832, -0.02394741214811802], [-1.152518391609192, -0.9183130264282227, -0.7142165303230286, 0.7556653618812561, 0.4720889925956726, -0.21637102961540222, -0.7074019312858582, -0.7984891533851624, -0.9417994022369385, -0.9627716541290283, 0.3473508656024933, 0.4650096297264099, -0.8304243683815002, -0.5531688332557678, -0.7236640453338623, -0.6963260769844055]], "fc2.bias": [0.2066119909286499, 0.44828659296035767, 0.03711846098303795, 0.03170609474182129, 0.07887864112854004, -0.014655736275017262, 0.025039739906787872, 0.22439639270305634, 0.07586690783500671, 0.23584133386611938, 0.1484840363264084, 0.5250046253204346, 0.3488427996635437, -0.08012877404689789, 0.016350403428077698, 0.39758265018463135], "fc3.weight": [[-0.15915580093860626, 0.13863049447536469, 0.03407832235097885, -0.40206438302993774, -0.3475039601325989, -0.5320084095001221, -0.3625669479370117, 0.7264251708984375, -0.34784364700317383, -0.060157619416713715, -0.0006679062498733401, 0.12637867033481598, -0.11531693488359451, -0.5670644640922546, 0.4714195430278778, 0.36562246084213257], [-0.12623558938503265, -0.3049311637878418, -0.11408796161413193, -0.08277074247598648, 0.04667850583791733, -0.08905322104692459, -0.1599995642900467, -0.4997643828392029, -0.05123712494969368, -0.008553693071007729, 0.187769815325737, 0.023860782384872437, -0.020413439720869064, -0.21459634602069855, -0.8381497263908386, -0.48060113191604614], [0.4053395390510559, -0.3130187690258026, 0.16516269743442535, 0.5749718546867371, 0.4889692962169647, 0.5292288064956665, 0.558075487613678, -0.8735801577568054, 0.4149201214313507, 0.5854957699775696, 0.20024988055229187, -0.22413934767246246, 0.13891087472438812, 0.6396409273147583, -0.5719583034515381, -0.6688306927680969], [0.5463026762008667, 0.5313290953636169, 0.5504789352416992, -0.20661966502666473, 0.311204195022583, 0.460568904876709, -0.345782071352005, 0.14180448651313782, -0.1814117431640625, 0.5190039277076721, 0.3924003839492798, 0.6457391977310181, 0.6351979970932007, -0.1451149433851242, -0.36593881249427795, 0.5319886207580566], [0.3496711254119873, 0.6442817449569702, -0.011360878124833107, -0.4775766432285309, 0.1163991168141365, -0.1812201589345932, -1.3537596464157104, -0.07417949289083481, -0.6904157996177673, -0.06754103302955627, 0.24267008900642395, 0.49067065119743347, 0.43727952241897583, -1.4672383069992065, -0.10498309135437012, 0.9006044864654541], [0.037162184715270996, 0.030512282624840736, 0.18285392224788666, 0.27373743057250977, 0.155990332365036, 0.46225932240486145, 0.3941114544868469, -0.7789100408554077, 0.3221687972545624, 0.42567646503448486, 0.5166122913360596, 0.07282640039920807, 0.3350745439529419, 0.38639962673187256, -0.7790820598602295, -0.1859053671360016], [-0.5457853674888611, -0.5231992602348328, -0.13183681666851044, 0.6007470488548279, -0.06465759128332138, 0.25096645951271057, 0.860715925693512, 0.7079293727874756, 0.26604342460632324, -0.2714930772781372, 0.08582545816898346, -0.2659643590450287, -0.020750170573592186, 0.9630957841873169, 0.39872366189956665, -0.47473961114883423], [0.1842363327741623, -0.200474351644516, 0.31659939885139465, 0.8540062308311462, 0.5652316808700562, 0.6218396425247192, 0.6789083480834961, -0.365205317735672, 0.6599913835525513, 0.4080187678337097, 0.3689239025115967, -0.23905621469020844, 0.011605372652411461, 0.7209833860397339, -0.5909103155136108, -0.5743333697319031]], "fc3.bias": [-0.130559042096138, -0.1793738454580307, -0.05832136049866676, 0.6262527108192444, 0.5218099355697632, -0.11647438257932663, 0.03366938233375549, -0.12141195684671402], "fc4.weight": [[0.7112717628479004, 0.9299923181533813, -0.6233459711074829, -0.9073187112808228, -0.3369869887828827, -0.24607540667057037, -0.25407305359840393, -1.0322637557983398], [-0.5385251045227051, 0.3748263716697693, 0.8465877771377563, 0.20096878707408905, -0.5719702243804932, 0.5982219576835632, -0.15273092687129974, 0.6507324576377869], [0.6195755004882812, -0.31571730971336365, -1.0620403289794922, 0.46566054224967957, 0.5470325946807861, -0.13728663325309753, -1.1794606447219849, -1.3524090051651], [-0.21637535095214844, -0.7017452716827393, -0.01580677181482315, -0.46534839272499084, -1.0223450660705566, -0.16351619362831116, 0.9260812401771545, 0.2822054326534271], [0.8456515669822693, 0.6845440864562988, -0.43679922819137573, -0.6132679581642151, -0.7600907683372498, -0.6473950743675232, -0.43868547677993774, -1.2832592725753784]], "fc4.bias": [-1.0718621015548706, -0.031041905283927917, 0.42692264914512634, 0.6626909971237183, -0.6701047420501709]}