{"fc1.weight": [[0.985531210899353, 0.30262336134910583, -0.36681029200553894, 0.20749373733997345, 0.03363925963640213, -0.10004591196775436, 0.15842486917972565, 0.15406255424022675, 0.4253287613391876], [-0.15850946307182312, 0.7748018503189087, -0.24928021430969238, -0.2938607335090637, 0.09692162275314331, -0.3683589696884155, 0.02017432451248169, -0.17835184931755066, -0.1111101359128952], [-0.7435843348503113, -0.06515941768884659, -0.054185666143894196, -0.07039669901132584, -0.4182887375354767, 0.14850209653377533, 0.27333080768585205, 0.1335136890411377, -0.3128564655780792], [-0.0490620993077755, -0.20343875885009766, 0.5019394755363464, -0.21031919121742249, 0.4785938560962677, -0.5984310507774353, -0.013993737287819386, -0.40350818634033203, -0.41436201333999634], [0.28723570704460144, -0.5625103712081909, 0.3085401952266693, 0.28089314699172974, -0.44886472821235657, 0.4339229464530945, -0.2951521575450897, -0.169326514005661, -0.5960764288902283], [0.26293161511421204, -0.4522676467895508, -0.2656725347042084, -0.2463691234588623, -0.2570335865020752, -0.11496518552303314, -0.027686843648552895, 0.5370408892631531, -0.03296123445034027], [0.10152409970760345, -0.6872996687889099, -0.03044019639492035, 0.16274705529212952, -0.4685349762439728, -0.07091779261827469, 0.5652855634689331, -0.4917140007019043, 0.23123840987682343], [0.2345234602689743, -0.0381561815738678, 0.3073984384536743, 0.27273043990135193, -0.2763504385948181, -0.41667798161506653, -0.7990431785583496, 0.18019545078277588, -0.18810853362083435], [-0.10384204983711243, -0.5521307587623596, -0.2945801913738251, -0.3353591859340668, -0.16890282928943634, 0.011747048236429691, -0.43762674927711487, -0.04557188227772713, 0.3254980742931366], [0.10018478333950043, 0.005027650855481625, 0.6465959548950195, 0.029167264699935913, 0.2365107387304306, 0.10039587318897247, -0.04711582139134407, -0.4902949631214142, -0.3379083573818207], [0.5187498331069946, -0.1759442836046219, 0.6897410154342651, -0.009350575506687164, 0.5380249619483948, -0.4297134280204773, 0.33805373311042786, -0.12603911757469177, -0.00911366380751133], [-0.11599001288414001, -0.6547735333442688, -0.11933954805135727, 0.30026838183403015, 0.4606857895851135, -0.0625927522778511, -0.5593277215957642, -0.19229796528816223, 0.1209850087761879], [-0.6948865056037903, -0.16549073159694672, -0.2999729514122009, -0.1922808438539505, -0.27744507789611816, -0.32495492696762085, 0.1715254783630371, 0.004200765863060951, -0.01326348539441824], [-0.20799359679222107, -0.8353375792503357, 0.3549564480781555, 0.36068791151046753, 0.4006604850292206, -0.019446980208158493, -0.04717683047056198, -0.08366258442401886, -0.4384000897407532], [-0.020115476101636887, -0.5322560667991638, -0.34071990847587585, 0.18452784419059753, 0.3345814347267151, -0.09780489653348923, -0.01187617052346468, 0.6981710195541382, 0.17635926604270935], [0.09202442318201065, -0.3873142600059509, 0.7825829982757568, -0.255129337310791, 0.09690377861261368, 0.1228964701294899, -0.0664563924074173, -0.708835244178772, -0.6153773665428162]], "fc1.bias": [-0.16295376420021057, 0.33705297112464905, 0.3066636025905609, -0.08940798789262772, 0.23805935680866241, 0.10137563943862915, 0.22483575344085693, 0.03248729556798935, 0.31568700075149536, 0.1229846253991127, 0.20728501677513123, -0.14196836948394775, 0.09053656458854675, -0.06598156690597534, -0.1685595065355301, 0.5695926547050476], "fc2.weight": [[0.2796882390975952, -0.5133119225502014, -0.3053792417049408, -0.10521647334098816, -0.07813647389411926, 0.15022020041942596, -0.2153562605381012, -0.06519628316164017, -0.027044400572776794, 0.04174602031707764, -0.171873077750206, -0.49859121441841125, -0.3361150920391083, -0.3810954988002777, 0.29733511805534363, 0.01913304254412651], [-0.3762654960155487, -0.13406838476657867, 0.312570720911026, 0.4086518883705139, 0.13422538340091705, 0.25654563307762146, 0.31989213824272156, 0.5059348344802856, 0.1060405969619751, 0.4142237901687622, 0.5441107153892517, 0.27827614545822144, 0.28493380546569824, 0.5008755326271057, 0.23213061690330505, 0.353397399187088], [0.5334693193435669, 0.5528644919395447, 0.45040714740753174, -0.085801862180233, -0.2912761867046356, -0.3998420536518097, -0.6154703497886658, -0.04261518642306328, -0.1678839474916458, 0.1690976619720459, -0.5554202198982239, 0.04627811536192894, 0.2559216618537903, -0.3150331377983093, -0.351704478263855, -0.12298693507909775], [-0.10991141945123672, -0.2780052125453949, 0.11677523702383041, 0.26029086112976074, 0.10777533054351807, 0.035722699016332626, 0.22764372825622559, 0.5066677927970886, 0.25429168343544006, 0.35490843653678894, 0.5162314176559448, 0.30773302912712097, 0.1472853720188141, 0.6743504405021667, -0.14900170266628265, 0.46054935455322266], [-0.39493608474731445, 0.09984760731458664, 0.1105811595916748, 0.1425778865814209, 0.4772898256778717, -0.025144586339592934, 0.12629641592502594, 0.15780745446681976, 0.18171626329421997, 0.2517467141151428, 0.6153507232666016, 0.2838576138019562, 0.3645327091217041, 0.18288035690784454, 0.05976760387420654, 0.48497191071510315], [-0.27870723605155945, 0.03127777948975563, 0.33657288551330566, 0.17869411408901215, 0.24874085187911987, 0.07605118304491043, 0.33878615498542786, 0.5197359919548035, 0.2187250405550003, 0.0477539524435997, 0.4437660872936249, 0.6056594252586365, 0.1290295571088791, 0.39732345938682556, -0.021447541192173958, 0.28131046891212463], [-0.17216792702674866, 0.2487267255783081, 0.2992662489414215, 0.41061609983444214, 0.2657429575920105, 0.2026902437210083, 0.3691324293613434, 0.26153504848480225, 0.43069928884506226, 0.009740016423165798, 0.508288562297821, 0.5251303315162659, 0.12855036556720734, 0.20531773567199707, -0.21664613485336304, 0.228168785572052], [0.12178029119968414, 0.1750744730234146, 0.5729275941848755, 0.13076308369636536, -0.2652234435081482, -0.33240652084350586, 0.17214782536029816, 0.08607062697410583, -0.18028925359249115, -0.029308630153536797, -0.28140076994895935, 0.2965569794178009, 0.21762152016162872, 0.2347230166196823, 0.0174198467284441, 0.028180858120322227], [0.4486640989780426, 0.5909990668296814, 0.03203452751040459, 0.1128840520977974, -0.2393055260181427, -0.04045187681913376, -0.323209285736084, 0.06466751545667648, 0.03202730417251587, -0.30422094464302063, -0.3582534193992615, -0.6614155769348145, -0.08244794607162476, -0.17652146518230438, 0.28153860569000244, -0.40564271807670593], [-0.26392003893852234, -0.26196053624153137, 0.17029999196529388, 0.23530521988868713, 0.4373728930950165, -0.1717652976512909, 0.2188582420349121, 0.12815916538238525, 0.49393558502197266, 0.3021766245365143, 0.3103747069835663, 0.38809099793434143, 0.19038896262645721, 0.29137611389160156, 0.02066444791853428, 0.3843775689601898], [-0.0796285942196846, -0.3327202796936035, -0.3238851726055145, -0.23841537535190582, 0.16377362608909607, -0.13790738582611084, 0.17404048144817352, 0.09834877401590347, -0.11360323429107666, -0.3383364677429199, 0.2638706564903259, 0.01272731926292181, 0.15113218128681183, 0.07470668852329254, -0.46368056535720825, -0.39747974276542664], [0.5470193028450012, 0.18251019716262817, -0.32040002942085266, 0.04938459023833275, -0.45527875423431396, 0.3960949778556824, -0.22230321168899536, -0.34983396530151367, 0.06910576671361923, -0.27273374795913696, 0.013726521283388138, -0.4240756034851074, -0.3603062331676483, -0.3933236002922058, 0.33695080876350403, -0.47823140025138855], [-0.006210763938724995, -0.22727462649345398, 0.29903820157051086, 0.2554020285606384, 0.3544297516345978, 0.2308882772922516, 0.658798098564148, 0.10630055516958237, 0.5855863690376282, 0.08737335354089737, 0.556256890296936, 0.5426591038703918, -0.1792970597743988, 0.46821165084838867, 0.24260158836841583, 0.260103315114975], [0.17315658926963806, 0.36441570520401, 0.4517924189567566, 0.056104876101017, 0.19079500436782837, -0.016805585473775864, 0.2772881090641022, -0.017230438068509102, 0.044143080711364746, -0.09099945425987244, -0.09779389947652817, 0.33652278780937195, 0.1216857060790062, 0.24112769961357117, -0.3071861267089844, 0.2554969787597656], [0.4274260699748993, -0.4401093125343323, 0.18376471102237701, 0.10910461843013763, 0.0904063805937767, 0.47236543893814087, 0.016102664172649384, 0.057875268161296844, 0.40701571106910706, 0.2362159937620163, 0.38318130373954773, -0.09653971344232559, -0.1085430160164833, 0.19122478365898132, 0.5856703519821167, 0.2136395126581192], [0.10396827757358551, -0.06946232914924622, -0.07185007631778717, 0.31923776865005493, 0.5201738476753235, 0.0836731567978859, 0.5024001002311707, 0.4563937187194824, 0.24688366055488586, 0.16905920207500458, 0.5808625817298889, 0.2343977838754654, -0.1468295156955719, 0.019048649817705154, -0.26587820053100586, 0.5931017994880676]], "fc2.bias": [0.008565090596675873, 0.07914899289608002, 0.2729702293872833, 0.22525392472743988, 0.3588569760322571, 0.1359054297208786, 0.29070255160331726, 0.3397253453731537, 0.055652741342782974, 0.1146794781088829, -0.297955185174942, 0.11354456096887589, 0.3635348677635193, 0.3100360035896301, 0.423164427280426, 0.24442502856254578], "fc3.weight": [[0.4052603244781494, -0.14120787382125854, -0.34219682216644287, -0.47880980372428894, -0.14209161698818207, -0.4794532358646393, -0.23618640005588531, -0.5502645969390869, 0.4152531325817108, -0.5403204560279846, -0.17217884957790375, 0.43068835139274597, 0.1466873437166214, -0.5890225768089294, 0.3393350839614868, -0.41504213213920593], [0.4957633912563324, 0.39126789569854736, -0.48324766755104065, 0.13090437650680542, -0.07879727333784103, -0.11115365475416183, -0.08590540289878845, -0.07468289881944656, 0.04473993554711342, 0.35810813307762146, -0.09524122625589371, 0.6453748345375061, 0.4712107181549072, -0.23028281331062317, 0.3842957317829132, 0.32413333654403687], [0.4541255235671997, 0.20460639894008636, -0.6241336464881897, 0.42124485969543457, 0.1375398188829422, 0.28064194321632385, 0.1507764756679535, -0.06904447823762894, -0.09271349012851715, 0.25206494331359863, -0.4401938319206238, 0.25473225116729736, 0.4398355484008789, -0.11745020002126694, 0.7398889660835266, 0.5671877264976501], [-0.4661945104598999, 0.5049839615821838, -0.23158219456672668, 0.5406184792518616, 0.4312877953052521, 0.5142433643341064, 0.4446612000465393, 0.1144920140504837, -0.4566381573677063, 0.7424269318580627, 0.008179786615073681, -0.3828461170196533, 0.4347425401210785, 0.2764924168586731, 0.09057436883449554, 0.44511348009109497], [0.570378303527832, -0.03442773222923279, -0.7389615774154663, 0.01353087741881609, -0.5836009979248047, -0.03832768648862839, -0.3740716576576233, -0.10061968117952347, -0.21447773277759552, -0.27069365978240967, 0.014314718544483185, 0.014903310686349869, -0.13637866079807281, -0.6267669796943665, -0.06011125445365906, -0.4633071720600128], [0.47120600938796997, 0.03900478035211563, 0.6333100199699402, -0.0847259983420372, -0.22031338512897491, -0.13792476058006287, 0.13755787909030914, 0.3476297855377197, 0.3830859065055847, -0.39289504289627075, -0.3612475097179413, 0.49063825607299805, -0.02787102572619915, 0.058654509484767914, 0.010946763679385185, -0.3752126097679138], [-0.22852236032485962, -0.2102230042219162, 0.8278689980506897, -0.4231908917427063, 0.08268396556377411, -0.19529245793819427, -0.045000556856393814, 0.3836512863636017, 0.3599286377429962, -0.16562595963478088, -0.38602834939956665, 0.27681609988212585, -0.1914861798286438, 0.3206787705421448, -0.07357604056596756, -0.10164272040128708], [0.2487460970878601, -0.15079739689826965, 0.3701916038990021, -0.2524416744709015, -0.23295359313488007, -0.5229239463806152, -0.4805941879749298, -0.27935856580734253, 0.0075735896825790405, -0.4094526767730713, 0.21581429243087769, -0.06621173024177551, -0.5403041243553162, -0.013604464940726757, -0.3623504638671875, -0.2857213020324707]], "fc3.bias": [0.22017773985862732, 0.39074599742889404, 0.1732962429523468, 0.27052485942840576, -0.19898585975170135, 0.029004333540797234, -0.08212684094905853, -0.3369658589363098], "fc4.weight": [[-0.08510487526655197, -0.375227153301239, -0.895541250705719, 0.023086722940206528, -0.33272066712379456, 0.5035527348518372, 0.45546746253967285, 0.12055680900812149], [-0.6507856249809265, 0.13040761649608612, 0.19478872418403625, 0.6599565148353577, -0.13881322741508484, -0.8741803765296936, -0.7192773818969727, -0.25952813029289246], [0.8346267938613892, 0.2624026834964752, 0.24954530596733093, -0.8663599491119385, 0.5133308172225952, 0.023659586906433105, -0.9465792179107666, 0.16338612139225006], [-0.3059415817260742, -0.7483471632003784, -0.14428384602069855, -0.12256817519664764, -0.3929287791252136, 0.1928430050611496, 0.3171684443950653, 0.1418628841638565], [-0.012721356935799122, -0.7823219299316406, -0.8096814155578613, -0.8318180441856384, 1.0681843757629395, -0.9887703657150269, -0.5212589502334595, 0.9424717426300049]], "fc4.bias": [0.02155311033129692, 0.40512704849243164, -0.31227198243141174, 0.2425834685564041, -0.34504684805870056]}