{"fc1.weight": [[-0.17993484437465668, -0.0632706880569458, -0.09216733276844025, -0.1501253843307495, -0.057262253016233444, 0.08861614763736725, 0.4525409936904907, -0.4842289090156555, 0.3511318862438202], [-0.36856070160865784, -0.23405636847019196, -0.3813692331314087, -0.0379117876291275, 0.17907778918743134, 0.0258205384016037, -0.24814431369304657, 0.3174078166484833, -0.09371097385883331], [-0.11027709394693375, -0.38622015714645386, 0.20909397304058075, 0.17477291822433472, 0.03288543224334717, 0.11459951102733612, 0.3909357488155365, -0.48768359422683716, 0.4397208094596863], [0.1635080873966217, 0.12477574497461319, -0.46989259123802185, -0.24884508550167084, -0.08449166268110275, -0.024307621642947197, -0.606674313545227, 0.4315737783908844, -0.3079768121242523], [0.20615297555923462, -0.17187204957008362, -0.6229530572891235, -0.1912839263677597, -0.12736330926418304, 0.019024033099412918, -0.004534150008112192, 0.3048509657382965, -0.19274352490901947], [0.2340865135192871, -0.49584588408470154, 0.08615261316299438, -0.05908022075891495, 0.1726362109184265, -0.15680553019046783, -0.00023993263312149793, -0.5706747174263, 0.32067668437957764], [0.4971870183944702, -0.2006491869688034, 0.11995382606983185, 0.09381066262722015, 0.20720602571964264, 0.22655089199543, -0.39338675141334534, 0.5161300897598267, -0.22789011895656586], [0.13507474958896637, 0.09058607369661331, 0.27160000801086426, 0.003205356653779745, 0.13867156207561493, -0.26336511969566345, 0.43910694122314453, -0.6589083075523376, 0.6395643949508667], [0.3874783217906952, -0.45833733677864075, -0.5262547135353088, -0.04831235110759735, 0.12953460216522217, 0.2552299499511719, -0.1383713185787201, 0.07389025390148163, -0.14249227941036224], [0.055950481444597244, 0.041647959500551224, 0.06283482909202576, 0.12926067411899567, 0.12819723784923553, -0.10863681882619858, -0.3093947470188141, 0.5819464325904846, -0.6600818634033203], [-0.43228551745414734, -0.4188585877418518, -0.1984623521566391, 0.12205248326063156, 0.15735170245170593, 0.1191425770521164, 0.44064393639564514, -0.22192198038101196, 0.28598231077194214], [-0.1326286643743515, -0.031854767352342606, -0.3615233302116394, 0.021284624934196472, 0.25175148248672485, 0.018962692469358444, -0.2787981629371643, -0.19947414100170135, -0.4319175183773041], [0.07766317576169968, -0.019139816984534264, -0.7293885350227356, -0.27599450945854187, 0.08161001652479172, 0.16380958259105682, -0.13847710192203522, 0.41264984011650085, 0.04843892529606819], [-0.16653616726398468, -0.5075937509536743, -0.6158217191696167, -0.38996291160583496, -0.109265998005867, 0.313157320022583, 0.09680456668138504, -0.14304320514202118, -0.26863500475883484], [-0.3544508218765259, -0.6552421450614929, 0.3484715223312378, -0.024640999734401703, -0.18053218722343445, -0.27574700117111206, -0.3424608111381531, -0.10663878172636032, -0.23567673563957214], [-0.13770540058612823, -0.9416705965995789, 0.1316424012184143, -0.19208548963069916, -0.07436312735080719, 0.1253642439842224, 0.4457933306694031, -0.39663028717041016, 0.47480300068855286]], "fc1.bias": [0.4362173080444336, 0.540375292301178, -0.1403488963842392, 0.13762851059436798, 0.3670863211154938, 0.3227522671222687, 0.07788895815610886, 0.5459131002426147, 0.43944263458251953, 0.354796439409256, 0.0006500891759060323, 0.6152551174163818, 0.3261250853538513, 0.3752661347389221, 0.011316844262182713, 0.2002546787261963], "fc2.weight": [[0.32147836685180664, 0.141726553440094, 0.012596169486641884, -0.14718297123908997, 0.2608768045902252, -0.16849057376384735, -0.36203715205192566, 0.2545081079006195, -0.06429525464773178, 0.18569384515285492, -0.21600279211997986, 0.08657482266426086, -0.222831130027771, 0.09733644127845764, -0.06678944081068039, -0.5124000906944275], [0.14836862683296204, 0.374183714389801, 0.20947442948818207, 0.5204495191574097, 0.19423304498195648, 0.26462459564208984, 0.27953264117240906, 0.04378890246152878, 0.4916507601737976, 0.4101139307022095, -0.021604599431157112, 0.22730843722820282, 0.42689040303230286, 0.24440594017505646, 0.30874982476234436, 0.5729178786277771], [0.16399700939655304, 0.17760758101940155, 0.4086795449256897, 0.14319853484630585, 0.2872024178504944, 0.42903363704681396, 0.16660772264003754, 0.028110889717936516, 0.11336196213960648, 0.29007279872894287, 0.4613775312900543, 0.47532689571380615, 0.20752108097076416, 0.21726058423519135, 0.4847871959209442, 0.38198959827423096], [0.2197832465171814, 0.15087652206420898, 0.3029700517654419, 0.4280097186565399, 0.29576992988586426, 0.2728572487831116, 0.5239956974983215, 0.03621713072061539, 0.3416961133480072, 0.2186933159828186, 0.2465619146823883, 0.0631810799241066, 0.3346708118915558, 0.5029729604721069, 0.10625872015953064, 0.25854939222335815], [0.3573266863822937, 0.2387126237154007, 0.02060171775519848, 0.04856034368276596, 0.018801528960466385, 0.06779064238071442, -0.5923039317131042, 0.30097028613090515, -0.3913132846355438, 0.012541396543383598, -0.10865078121423721, 0.31233710050582886, -0.1620142161846161, 0.001785476692020893, -0.3197875916957855, -0.7007426023483276], [0.3061011731624603, 0.14144366979599, -0.188509002327919, -0.0780443400144577, 0.07087597995996475, -0.09727470576763153, -0.5507314205169678, 0.12563550472259521, -0.0030910095665603876, 0.005517256446182728, 0.10436619818210602, -0.07530824095010757, 0.0025863752234727144, -0.22018568217754364, -0.040375176817178726, -0.35124319791793823], [0.025592703372240067, -0.42462384700775146, 0.0824057087302208, -0.38020777702331543, -0.1721114218235016, -0.14769838750362396, -0.4161253273487091, -0.16293957829475403, -0.33456283807754517, -0.04060955345630646, -0.2806790769100189, -0.3110082745552063, -0.5258684754371643, -0.18589329719543457, -0.411521852016449, -0.6558177471160889], [0.1512240320444107, 0.37996557354927063, 0.5857483148574829, 0.48560041189193726, 0.005229264497756958, 0.3020211160182953, 0.46159908175468445, 0.40324777364730835, 0.44975581765174866, 0.26079288125038147, 0.10178409516811371, 0.15121188759803772, 0.5514524579048157, 0.3641675114631653, 0.39405950903892517, 0.7230530977249146], [0.14100371301174164, 0.046348702162504196, 0.3493330776691437, 0.4466552138328552, 0.15942007303237915, 0.08637935668230057, 0.4165685772895813, 0.06451207399368286, 0.4492296576499939, 0.40008264780044556, 0.26985859870910645, -0.05731087923049927, 0.42136919498443604, 0.2324329912662506, 0.3631806969642639, 0.4827744662761688], [0.14209426939487457, -0.002631068229675293, -0.14042790234088898, -0.2244584560394287, 0.09292589873075485, -0.23454472422599792, 0.12298000603914261, -0.32912135124206543, -0.1858958601951599, -0.002592716831713915, -0.12762296199798584, 0.026250211521983147, -0.2228463590145111, 0.0965111032128334, 0.11422331631183624, -0.12081491947174072], [0.038699403405189514, 0.2794661223888397, 0.3627435564994812, 0.08692820370197296, 0.3625989854335785, 0.28361591696739197, 0.24618428945541382, 0.2590670883655548, 0.22934171557426453, 0.3297743499279022, 0.3050106465816498, 0.34327083826065063, 0.11440687626600266, 0.41531866788864136, 0.41151928901672363, 0.5970789194107056], [0.441180557012558, 0.3585638105869293, 0.5747822523117065, 0.5244479179382324, 0.08279085904359818, -0.01020335778594017, 0.31482675671577454, 0.4909873902797699, 0.28828921914100647, 0.30882179737091064, 0.3411004841327667, 0.5039645433425903, 0.4116066098213196, 0.1535535752773285, 0.10753528773784637, 0.4594096541404724], [-0.027414780110120773, 0.14922469854354858, 0.09044890105724335, 0.3016102910041809, 0.21478457748889923, 0.269733190536499, 0.5261600017547607, -0.08277925103902817, 0.17672285437583923, 0.28485167026519775, -0.1310267448425293, -0.006182969082146883, 0.1120133250951767, 0.5357978940010071, 0.25897300243377686, 0.37891829013824463], [-0.33106446266174316, -0.3864283859729767, -0.3922210931777954, -0.28296351432800293, -0.1512114405632019, -0.1640668511390686, -0.17451529204845428, -0.14601418375968933, -0.3080856204032898, -0.37656500935554504, -0.1578252613544464, -0.26511141657829285, -0.24947644770145416, -0.04947726055979729, -0.47759008407592773, -0.6533735394477844], [0.045659393072128296, -0.04872466251254082, -0.07855375856161118, -0.1700180619955063, 0.3400651216506958, -0.15645328164100647, -0.17193171381950378, 0.5157264471054077, -0.5707934498786926, 0.049937453120946884, 0.0159708634018898, 0.27246925234794617, -0.2437245398759842, 0.023754898458719254, -0.3845859169960022, -0.5743503570556641], [0.2400072067975998, 0.47334954142570496, 0.5949538350105286, 0.19526101648807526, 0.17911295592784882, 0.16561970114707947, 0.31381064653396606, 0.25341302156448364, 0.31895601749420166, 0.2619507610797882, 0.3792579174041748, 0.4387730360031128, 0.395630419254303, 0.4617130756378174, 0.08602580428123474, 0.2668417990207672]], "fc2.bias": [0.23687562346458435, 0.024139530956745148, 0.12029191106557846, -0.11000239104032516, 0.46672940254211426, 0.49380040168762207, 0.0013256495585665107, 0.13912996649742126, -0.3646266460418701, -0.025681909173727036, -0.18368741869926453, 0.11117454618215561, 0.01666705124080181, 0.1380574107170105, 0.5638760328292847, -0.06274589151144028], "fc3.weight": [[0.049290385097265244, -0.05979658663272858, -0.25024521350860596, 0.11738758534193039, 0.09885741025209427, 0.20616264641284943, 0.2034001648426056, -0.037763264030218124, 0.046898890286684036, 0.058357514441013336, -0.3046315610408783, -0.2460639923810959, 0.06371086835861206, -0.21257872879505157, 0.20550192892551422, -0.006073663476854563], [-0.47208061814308167, 0.4245431125164032, 0.37376832962036133, 0.22709882259368896, -0.5179420709609985, -0.3032722771167755, -0.22090741991996765, 0.535897433757782, 0.32646283507347107, -0.1130378320813179, 0.5742016434669495, 0.528067946434021, 0.31745263934135437, -0.5457211136817932, -0.722973644733429, 0.5348212122917175], [-0.006254298612475395, -0.17357498407363892, -0.16852690279483795, -0.5590385794639587, -0.004131308291107416, -0.14111052453517914, 0.48758408427238464, -0.41179752349853516, -0.6057517528533936, 0.2264934778213501, -0.3034399151802063, -0.5277943015098572, -0.4243837594985962, 0.4865141212940216, 0.23783008754253387, -0.4746744930744171], [-0.05368315801024437, -0.11072617769241333, -0.5790656208992004, -0.6022195219993591, 0.24739858508110046, 0.08765100687742233, 0.48375204205513, -0.19280074536800385, -0.6974108815193176, 0.17059563100337982, -0.554023027420044, -0.39476776123046875, -0.47989004850387573, 0.23315107822418213, 0.04112991690635681, -0.2522638142108917], [0.6230747699737549, -0.009999768808484077, 0.19885599613189697, -0.27961426973342896, 0.8275942206382751, 0.5923341512680054, 0.026632536202669144, -0.1797044277191162, -0.008918751031160355, -0.1704854965209961, -0.149692103266716, 0.12027093768119812, -0.1528007835149765, 0.2598947286605835, 0.6809682250022888, 0.06810081005096436], [-0.07176929712295532, -0.00574481999501586, 0.013408608734607697, -0.023416288197040558, -0.4281388223171234, -0.5963038802146912, -0.0009325544233433902, 0.03314511477947235, 0.046831972897052765, -0.12400452047586441, -0.04988429695367813, 0.05400257557630539, 0.008011985570192337, 0.19775021076202393, -0.185815691947937, -0.27502140402793884], [-0.36928558349609375, 0.45671316981315613, 0.548889696598053, 0.6225375533103943, -0.3217763602733612, -0.2672940790653229, -0.22869186103343964, 0.6121647357940674, 0.6201612949371338, -0.22038798034191132, 0.5101231336593628, 0.2741432189941406, 0.4368104636669159, -0.554426372051239, -0.30864715576171875, 0.5645124912261963], [0.3758120834827423, -0.1474936455488205, -0.021253107115626335, 0.0037021839525550604, 0.283481627702713, 0.37353071570396423, 0.04464656859636307, 0.17020003497600555, -0.34456437826156616, -0.24055255949497223, -0.04752416908740997, 0.2777135968208313, -0.21462857723236084, 0.022101137787103653, 0.7431966662406921, 0.14918795228004456]], "fc3.bias": [0.20799779891967773, 0.12831434607505798, -0.3968973159790039, -0.2546955645084381, 0.08621323853731155, -0.3473644554615021, 0.07356169819831848, 0.10138611495494843], "fc4.weight": [[0.0088803730905056, -0.6036221981048584, -0.2875577211380005, 0.3408479392528534, 0.4820334017276764, -0.09832929074764252, 0.020209938287734985, 0.11028899252414703], [-0.25978004932403564, 0.31957679986953735, -0.546758234500885, -0.4055282473564148, -0.7679023146629333, 0.4282146990299225, 0.538189709186554, -0.48379382491111755], [0.18984587490558624, -0.5729715824127197, 0.6543610692024231, 0.8512335419654846, -0.28478190302848816, 0.6962253451347351, -0.3178125023841858, -0.45388737320899963], [-0.23738603293895721, -0.11183761805295944, -0.13873545825481415, -0.2652801275253296, 0.19672413170337677, -0.07489648461341858, 0.23584407567977905, 0.6916321516036987], [0.032544028013944626, -0.5519132614135742, 0.6352312564849854, 0.370535284280777, -0.03402109071612358, 0.7080113887786865, -0.5278761982917786, -0.3711647093296051]], "fc4.bias": [0.051957279443740845, -0.2579563558101654, -0.34895142912864685, 0.16022919118404388, -0.3962073028087616]}