{"fc1.weight": [[-0.5382214188575745, 0.1195894330739975, -0.541049063205719, -0.39913642406463623, -0.4401657283306122, -0.1404179036617279, -0.13261300325393677, -0.5926870107650757, -0.14446435868740082], [-0.22196289896965027, -0.10950999706983566, -0.2751421630382538, 0.2714006006717682, -0.46393242478370667, -0.34092217683792114, -0.12331575900316238, -0.6799935698509216, 0.11821723729372025], [-0.06382866203784943, -0.04743046686053276, -0.0255388543009758, -0.22819370031356812, -0.12350082397460938, 0.13336987793445587, -0.03632092848420143, 0.7194066643714905, 0.0075889406725764275], [-0.022098058834671974, 0.20056872069835663, -0.21131043136119843, -0.3772406578063965, -0.40198013186454773, -0.1071067824959755, 0.19908660650253296, -0.20507939159870148, 0.2808994650840759], [-0.6081680059432983, -0.09363116323947906, -0.41787365078926086, 0.04839658364653587, -0.22409269213676453, 0.17131826281547546, -0.3564826250076294, 0.5337790250778198, 0.194252610206604], [-0.0725758746266365, -0.021051490679383278, -0.4945273995399475, 0.20794209837913513, 0.3013843894004822, -0.30682501196861267, -0.07496141642332077, -0.539394199848175, 0.08855994045734406], [0.04679352790117264, 0.35250741243362427, 0.46948063373565674, -0.014646264724433422, -0.024209391325712204, -0.3397738039493561, 0.27521562576293945, 0.2502223551273346, 0.4257531464099884], [-0.14538264274597168, -0.5001271963119507, -0.05892791226506233, 0.3656577467918396, 0.3788589835166931, 0.3002229332923889, -0.46387553215026855, -0.7466966509819031, -0.26534178853034973], [-0.07530248165130615, 0.5221933722496033, 0.06862183660268784, 0.06612727046012878, 0.039386484771966934, 0.45372694730758667, 0.2201005518436432, -0.20140250027179718, 0.005593936890363693], [-0.3258156478404999, -0.568641722202301, -0.4537270963191986, 0.23762783408164978, 0.025697065517306328, -0.34753289818763733, 0.06771234422922134, 0.6826115250587463, -0.3484927713871002], [0.38326263427734375, -0.3059237003326416, -0.12282264977693558, -0.15780876576900482, 0.08510997891426086, 0.16964079439640045, 0.12721069157123566, 0.1768147498369217, -0.07513081282377243], [0.3872860074043274, 0.542174756526947, 0.2555221617221832, 0.31100502610206604, 0.454611212015152, 0.379424512386322, 0.43312695622444153, -0.0012109754607081413, 0.2049211859703064], [0.4389587640762329, 0.05342505872249603, -0.21809735894203186, -0.2783828675746918, 0.2656148374080658, 0.4270309507846832, 0.4404098391532898, -0.5036241412162781, 0.3991248905658722], [-0.27487942576408386, -0.20450742542743683, -0.35420629382133484, 0.28369060158729553, -0.28579339385032654, 0.22025898098945618, 0.08500701189041138, 0.6647330522537231, 0.28043994307518005], [-0.49881646037101746, 0.02348398230969906, -0.3541058599948883, 0.18696042895317078, 0.1494303196668625, 0.21087928116321564, 0.11445190757513046, -0.5581963658332825, -0.4257257282733917], [-0.6908891201019287, 0.028242727741599083, -0.37678492069244385, -0.08703048527240753, -0.14184167981147766, -0.29773011803627014, -0.4557688534259796, 0.268900990486145, -0.22837652266025543]], "fc1.bias": [0.252332478761673, 0.49664050340652466, 0.12325339764356613, 0.5342630743980408, 0.26091110706329346, 0.4267246425151825, 0.15083667635917664, 0.014797628857195377, 0.17652367055416107, 0.13389958441257477, -0.1463533639907837, 0.082085020840168, 0.2764582633972168, 0.48627471923828125, 0.3898002505302429, 0.31437090039253235], "fc2.weight": [[0.5365227460861206, 0.6329120993614197, -0.35263240337371826, 0.3431755006313324, -0.11608003824949265, 0.4399273693561554, 0.3489934504032135, 0.11791513860225677, 0.032820507884025574, -0.06026681512594223, 0.24526645243167877, 0.1257185935974121, 0.40350639820098877, -0.10688503831624985, 0.5027320384979248, 0.16087579727172852], [0.639295756816864, 0.4455786347389221, -0.2294543832540512, 0.2648580074310303, -0.29410818219184875, 0.4928511679172516, 0.29176586866378784, 0.17118379473686218, 0.0420975461602211, 0.04273552447557449, -0.01604292541742325, 0.20117966830730438, 0.4999563992023468, -0.024954622611403465, 0.6504031419754028, -0.03354571387171745], [-0.3241564631462097, -0.42292869091033936, 0.5352502465248108, -0.019666269421577454, 0.5706647634506226, -0.5001305341720581, 0.15019309520721436, -0.2304445207118988, -0.3498578369617462, 0.4891207814216614, -0.08806518465280533, -0.32839539647102356, -0.4538506269454956, 0.5608055591583252, -0.48266685009002686, 0.2663984000682831], [0.3682071566581726, 0.3471204340457916, 0.6265685558319092, 0.15228380262851715, 0.6669586896896362, 0.43089988827705383, 0.4675043523311615, 0.16754250228405, 0.05427141115069389, 0.6073548793792725, -0.056174442172050476, 0.15410423278808594, 0.0104469433426857, 0.2828785181045532, 0.36850443482398987, 0.3231743574142456], [0.09192289412021637, 0.12103449553251266, 0.061326246708631516, 0.005974706262350082, -0.022572657093405724, 0.09666758030653, -0.2673611342906952, -0.1507141888141632, -0.20663173496723175, -0.08058977872133255, 0.11981701850891113, -0.05529450252652168, -0.13991288840770721, -0.05919665843248367, -0.29762712121009827, 0.05023225396871567], [0.2460951805114746, 0.24461810290813446, -0.14454692602157593, 0.13693270087242126, -0.1594710648059845, 0.6349831819534302, 0.4251721501350403, 0.14673669636249542, 0.09210117161273956, -0.25365325808525085, 0.0032598611433058977, 0.4210761487483978, 0.46711817383766174, 0.17498505115509033, 0.5970178842544556, -0.004853478167206049], [-0.6127163171768188, -0.3703609108924866, -0.0356929637491703, -0.4988187849521637, -0.06206557899713516, -0.6430807113647461, -0.30815833806991577, -0.42245596647262573, -0.37573888897895813, 0.35531744360923767, -0.16560858488082886, -0.45243433117866516, -0.46194538474082947, -0.11009707301855087, -0.3273993730545044, 0.02652970887720585], [-0.34959691762924194, -0.14450722932815552, 0.228180930018425, -0.02481059730052948, 0.6682930588722229, -0.32526323199272156, 0.07146313041448593, -0.3143041431903839, -0.07071086019277573, 0.6165159940719604, -0.155372753739357, -0.06455668807029724, -0.36567869782447815, 0.49111658334732056, -0.38231199979782104, 0.5802756547927856], [0.2859503924846649, 0.2463650405406952, 0.13785071671009064, 0.3389021158218384, -0.2696845531463623, 0.5290467739105225, 0.15410660207271576, 0.27201032638549805, 0.22292464971542358, -0.09533408284187317, 0.25233787298202515, 0.3433835208415985, 0.40447577834129333, -0.16935864090919495, 0.3440045416355133, 0.0594053715467453], [-0.1292651742696762, -0.0025885049253702164, 0.47402098774909973, 0.46414273977279663, 0.35638755559921265, -0.12003377079963684, 0.44534868001937866, -0.006020166911184788, 0.3739510774612427, 0.40478408336639404, -0.16592109203338623, 0.06497086584568024, -0.12582281231880188, 0.5618398785591125, 0.25790515542030334, 0.6341241598129272], [-0.201882466673851, -0.01047341339290142, 0.1453508734703064, -0.11300980299711227, -0.16477859020233154, 0.1811741590499878, 0.00014913945051375777, -0.1575268656015396, -0.1485266238451004, -0.10315249860286713, -0.2059929072856903, 0.13148640096187592, -0.05196251720190048, -0.21568907797336578, -0.05464523658156395, 0.13928383588790894], [0.2781705856323242, 0.2561614215373993, 0.011849025264382362, 0.18041202425956726, -0.11342137306928635, 0.40504616498947144, 0.3662775456905365, 0.3622989356517792, 0.2677982747554779, -0.10495027899742126, -0.015254950150847435, 0.001115086954087019, 0.3458164930343628, 0.302602082490921, 0.46195879578590393, 0.42145484685897827], [0.17088937759399414, 0.3135645389556885, 0.11122353374958038, 0.37332385778427124, 0.1951659619808197, 0.49298107624053955, 0.3503705859184265, 0.3117341101169586, 0.5013754367828369, -0.23792368173599243, -0.13026532530784607, 0.22242677211761475, 0.17726492881774902, -0.1395781934261322, 0.4696180820465088, 0.40170347690582275], [-0.15183962881565094, -0.15974022448062897, -0.11470435559749603, -0.399244487285614, -0.15333546698093414, -0.376301109790802, 0.15172873437404633, 0.014308171346783638, -0.013240805827081203, 0.1957467645406723, -0.15254098176956177, -0.04199683666229248, -0.022431300953030586, -0.141018345952034, 0.10985135287046432, -0.26798194646835327], [0.6820521354675293, 0.6032716035842896, -0.16343365609645844, 0.5639593601226807, -0.2152848094701767, 0.2273884117603302, 0.09538773447275162, 0.568565845489502, 0.27917373180389404, -0.1607416421175003, 0.16761937737464905, 0.29821157455444336, 0.5003977417945862, -0.13280561566352844, 0.24637390673160553, 0.17539554834365845], [0.546028196811676, 0.38421040773391724, 0.031850967556238174, 0.26862478256225586, 0.08866306394338608, 0.42701706290245056, -0.29155540466308594, 0.266682893037796, 0.38260596990585327, -0.31384581327438354, 0.250708669424057, 0.21812009811401367, 0.4273710548877716, 0.023701565340161324, 0.28476250171661377, -0.10694665461778641]], "fc2.bias": [0.24055330455303192, 0.30383336544036865, 0.13014717400074005, 0.18692848086357117, -0.3025701940059662, 0.2953449785709381, -0.32499563694000244, 0.5214664936065674, 0.2966872453689575, 0.37127241492271423, 0.02689652144908905, 0.470503032207489, 0.02983681671321392, -0.06171729415655136, 0.3427324593067169, 0.23964999616146088], "fc3.weight": [[0.4732134938240051, 0.2754300832748413, -0.4877469837665558, 0.2914612591266632, -0.2148514688014984, 0.5862153172492981, -0.18373265862464905, -0.20801189541816711, 0.42958056926727295, 0.027738846838474274, 0.22842393815517426, 0.5316677689552307, 0.4888252019882202, -0.1887972056865692, 0.5491188168525696, 0.6594366431236267], [-0.3056368827819824, -0.41262856125831604, 0.2965555787086487, -0.35893985629081726, -0.03935931622982025, -0.18654367327690125, 0.09499425441026688, 0.11465974152088165, -0.5608457326889038, 0.1380758434534073, -0.29143720865249634, -0.2649979293346405, -0.2832256555557251, 0.19773681461811066, -0.2770399749279022, -0.5659767389297485], [0.5481606125831604, 0.660574734210968, -0.37833288311958313, 0.011423601768910885, -0.1599840521812439, 0.3930168151855469, -0.5112094283103943, -0.09026548266410828, 0.2819230854511261, 0.23020341992378235, -0.055670857429504395, 0.2832273244857788, 0.43755707144737244, -0.13200125098228455, 0.5025956630706787, 0.5104750394821167], [0.27410003542900085, 0.3215588927268982, 0.004292212892323732, 0.4832254648208618, 0.05560903996229172, 0.4778473377227783, -0.3521845042705536, 0.3269033432006836, 0.03811345621943474, 0.3574197590351105, -0.14538896083831787, 0.46027520298957825, 0.49551039934158325, -0.24351707100868225, 0.36890915036201477, 0.08920621871948242], [-0.43910372257232666, -0.5824440121650696, 0.6573371887207031, 0.30798786878585815, 0.0824328288435936, -0.22974935173988342, 0.2874052822589874, 0.728313148021698, -0.5046423673629761, 0.5252444744110107, -0.1414903849363327, 0.1477333903312683, -0.07093453407287598, -0.03381967917084694, -0.5403695106506348, -0.7787560224533081], [0.10721994936466217, -0.17132656276226044, -0.3754735291004181, -0.16379307210445404, -0.11063297837972641, 0.1753191351890564, -0.04354746267199516, -0.16908107697963715, -0.1394374966621399, -0.060071274638175964, 0.1544083207845688, -0.10059461742639542, -0.29709863662719727, 0.1203031837940216, -0.19935759902000427, 0.1367187350988388], [-0.6634204387664795, -0.337785005569458, 0.06058303639292717, 0.011796655133366585, -0.03731779754161835, -0.27597692608833313, 0.22357113659381866, 0.09263445436954498, -0.5972774028778076, -0.04656161367893219, -0.16520296037197113, -0.09508266299962997, -0.3321737051010132, 0.08506298065185547, -0.4289313554763794, -0.6639859676361084], [-0.2998330295085907, -0.6447091102600098, 0.18035827577114105, -0.36170849204063416, -0.09991205483675003, -0.35003143548965454, 0.14364291727542877, 0.32005634903907776, -0.4584093987941742, 0.07660649716854095, -0.2553885281085968, -0.4851330816745758, -0.09559350460767746, -0.0684991255402565, -0.5117130279541016, -0.5906855463981628]], "fc3.bias": [0.05465162917971611, -0.30020296573638916, -0.09212599694728851, 0.20438437163829803, 0.32774800062179565, 0.09088880568742752, -0.21725258231163025, -0.31904199719429016], "fc4.weight": [[-0.49437230825424194, 0.16181693971157074, -0.4631519317626953, -0.43292638659477234, -0.46636727452278137, -0.32543879747390747, -0.05299444496631622, 0.16122375428676605], [0.5514441132545471, -0.6469074487686157, 0.6592171788215637, 0.3675863444805145, -0.4301363527774811, -0.25712335109710693, -0.6741940975189209, -0.43026861548423767], [-0.5570643544197083, 0.2832992970943451, -0.7785838842391968, 0.2723490297794342, 0.7699778079986572, -0.43153631687164307, 0.5388982892036438, 0.5826418995857239], [-0.027106715366244316, 0.345475971698761, -0.09089632332324982, -0.5190168023109436, -0.1994042992591858, 0.014305450022220612, 0.05686812847852707, 0.5370181202888489], [-0.5816791653633118, 0.12099490314722061, 0.09694443643093109, -0.532633364200592, -0.43513908982276917, 0.29409852623939514, 0.35880711674690247, 0.030746283009648323]], "fc4.bias": [-0.196224644780159, 0.4051121175289154, 0.0017154351808130741, -0.2741019129753113, -0.2627606689929962]}