{"fc1.weight": [[0.13945049047470093, 0.9275624752044678, -0.1289161741733551, -0.15742231905460358, -0.12865515053272247, 0.16133883595466614, -0.4839645326137543, -0.3444688022136688, -0.20605140924453735], [0.1305692195892334, -0.17162787914276123, -0.05669645965099335, -0.057673484086990356, -0.009736904874444008, 0.11409569531679153, -0.19836629927158356, -0.0211042370647192, -0.11366305500268936], [0.3876739740371704, -0.0885062888264656, -0.039032045751810074, -0.20913423597812653, -0.023236623033881187, 0.08830021321773529, 0.14707571268081665, 0.46548640727996826, -0.6758021712303162], [-0.07123253494501114, -0.7136486768722534, -0.5294090509414673, -0.1888902634382248, -0.06451427191495895, 0.15154825150966644, -0.12128113210201263, 0.6209229230880737, 0.5846362113952637], [0.07793718576431274, -0.44300389289855957, -0.16226761043071747, -0.26516446471214294, -0.348041296005249, -0.3292109966278076, 0.012882337905466557, -0.13486029207706451, -0.3902710974216461], [0.026182051748037338, -0.14589188992977142, -0.166593998670578, -0.45002585649490356, 0.2970006763935089, -0.16044071316719055, 0.13379418849945068, 0.5207146406173706, 0.6247002482414246], [-0.30118677020072937, -0.28035983443260193, 0.24061702191829681, -0.008020667359232903, 0.4724006652832031, 0.2963392436504364, -0.09911981970071793, -0.315342515707016, -0.28729522228240967], [-0.6141676902770996, 0.07190372794866562, -0.3592146635055542, -0.289788156747818, 0.19771383702754974, 0.04929792508482933, 0.6346719264984131, 0.4071294963359833, -0.47963228821754456], [0.13526445627212524, -0.3317123055458069, 0.18940559029579163, -0.038526616990566254, -0.3732640743255615, -0.18807460367679596, 0.6027290225028992, 0.4394245743751526, 0.2694039046764374], [-0.10896120220422745, 0.36189571022987366, -0.25374835729599, 0.3930267095565796, 0.5608212947845459, -0.12637899816036224, -0.18545159697532654, -0.0458962507545948, 0.17302322387695312], [-0.2968951463699341, -0.07642815262079239, -0.7036617398262024, 0.18552817404270172, -0.37710464000701904, -0.22807788848876953, -0.20264515280723572, 0.25138697028160095, -0.059951797127723694], [0.009777523577213287, -0.07740503549575806, 0.5000913143157959, -0.09021677076816559, 0.11912094801664352, 0.027063366025686264, 0.6603578925132751, 0.7431954145431519, 0.025575047358870506], [0.015850378200411797, -0.5733234882354736, 0.29303839802742004, 0.04210810735821724, -0.06994651257991791, 0.3637329339981079, -0.38294917345046997, -0.5213983654975891, 0.5923962593078613], [-0.13657858967781067, -0.19695255160331726, 0.4738965630531311, -0.14150387048721313, 0.24126456677913666, -0.08344580978155136, -0.19963568449020386, -0.5186389684677124, 0.6862525343894958], [-0.0676591619849205, -0.14551876485347748, 0.19266630709171295, 0.19649583101272583, 0.04811771586537361, 0.28885123133659363, -0.44222015142440796, -0.47361400723457336, 0.24849992990493774], [-0.14344154298305511, 0.49131596088409424, 0.4622138738632202, 0.34614893794059753, -0.3499431014060974, 0.20511884987354279, -0.06057845056056976, -0.009963402524590492, -0.16838492453098297]], "fc1.bias": [-0.15844808518886566, 0.2818032205104828, 0.06626726686954498, 0.03938889876008034, 0.34485355019569397, 0.48871803283691406, 0.24288731813430786, 0.6422060132026672, 0.16288013756275177, 0.21289445459842682, 0.6777710914611816, 0.01342203002423048, -0.045264314860105515, -0.08016443997621536, 0.2524043917655945, -0.1294194906949997], "fc2.weight": [[0.257754921913147, 0.37419599294662476, 0.2555631995201111, -0.03128516674041748, 0.010096143931150436, 0.0275663323700428, 0.20688574016094208, 0.21782781183719635, 0.2999088168144226, 0.10873746871948242, 0.39524930715560913, -0.09193823486566544, 0.31578269600868225, 0.005991678684949875, 0.29144152998924255, 0.16552193462848663], [-0.2475254386663437, 0.13307489454746246, -0.08808130770921707, 0.21695441007614136, -0.07262136787176132, 0.19543075561523438, 0.265129953622818, 0.3243867754936218, -0.19831444323062897, -0.13130901753902435, -0.3903749883174896, 0.14858320355415344, -0.20813274383544922, 0.10144709050655365, -0.15321862697601318, -0.11970054358243942], [0.31208857893943787, 0.07351445406675339, 0.03061400167644024, 0.680909276008606, 0.26635631918907166, 0.4139140248298645, 0.41508617997169495, 0.07580922544002533, 0.45021358132362366, 0.1048469990491867, 0.5247200727462769, 0.5005207657814026, 0.16040194034576416, -0.01816723309457302, 0.4058699309825897, 0.06958556920289993], [0.5134069919586182, 0.009588398039340973, -0.05074266344308853, 0.3057738244533539, 0.3933241367340088, 0.09769041836261749, 0.26116353273391724, 0.21353206038475037, 0.1781807392835617, 0.35263144969940186, -0.02072947658598423, 0.5922481417655945, -0.2174960821866989, 0.07861707359552383, 0.160696342587471, 0.2028008997440338], [-0.24466060101985931, 0.4120157063007355, 0.5749695897102356, -0.29732856154441833, 0.053838059306144714, -0.4069599211215973, 0.1435898244380951, 0.2904598116874695, -0.08099482208490372, -0.31128963828086853, 0.21180656552314758, -0.6891270279884338, 0.29958078265190125, 0.5258976221084595, 0.31312891840934753, -0.04613661393523216], [0.3368622362613678, -0.3398902118206024, -0.6953529715538025, 0.6052725911140442, -0.12466587871313095, 0.012851500883698463, -0.1300325095653534, -0.658026397228241, -0.046420738101005554, 0.13291986286640167, -0.25215858221054077, 0.5534943342208862, -0.1915821135044098, -0.3254854083061218, -0.32399794459342957, -0.09799078851938248], [-0.3286508023738861, 0.1726342737674713, 0.3373807966709137, -0.33606845140457153, 0.0983867347240448, -0.5030291676521301, -0.06119690462946892, 0.55814129114151, -0.18306785821914673, -0.14912424981594086, 0.4092918932437897, -0.7607006430625916, -0.23342514038085938, -0.26330995559692383, -0.12003733962774277, -0.04573595151305199], [0.3026207983493805, -0.04606791213154793, -0.4948509633541107, 0.4419168531894684, 0.10872664302587509, 0.24030782282352448, 0.11922206729650497, -0.32486283779144287, 0.42404884099960327, 0.09360257536172867, 0.22765909135341644, 0.4808538258075714, -0.2880380153656006, 0.0012977714650332928, 0.09560448676347733, 0.3789162039756775], [0.29575663805007935, 0.1098659411072731, -0.5091392397880554, 0.6171217560768127, 0.15737284719944, 0.594321608543396, 0.23684591054916382, 0.08701950311660767, 0.3574557900428772, 0.23074626922607422, 0.17546680569648743, 0.7833965420722961, -0.015279734507203102, 0.17388227581977844, 0.10433696955442429, 0.42494305968284607], [-0.4769083857536316, 0.1503569334745407, 0.5776665806770325, -0.7828519940376282, 0.3762461245059967, -0.27252691984176636, 0.04119584336876869, 0.6347705721855164, -0.22669611871242523, -0.21705226600170135, 0.23302297294139862, -0.8539519906044006, 0.5004097819328308, 0.21475334465503693, 0.2987818419933319, -0.13707083463668823], [0.6325621008872986, 0.11679666489362717, -0.5808945298194885, 0.895028829574585, -0.27319085597991943, 0.576504111289978, -0.029572153463959694, -0.2122305929660797, 0.10282767564058304, -0.005315733607858419, 0.06550947576761246, 0.5780127644538879, -0.13099220395088196, -0.2770080864429474, 0.12789835035800934, 0.23846562206745148], [0.638201117515564, -0.17954720556735992, -0.08594847470521927, 0.4683906137943268, 0.15281642973423004, 0.285677433013916, 0.10707852989435196, -0.22138896584510803, 0.5068178176879883, 0.4589765667915344, 0.10374440997838974, 0.5604631304740906, 0.033338963985443115, -0.12631559371948242, -0.04005412012338638, 0.3660966157913208], [0.6858403086662292, 0.1205994188785553, -0.33038830757141113, 0.7721061706542969, 0.10534071922302246, 0.5691877007484436, 0.1008688285946846, -0.04730888828635216, 0.2210417538881302, 0.24759875237941742, 0.10531841963529587, 0.669341504573822, -0.085071861743927, 0.2069011777639389, 0.33054375648498535, 0.25978031754493713], [0.4754939377307892, -0.16223038733005524, -0.1606602668762207, 0.3974464535713196, 0.3602035343647003, 0.45675158500671387, 0.2796497344970703, 0.04565565660595894, 0.05340210720896721, 0.23031370341777802, 0.13370928168296814, 0.4554474651813507, -0.10449507087469101, 0.20426569879055023, 0.26944419741630554, 0.41716304421424866], [0.6183815598487854, -0.2522975504398346, -0.47432559728622437, 0.5133284330368042, 0.18551316857337952, 0.6115650534629822, 0.1981457769870758, 0.13203030824661255, 0.09603674709796906, 0.529043436050415, 0.04046458378434181, 0.8994433283805847, -0.19947320222854614, -0.2476443350315094, 0.19973039627075195, 0.09314601868391037], [-0.2037954181432724, -0.09990882873535156, 0.18367154896259308, -0.12711842358112335, 0.03018617257475853, 0.2518143057823181, -0.16996711492538452, -0.26110684871673584, 0.22098103165626526, 0.2602941393852234, -0.5082007646560669, -0.3666308522224426, 0.2814486026763916, 0.19493500888347626, 0.10981865227222443, -0.1456412822008133]], "fc2.bias": [0.20216898620128632, -0.12546774744987488, 0.21360434591770172, 0.4385242462158203, -0.034069426357746124, -0.49984848499298096, 0.36680740118026733, 0.1837606430053711, 0.31749123334884644, 0.23162612318992615, 0.3947313725948334, 0.2944515347480774, 0.10820531100034714, 0.3154890537261963, 0.1519460678100586, 0.0017599997809156775], "fc3.weight": [[0.45047736167907715, -0.365984171628952, 0.31783103942871094, 0.3017773926258087, 0.5613798499107361, -0.5372220873832703, 0.8071133494377136, 0.08773912489414215, 0.0529358945786953, 0.56106036901474, -0.6842039823532104, 0.028946956619620323, -0.04632967337965965, 0.2907560169696808, -0.22528347373008728, 0.208206906914711], [0.10815252363681793, 0.21530617773532867, 0.44141146540641785, 0.3713914155960083, -0.5339825749397278, 0.17814312875270844, -0.5219129920005798, 0.5474833250045776, 0.2652897834777832, -0.7195485234260559, 0.9452020525932312, 0.40652042627334595, 0.1456926316022873, 0.4116731584072113, 0.7322558760643005, -0.525203287601471], [0.1107780784368515, 0.2681140601634979, 0.19852785766124725, 0.002949837362393737, -0.3124653100967407, 0.3144225776195526, -0.06050821393728256, 0.22215567529201508, 0.36157384514808655, -0.6753199100494385, 0.8819372653961182, 0.07194439321756363, 0.35531798005104065, -0.08379411697387695, 0.4750339090824127, -0.3079076111316681], [0.047509606927633286, -0.14553378522396088, -0.22389933466911316, -0.05023520439863205, 0.14840556681156158, 0.08170691877603531, 0.048543255776166916, -0.036065854132175446, -0.013197925873100758, -0.019953491166234016, -0.34560850262641907, -0.2335062325000763, -0.28359752893447876, -0.2039300948381424, -0.2825634479522705, -0.08574523031711578], [0.23946550488471985, 0.46777522563934326, 0.1514686644077301, 0.27010276913642883, -0.5481355786323547, -0.011018086224794388, -0.42521199584007263, 0.4420791268348694, 0.38078224658966064, -0.7519596219062805, 0.7573571801185608, 0.10239747911691666, 0.6540803909301758, 0.35725316405296326, 0.6822032928466797, -0.5361130833625793], [0.29685041308403015, -0.6149949431419373, 0.2586570978164673, 0.20618551969528198, 0.5137476921081543, -0.12878145277500153, 0.302633672952652, -0.4024728536605835, -0.25191962718963623, 0.6555512547492981, -0.7736161947250366, -0.24425369501113892, -0.2150914967060089, 0.10297787934541702, -0.4349958002567291, 0.3660048246383667], [-0.07568374276161194, -0.5196732878684998, 0.143522709608078, -0.004773286171257496, 0.17400383949279785, -0.3058697581291199, 0.2921539843082428, -0.4519423246383667, -0.014951297082006931, 0.6486614942550659, -0.695231020450592, -0.1643940955400467, -0.38518792390823364, 0.112630195915699, -0.1370375156402588, 0.39832624793052673], [0.3197481036186218, -0.7022266387939453, 0.2467515468597412, 0.3465844988822937, 0.6552348136901855, -0.5694868564605713, 0.4078305959701538, -0.18713007867336273, 0.06541986763477325, 0.8902621865272522, -0.5930771827697754, 0.11842572689056396, 0.28562769293785095, 0.34682023525238037, -0.11249211430549622, 0.2794519364833832]], "fc3.bias": [0.30871519446372986, 0.1516934484243393, 0.06629439443349838, 0.11905736476182938, 0.3156087100505829, 0.24605119228363037, 0.2186654806137085, 0.3925939202308655], "fc4.weight": [[-0.3792930841445923, -0.637855589389801, -0.4929247796535492, 0.17083053290843964, -0.5232599377632141, -0.8395684957504272, -0.8670989274978638, -0.4894571602344513], [0.06577057391405106, 0.7720078229904175, 0.5841209888458252, -0.1940457969903946, 0.7442681789398193, -0.7988844513893127, -0.9107868075370789, 0.26933392882347107], [0.5078310966491699, -0.3726049065589905, -0.7499387264251709, -0.04741398245096207, -0.19487649202346802, 0.3011637330055237, 0.6661143898963928, 0.5449341535568237], [-0.4209657609462738, -0.6640660762786865, -0.33000773191452026, -0.2674892842769623, -0.5701127052307129, -1.0375577211380005, -0.415389746427536, -0.5718327164649963], [-0.5885006785392761, -0.5761222243309021, -0.7492666840553284, 0.21248719096183777, -0.039063986390829086, -1.319361686706543, -0.5014136433601379, -0.6184844374656677]], "fc4.bias": [-0.03650044649839401, 0.31851711869239807, 0.36996492743492126, -0.25741714239120483, 0.17987412214279175]}